/* Organism #69 Fitness: -874.166667 Time: 0 */
genomestart 69
trait 1 0.000000 0.000000 0.000000 0.000000 0.000000 0.000000 0.000000 0.000000 
node 1 1 1 1
node 2 1 1 1
node 3 1 1 1
node 4 1 1 1
node 5 1 1 1
node 6 1 1 1
node 7 1 1 1
node 8 1 1 1
node 9 1 1 1
node 10 1 1 1
node 11 1 1 1
node 12 1 1 1
node 13 1 1 1
node 14 1 1 3
node 15 1 0 2
node 16 1 0 2
node 17 1 0 2
node 18 1 0 2
gene 1 1 15 -0.914853 0 1 -0.914853 1
gene 1 2 15 0.843043 0 2 0.843043 1
gene 1 3 15 -0.0789209 0 3 -0.0789209 1
gene 1 4 15 -0.785028 0 4 -0.785028 1
gene 1 5 15 -0.188879 0 5 -0.188879 1
gene 1 6 15 -0.471358 0 6 -0.471358 1
gene 1 7 15 -0.706595 0 7 -0.706595 1
gene 1 8 15 -0.829432 0 8 -0.829432 1
gene 1 9 15 -0.91287 0 9 -0.91287 1
gene 1 10 15 -0.797693 0 10 -0.797693 1
gene 1 11 15 -0.954466 0 11 -0.954466 1
gene 1 12 15 0.99884 0 12 0.99884 1
gene 1 13 15 0.150822 0 13 0.150822 1
gene 1 14 15 -0.75042 0 14 -0.75042 1
gene 1 1 16 -0.34199 0 15 -0.34199 1
gene 1 2 16 -0.445051 0 16 -0.445051 1
gene 1 3 16 -0.558367 0 17 -0.558367 1
gene 1 4 16 -0.830775 0 18 -0.830775 1
gene 1 5 16 0.794549 0 19 0.794549 1
gene 1 6 16 0.222907 0 20 0.222907 1
gene 1 7 16 0.167516 0 21 0.167516 1
gene 1 8 16 0.179296 0 22 0.179296 1
gene 1 9 16 0.241035 0 23 0.241035 1
gene 1 10 16 -0.669057 0 24 -0.669057 1
gene 1 11 16 -0.797205 0 25 -0.797205 1
gene 1 12 16 0.26722 0 26 0.26722 1
gene 1 13 16 -0.836573 0 27 -0.836573 1
gene 1 14 16 0.405866 0 28 0.405866 1
gene 1 1 17 0.0881069 0 29 0.0881069 1
gene 1 2 17 -0.212897 0 30 -0.212897 1
gene 1 3 17 0.810083 0 31 0.810083 1
gene 1 4 17 -0.970458 0 32 -0.970458 1
gene 1 5 17 -0.16306 0 33 -0.16306 1
gene 1 6 17 -0.723136 0 34 -0.723136 1
gene 1 7 17 -0.936979 0 35 -0.936979 1
gene 1 8 17 0.068392 0 36 0.068392 1
gene 1 9 17 -0.912137 0 37 -0.912137 1
gene 1 10 17 0.659597 0 38 0.659597 1
gene 1 11 17 0.636952 0 39 0.636952 1
gene 1 12 17 -0.452956 0 40 -0.452956 1
gene 1 13 17 0.902646 0 41 0.902646 1
gene 1 14 17 -0.230415 0 42 -0.230415 1
gene 1 1 18 0.696402 0 43 0.696402 1
gene 1 2 18 0.428632 0 44 0.428632 1
gene 1 3 18 -0.914518 0 45 -0.914518 1
gene 1 4 18 -0.806299 0 46 -0.806299 1
gene 1 5 18 -0.61626 0 47 -0.61626 1
gene 1 6 18 -0.980255 0 48 -0.980255 1
gene 1 7 18 0.100314 0 49 0.100314 1
gene 1 8 18 0.362133 0 50 0.362133 1
gene 1 9 18 -0.584582 0 51 -0.584582 1
gene 1 10 18 -0.526811 0 52 -0.526811 1
gene 1 11 18 -0.770562 0 53 -0.770562 1
gene 1 12 18 -0.543382 0 54 -0.543382 1
gene 1 13 18 0.0741905 0 55 0.0741905 1
gene 1 14 18 0.300546 0 56 0.300546 1
genomeend 69


