/* Organism #16 Fitness: -899.166667 Time: 0 */
genomestart 16
trait 1 0.000000 0.000000 0.000000 0.000000 0.000000 0.000000 0.000000 0.000000 
node 1 1 1 1
node 2 1 1 1
node 3 1 1 1
node 4 1 1 1
node 5 1 1 1
node 6 1 1 1
node 7 1 1 1
node 8 1 1 1
node 9 1 1 1
node 10 1 1 1
node 11 1 1 1
node 12 1 1 1
node 13 1 1 1
node 14 1 1 3
node 15 1 0 2
node 16 1 0 2
node 17 1 0 2
node 18 1 0 2
gene 1 1 15 0.114811 0 1 0.114811 1
gene 1 2 15 -0.101077 0 2 -0.101077 1
gene 1 3 15 -0.4644 0 3 -0.4644 1
gene 1 4 15 0.275857 0 4 0.275857 1
gene 1 5 15 -0.895993 0 5 -0.895993 1
gene 1 6 15 0.302255 0 6 0.302255 1
gene 1 7 15 0.139531 0 7 0.139531 1
gene 1 8 15 -0.0870083 0 8 -0.0870083 1
gene 1 9 15 -0.38786 0 9 -0.38786 1
gene 1 10 15 0.654988 0 10 0.654988 1
gene 1 11 15 -0.474776 0 11 -0.474776 1
gene 1 12 15 -0.00418104 0 12 -0.00418104 1
gene 1 13 15 -0.821253 0 13 -0.821253 1
gene 1 14 15 -0.869198 0 14 -0.869198 1
gene 1 1 16 0.554949 0 15 0.554949 1
gene 1 2 16 -0.0488601 0 16 -0.0488601 1
gene 1 3 16 -0.710257 0 17 -0.710257 1
gene 1 4 16 -0.454787 0 18 -0.454787 1
gene 1 5 16 0.914274 0 19 0.914274 1
gene 1 6 16 0.536699 0 20 0.536699 1
gene 1 7 16 -0.46559 0 21 -0.46559 1
gene 1 8 16 -0.241066 0 22 -0.241066 1
gene 1 9 16 -0.212012 0 23 -0.212012 1
gene 1 10 16 -0.159337 0 24 -0.159337 1
gene 1 11 16 -0.132908 0 25 -0.132908 1
gene 1 12 16 0.0213935 0 26 0.0213935 1
gene 1 13 16 0.0334178 0 27 0.0334178 1
gene 1 14 16 0.191626 0 28 0.191626 1
gene 1 1 17 -0.255959 0 29 -0.255959 1
gene 1 2 17 -0.322611 0 30 -0.322611 1
gene 1 3 17 -0.815485 0 31 -0.815485 1
gene 1 4 17 -0.823603 0 32 -0.823603 1
gene 1 5 17 0.865017 0 33 0.865017 1
gene 1 6 17 0.2996 0 34 0.2996 1
gene 1 7 17 -0.897488 0 35 -0.897488 1
gene 1 8 17 0.617389 0 36 0.617389 1
gene 1 9 17 -0.589984 0 37 -0.589984 1
gene 1 10 17 0.754845 0 38 0.754845 1
gene 1 11 17 0.697043 0 39 0.697043 1
gene 1 12 17 0.0894192 0 40 0.0894192 1
gene 1 13 17 -0.898862 0 41 -0.898862 1
gene 1 14 17 -0.282907 0 42 -0.282907 1
gene 1 1 18 -0.0108341 0 43 -0.0108341 1
gene 1 2 18 0.417371 0 44 0.417371 1
gene 1 3 18 0.460921 0 45 0.460921 1
gene 1 4 18 -0.540056 0 46 -0.540056 1
gene 1 5 18 -0.440382 0 47 -0.440382 1
gene 1 6 18 -0.272164 0 48 -0.272164 1
gene 1 7 18 -0.635029 0 49 -0.635029 1
gene 1 8 18 -0.638722 0 50 -0.638722 1
gene 1 9 18 -0.942656 0 51 -0.942656 1
gene 1 10 18 -0.775079 0 52 -0.775079 1
gene 1 11 18 -0.0828272 0 53 -0.0828272 1
gene 1 12 18 0.666982 0 54 0.666982 1
gene 1 13 18 -0.506058 0 55 -0.506058 1
gene 1 14 18 0.57973 0 56 0.57973 1
genomeend 16


