/* Organism #57 Fitness: -815.000000 Time: 0 */
genomestart 57
trait 1 0.000000 0.000000 0.000000 0.000000 0.000000 0.000000 0.000000 0.000000 
node 1 1 1 1
node 2 1 1 1
node 3 1 1 1
node 4 1 1 1
node 5 1 1 1
node 6 1 1 1
node 7 1 1 1
node 8 1 1 1
node 9 1 1 1
node 10 1 1 1
node 11 1 1 1
node 12 1 1 1
node 13 1 1 1
node 14 1 1 3
node 15 1 0 2
node 16 1 0 2
node 17 1 0 2
node 18 1 0 2
gene 1 1 15 -0.226844 0 1 -0.226844 1
gene 1 2 15 -0.240028 0 2 -0.240028 1
gene 1 3 15 0.555956 0 3 0.555956 1
gene 1 4 15 -0.645589 0 4 -0.645589 1
gene 1 5 15 -0.923154 0 5 -0.923154 1
gene 1 6 15 -0.945738 0 6 -0.945738 1
gene 1 7 15 0.43553 0 7 0.43553 1
gene 1 8 15 -0.519669 0 8 -0.519669 1
gene 1 9 15 0.24073 0 9 0.24073 1
gene 1 10 15 0.314432 0 10 0.314432 1
gene 1 11 15 -0.426038 0 11 -0.426038 1
gene 1 12 15 -0.186529 0 12 -0.186529 1
gene 1 13 15 0.341105 0 13 0.341105 1
gene 1 14 15 0.0576495 0 14 0.0576495 1
gene 1 1 16 0.251076 0 15 0.251076 1
gene 1 2 16 0.0413221 0 16 0.0413221 1
gene 1 3 16 -0.725791 0 17 -0.725791 1
gene 1 4 16 -0.196509 0 18 -0.196509 1
gene 1 5 16 0.671529 0 19 0.671529 1
gene 1 6 16 0.0642415 0 20 0.0642415 1
gene 1 7 16 -0.411939 0 21 -0.411939 1
gene 1 8 16 -0.643941 0 22 -0.643941 1
gene 1 9 16 0.723655 0 23 0.723655 1
gene 1 10 16 -0.965148 0 24 -0.965148 1
gene 1 11 16 -0.233375 0 25 -0.233375 1
gene 1 12 16 -0.911557 0 26 -0.911557 1
gene 1 13 16 -0.0825831 0 27 -0.0825831 1
gene 1 14 16 0.452956 0 28 0.452956 1
gene 1 1 17 0.266152 0 29 0.266152 1
gene 1 2 17 -0.941801 0 30 -0.941801 1
gene 1 3 17 -0.550615 0 31 -0.550615 1
gene 1 4 17 -0.630329 0 32 -0.630329 1
gene 1 5 17 0.379406 0 33 0.379406 1
gene 1 6 17 0.0648824 0 34 0.0648824 1
gene 1 7 17 0.670217 0 35 0.670217 1
gene 1 8 17 0.513169 0 36 0.513169 1
gene 1 9 17 -0.911222 0 37 -0.911222 1
gene 1 10 17 0.0809961 0 38 0.0809961 1
gene 1 11 17 0.4626 0 39 0.4626 1
gene 1 12 17 0.675039 0 40 0.675039 1
gene 1 13 17 -0.469222 0 41 -0.469222 1
gene 1 14 17 0.467055 0 42 0.467055 1
gene 1 1 18 -0.290902 0 43 -0.290902 1
gene 1 2 18 0.0167852 0 44 0.0167852 1
gene 1 3 18 0.856563 0 45 0.856563 1
gene 1 4 18 -0.708975 0 46 -0.708975 1
gene 1 5 18 -0.848445 0 47 -0.848445 1
gene 1 6 18 0.661153 0 48 0.661153 1
gene 1 7 18 -0.122562 0 49 -0.122562 1
gene 1 8 18 0.758568 0 50 0.758568 1
gene 1 9 18 -0.271981 0 51 -0.271981 1
gene 1 10 18 0.972076 0 52 0.972076 1
gene 1 11 18 0.738609 0 53 0.738609 1
gene 1 12 18 -0.615619 0 54 -0.615619 1
gene 1 13 18 -0.380139 0 55 -0.380139 1
gene 1 14 18 -0.699423 0 56 -0.699423 1
genomeend 57


