/* Organism #46 Fitness: -880.000000 Time: 0 */
genomestart 46
trait 1 0.000000 0.000000 0.000000 0.000000 0.000000 0.000000 0.000000 0.000000 
node 1 1 1 1
node 2 1 1 1
node 3 1 1 1
node 4 1 1 1
node 5 1 1 1
node 6 1 1 1
node 7 1 1 1
node 8 1 1 1
node 9 1 1 1
node 10 1 1 1
node 11 1 1 1
node 12 1 1 1
node 13 1 1 1
node 14 1 1 3
node 15 1 0 2
node 16 1 0 2
node 17 1 0 2
node 18 1 0 2
gene 1 1 15 -0.96234 0 1 -0.96234 1
gene 1 2 15 -0.301645 0 2 -0.301645 1
gene 1 3 15 -0.595965 0 3 -0.595965 1
gene 1 4 15 0.244789 0 4 0.244789 1
gene 1 5 15 0.671224 0 5 0.671224 1
gene 1 6 15 -0.64391 0 6 -0.64391 1
gene 1 7 15 -0.436384 0 7 -0.436384 1
gene 1 8 15 0.444441 0 8 0.444441 1
gene 1 9 15 -0.515122 0 9 -0.515122 1
gene 1 10 15 -0.151494 0 10 -0.151494 1
gene 1 11 15 0.213721 0 11 0.213721 1
gene 1 12 15 0.938139 0 12 0.938139 1
gene 1 13 15 -0.523026 0 13 -0.523026 1
gene 1 14 15 -0.605976 0 14 -0.605976 1
gene 1 1 16 -0.0723899 0 15 -0.0723899 1
gene 1 2 16 -0.667959 0 16 -0.667959 1
gene 1 3 16 -0.0160833 0 17 -0.0160833 1
gene 1 4 16 -0.362529 0 18 -0.362529 1
gene 1 5 16 0.22306 0 19 0.22306 1
gene 1 6 16 -0.811274 0 20 -0.811274 1
gene 1 7 16 -0.332041 0 21 -0.332041 1
gene 1 8 16 -0.413892 0 22 -0.413892 1
gene 1 9 16 -0.343944 0 23 -0.343944 1
gene 1 10 16 -0.571947 0 24 -0.571947 1
gene 1 11 16 0.582965 0 25 0.582965 1
gene 1 12 16 -0.557604 0 26 -0.557604 1
gene 1 13 16 -0.186926 0 27 -0.186926 1
gene 1 14 16 -0.434797 0 28 -0.434797 1
gene 1 1 17 0.914823 0 29 0.914823 1
gene 1 2 17 -0.0105899 0 30 -0.0105899 1
gene 1 3 17 -0.107944 0 31 -0.107944 1
gene 1 4 17 -0.476363 0 32 -0.476363 1
gene 1 5 17 0.237831 0 33 0.237831 1
gene 1 6 17 0.315134 0 34 0.315134 1
gene 1 7 17 -0.739616 0 35 -0.739616 1
gene 1 8 17 -0.826289 0 36 -0.826289 1
gene 1 9 17 0.896481 0 37 0.896481 1
gene 1 10 17 0.87875 0 38 0.87875 1
gene 1 11 17 0.525224 0 39 0.525224 1
gene 1 12 17 0.872677 0 40 0.872677 1
gene 1 13 17 0.247108 0 41 0.247108 1
gene 1 14 17 0.993591 0 42 0.993591 1
gene 1 1 18 0.332957 0 43 0.332957 1
gene 1 2 18 -0.305521 0 44 -0.305521 1
gene 1 3 18 0.61333 0 45 0.61333 1
gene 1 4 18 -0.731376 0 46 -0.731376 1
gene 1 5 18 0.476852 0 47 0.476852 1
gene 1 6 18 -0.868923 0 48 -0.868923 1
gene 1 7 18 0.358806 0 49 0.358806 1
gene 1 8 18 0.768273 0 50 0.768273 1
gene 1 9 18 -0.586291 0 51 -0.586291 1
gene 1 10 18 -0.3043 0 52 -0.3043 1
gene 1 11 18 0.408979 0 53 0.408979 1
gene 1 12 18 -0.107425 0 54 -0.107425 1
gene 1 13 18 -0.95468 0 55 -0.95468 1
gene 1 14 18 0.414838 0 56 0.414838 1
genomeend 46


