/* Organism #1 Fitness: 21613.309860 Time: 0 */
genomestart 1
trait 1 0.476034 0.188367 0.414721 0.658899 0.684788 0.439835 0.071772 0.090833 
node 1 1 1 1
node 2 1 1 1
node 3 1 1 1
node 4 1 1 1
node 5 1 1 1
node 6 1 1 1
node 7 1 1 1
node 8 1 1 1
node 9 1 1 1
node 10 1 1 1
node 11 1 1 1
node 12 1 1 1
node 13 1 1 1
node 14 1 1 1
node 15 1 1 1
node 16 1 1 1
node 17 1 1 1
node 18 1 1 1
node 19 1 1 1
node 20 1 1 1
node 21 1 1 1
node 22 1 1 3
node 23 1 0 2
node 24 1 0 2
node 25 1 0 2
node 26 1 0 2
node 27 1 0 2
node 28 1 0 2
node 29 1 0 2
node 30 1 0 2
node 104 1 0 0
node 123 1 0 0
node 139 1 0 0
node 257 1 0 0
node 268 1 0 0
node 276 1 0 0
node 287 1 0 0
node 299 1 0 0
node 306 1 0 0
node 371 1 0 0
node 389 1 0 0
node 400 1 0 0
node 531 1 0 0
node 654 1 0 0
node 659 1 0 0
node 815 1 0 0
node 858 1 0 0
node 877 1 0 0
node 897 1 0 0
node 935 1 0 0
node 953 1 0 0
node 996 1 0 0
node 1062 1 0 0
node 1069 1 0 0
node 1099 1 0 0
node 1152 1 0 0
node 1157 1 0 0
node 1195 1 0 0
node 1210 1 0 0
node 1294 1 0 0
node 1301 1 0 0
node 1324 1 0 0
node 1332 1 0 0
node 1404 1 0 0
node 1424 1 0 0
node 1445 1 0 0
node 1549 1 0 0
node 1588 1 0 0
node 1596 1 0 0
node 1787 1 0 0
node 1799 1 0 0
node 1803 1 0 0
node 1806 1 0 0
node 1856 1 0 0
node 1882 1 0 0
node 1884 1 0 0
node 1893 1 0 0
node 1931 1 0 0
node 2028 1 0 0
node 2069 1 0 0
node 2078 1 0 0
node 2152 1 0 0
node 2248 1 0 0
node 2322 1 0 0
node 2337 1 0 0
node 2342 1 0 0
node 2355 1 0 0
node 2367 1 0 0
node 2430 1 0 0
node 2475 1 0 0
node 2481 1 0 0
node 2513 1 0 0
node 2579 1 0 0
node 2644 1 0 0
node 2660 1 0 0
node 2670 1 0 0
node 2702 1 0 0
node 2716 1 0 0
node 2880 1 0 0
node 2903 1 0 0
node 2918 1 0 0
node 3046 1 0 0
node 3074 1 0 0
node 3096 1 0 0
node 3112 1 0 0
node 3118 1 0 0
node 3183 1 0 0
node 3251 1 0 0
node 3257 1 0 0
node 3264 1 0 0
node 3333 1 0 0
node 3394 1 0 0
node 3416 1 0 0
node 3423 1 0 0
node 3479 1 0 0
node 3527 1 0 0
node 3539 1 0 0
node 3645 1 0 0
node 3714 1 0 0
node 3789 1 0 0
node 3852 1 0 0
gene 1 1 23 1.84867 0 1 1.84867 1
gene 1 2 23 7.3871 0 2 7.3871 1
gene 1 3 23 -2.93215 0 3 -2.93215 1
gene 1 4 23 2.90116 0 4 2.90116 1
gene 1 5 23 -1.07905 0 5 -1.07905 1
gene 1 6 23 -5.39149 0 6 -5.39149 1
gene 1 7 23 -2.29852 0 7 -2.29852 1
gene 1 8 23 0.742898 0 8 0.742898 1
gene 1 9 23 -7.86142 0 9 -7.86142 1
gene 1 10 23 -4.36241 0 10 -4.36241 1
gene 1 11 23 4.66833 0 11 4.66833 1
gene 1 12 23 -6.93937 0 12 -6.93937 1
gene 1 13 23 -6.03754 0 13 -6.03754 1
gene 1 14 23 -6.47405 0 14 -6.47405 1
gene 1 15 23 -7.89286 0 15 -7.89286 1
gene 1 16 23 0.930777 0 16 0.930777 1
gene 1 17 23 2.90305 0 17 2.90305 1
gene 1 18 23 6.43799 0 18 6.43799 1
gene 1 19 23 3.02028 0 19 3.02028 1
gene 1 20 23 2.26048 0 20 2.26048 1
gene 1 21 23 0.874007 0 21 0.874007 1
gene 1 22 23 2.52369 0 22 2.52369 1
gene 1 1 24 -2.30386 0 23 -2.30386 1
gene 1 2 24 -2.51177 0 24 -2.51177 1
gene 1 3 24 2.56494 0 25 2.56494 1
gene 1 4 24 5.81461 0 26 5.81461 1
gene 1 5 24 -7.37977 0 27 -7.37977 1
gene 1 6 24 -2.29538 0 28 -2.29538 1
gene 1 7 24 0.833999 0 29 0.833999 1
gene 1 8 24 3.09408 0 30 3.09408 1
gene 1 9 24 4.54051 0 31 4.54051 1
gene 1 10 24 -5.43366 0 32 -5.43366 1
gene 1 11 24 3.53359 0 33 3.53359 1
gene 1 12 24 4.90738 0 34 4.90738 1
gene 1 13 24 7.27667 0 35 7.27667 1
gene 1 14 24 5.72356 0 36 5.72356 1
gene 1 15 24 7.27071 0 37 7.27071 1
gene 1 16 24 0.504506 0 38 0.504506 1
gene 1 17 24 6.14191 0 39 6.14191 1
gene 1 18 24 5.48898 0 40 5.48898 1
gene 1 19 24 1.03846 0 41 1.03846 1
gene 1 20 24 0.975431 0 42 0.975431 1
gene 1 21 24 -1.94515 0 43 -1.94515 1
gene 1 22 24 4.75005 0 44 4.75005 1
gene 1 1 25 4.47773 0 45 4.47773 1
gene 1 2 25 2.32497 0 46 2.32497 1
gene 1 3 25 -7.59418 0 47 -7.59418 1
gene 1 4 25 5.53357 0 48 5.53357 1
gene 1 5 25 1.22019 0 49 1.22019 1
gene 1 6 25 -0.626041 0 50 -0.626041 1
gene 1 7 25 -0.974779 0 51 -0.974779 1
gene 1 8 25 1.78568 0 52 1.78568 1
gene 1 9 25 2.41267 0 53 2.41267 1
gene 1 10 25 -4.23286 0 54 -4.23286 1
gene 1 11 25 6.11643 0 55 6.11643 1
gene 1 12 25 2.6848 0 56 2.6848 1
gene 1 13 25 -5.22719 0 57 -5.22719 1
gene 1 14 25 2.97222 0 58 2.97222 1
gene 1 15 25 1.58128 0 59 1.58128 1
gene 1 16 25 4.53463 0 60 4.53463 1
gene 1 17 25 -0.794462 0 61 -0.794462 1
gene 1 18 25 -2.28466 0 62 -2.28466 1
gene 1 19 25 -3.65721 0 63 -3.65721 1
gene 1 20 25 -3.69775 0 64 -3.69775 1
gene 1 21 25 6.49532 0 65 6.49532 1
gene 1 22 25 7.25457 0 66 7.25457 1
gene 1 1 26 2.87436 0 67 2.87436 1
gene 1 2 26 -2.86627 0 68 -2.86627 1
gene 1 3 26 4.50644 0 69 4.50644 1
gene 1 4 26 4.30239 0 70 4.30239 1
gene 1 5 26 4.12465 0 71 4.12465 1
gene 1 6 26 5.08554 0 72 5.08554 1
gene 1 7 26 2.52315 0 73 2.52315 1
gene 1 8 26 -2.6388 0 74 -2.6388 1
gene 1 9 26 3.10311 0 75 3.10311 1
gene 1 10 26 6.79425 0 76 6.79425 1
gene 1 11 26 3.8733 0 77 3.8733 1
gene 1 12 26 3.42859 0 78 3.42859 1
gene 1 13 26 3.15385 0 79 3.15385 1
gene 1 14 26 -4.68043 0 80 -4.68043 1
gene 1 15 26 2.62839 0 81 2.62839 1
gene 1 16 26 0.573005 0 82 0.573005 1
gene 1 17 26 -0.801509 0 83 -0.801509 1
gene 1 18 26 -7.88872 0 84 -7.88872 1
gene 1 19 26 -2.98112 0 85 -2.98112 1
gene 1 20 26 0.991705 0 86 0.991705 1
gene 1 21 26 -0.459822 0 87 -0.459822 1
gene 1 22 26 1.21206 0 88 1.21206 1
gene 1 1 27 5.92639 0 89 5.92639 1
gene 1 2 27 4.48606 0 90 4.48606 1
gene 1 3 27 1.67115 0 91 1.67115 1
gene 1 4 27 6.70596 0 92 6.70596 1
gene 1 5 27 -0.924209 0 93 -0.924209 1
gene 1 6 27 -6.64453 0 94 -6.64453 1
gene 1 7 27 -4.50391 0 95 -4.50391 1
gene 1 8 27 -2.19163 0 96 -2.19163 1
gene 1 9 27 -3.5574 0 97 -3.5574 1
gene 1 10 27 -0.76712 0 98 -0.76712 1
gene 1 11 27 -4.58661 0 99 -4.58661 1
gene 1 12 27 3.80179 0 100 3.80179 1
gene 1 13 27 5.38062 0 101 5.38062 1
gene 1 14 27 6.90425 0 102 6.90425 1
gene 1 15 27 1.33446 0 103 1.33446 1
gene 1 16 27 5.12681 0 104 5.12681 1
gene 1 17 27 -7.94235 0 105 -7.94235 1
gene 1 18 27 7.45399 0 106 7.45399 1
gene 1 19 27 1.31819 0 107 1.31819 1
gene 1 20 27 5.48594 0 108 5.48594 1
gene 1 21 27 0.650762 0 109 0.650762 1
gene 1 22 27 2.78423 0 110 2.78423 1
gene 1 1 28 -3.8634 0 111 -3.8634 1
gene 1 2 28 4.97666 0 112 4.97666 1
gene 1 3 28 5.17711 0 113 5.17711 1
gene 1 4 28 1.92833 0 114 1.92833 1
gene 1 5 28 5.90188 0 115 5.90188 1
gene 1 6 28 7.86479 0 116 7.86479 1
gene 1 7 28 0.108901 0 117 0.108901 1
gene 1 8 28 -3.20776 0 118 -3.20776 1
gene 1 9 28 7.87057 0 119 7.87057 1
gene 1 10 28 6.75777 0 120 6.75777 1
gene 1 11 28 0.0838329 0 121 0.0838329 1
gene 1 12 28 -4.75822 0 122 -4.75822 1
gene 1 13 28 0.754289 0 123 0.754289 1
gene 1 14 28 6.16693 0 124 6.16693 1
gene 1 15 28 -5.09816 0 125 -5.09816 1
gene 1 16 28 6.61464 0 126 6.61464 1
gene 1 17 28 6.8597 0 127 6.8597 0
gene 1 18 28 7.74095 0 128 7.74095 1
gene 1 19 28 -3.65005 0 129 -3.65005 1
gene 1 20 28 0.0317428 0 130 0.0317428 1
gene 1 21 28 -4.36669 0 131 -4.36669 1
gene 1 22 28 -4.55902 0 132 -4.55902 1
gene 1 1 29 -0.380207 0 133 -0.380207 1
gene 1 2 29 -3.09759 0 134 -3.09759 1
gene 1 3 29 -1.37814 0 135 -1.37814 1
gene 1 4 29 -1.72234 0 136 -1.72234 1
gene 1 5 29 -0.517621 0 137 -0.517621 1
gene 1 6 29 1.7766 0 138 1.7766 0
gene 1 7 29 -5.04816 0 139 -5.04816 1
gene 1 8 29 6.69562 0 140 6.69562 1
gene 1 9 29 3.31364 0 141 3.31364 1
gene 1 10 29 -2.08592 0 142 -2.08592 1
gene 1 11 29 -5.22934 0 143 -5.22934 1
gene 1 12 29 5.20417 0 144 5.20417 1
gene 1 13 29 7.98531 0 145 7.98531 1
gene 1 14 29 -7.91164 0 146 -7.91164 1
gene 1 15 29 4.83071 0 147 4.83071 1
gene 1 16 29 3.92109 0 148 3.92109 1
gene 1 17 29 6.77613 0 149 6.77613 1
gene 1 18 29 0.503952 0 150 0.503952 1
gene 1 19 29 6.92313 0 151 6.92313 1
gene 1 20 29 0.669616 0 152 0.669616 1
gene 1 21 29 7.11919 0 153 7.11919 1
gene 1 22 29 -7.92977 0 154 -7.92977 1
gene 1 1 30 6.89846 0 155 6.89846 1
gene 1 2 30 -5.33029 0 156 -5.33029 1
gene 1 3 30 -6.35606 0 157 -6.35606 1
gene 1 4 30 -4.24784 0 158 -4.24784 1
gene 1 5 30 7.06817 0 159 7.06817 1
gene 1 6 30 0.879456 0 160 0.879456 1
gene 1 7 30 1.81245 0 161 1.81245 1
gene 1 8 30 -7.76049 0 162 -7.76049 1
gene 1 9 30 -3.8557 0 163 -3.8557 1
gene 1 10 30 6.18197 0 164 6.18197 1
gene 1 11 30 -3.0552 0 165 -3.0552 1
gene 1 12 30 -6.37128 0 166 -6.37128 1
gene 1 13 30 -6.42553 0 167 -6.42553 1
gene 1 14 30 -0.8476 0 168 -0.8476 1
gene 1 15 30 -2.92052 0 169 -2.92052 1
gene 1 16 30 5.46378 0 170 5.46378 1
gene 1 17 30 0.261373 0 171 0.261373 1
gene 1 18 30 -1.25404 0 172 -1.25404 1
gene 1 19 30 0.520972 0 173 0.520972 1
gene 1 20 30 -6.49417 0 174 -6.49417 1
gene 1 21 30 6.92955 0 175 6.92955 1
gene 1 22 30 6.39924 0 176 6.39924 1
gene 1 18 104 3.37341 0 426 3.37341 1
gene 1 104 23 -2.94456 0 427 -2.94456 1
gene 1 10 123 -0.0300406 0 488 -0.0300406 0
gene 1 123 28 0.488464 0 489 0.488464 1
gene 1 10 139 -2.05493 0 558 -2.05493 1
gene 1 139 24 1.59824 0 559 1.59824 1
gene 1 25 24 -0.542853 0 646 -0.542853 1
gene 1 14 123 -4.76668 0 724 -4.76668 1
gene 1 24 30 1.14061 0 906 1.14061 1
gene 1 20 257 0.951306 0 962 0.951306 1
gene 1 257 24 3.13046 0 963 3.13046 1
gene 1 13 257 5.86513 0 978 5.86513 1
gene 1 11 268 5.29002 0 999 5.29002 1
gene 1 268 25 3.21613 0 1000 3.21613 1
gene 1 20 268 -7.97462 0 1020 -7.97462 1
gene 1 3 276 1.3465 0 1040 1.3465 1
gene 1 276 30 1.01065 0 1041 1.01065 1
gene 1 14 276 -6.84974 0 1057 -6.84974 1
gene 1 15 287 6.63763 0 1070 6.63763 1
gene 1 287 30 1.05542 0 1071 1.05542 1
gene 1 12 299 -4.56455 0 1118 -4.56455 1
gene 1 299 23 4.92696 0 1119 4.92696 1
gene 1 12 306 7.53507 0 1141 7.53507 1
gene 1 306 25 7.94152 0 1142 7.94152 1
gene 1 7 276 -1.24506 0 1159 -1.24506 1
gene 1 299 276 2.61549 0 1265 2.61549 1
gene 1 9 306 -6.47398 0 1276 -6.47398 1
gene 1 17 104 6.19318 0 1296 6.19318 1
gene 1 17 257 -1.34452 0 1317 -1.34452 1
gene 1 3 287 2.95709 0 1355 2.95709 1
gene 1 23 30 5.38271 0 1372 5.38271 1
gene 1 20 371 0.0326951 0 1397 0.0326951 1
gene 1 371 29 -0.833318 0 1398 -0.833318 1
gene 1 371 268 7.41622 0 1442 7.41622 1
gene 1 13 389 6.44467 0 1451 6.44467 1
gene 1 389 27 4.00411 0 1452 4.00411 1
gene 1 25 400 -4.40167 0 1488 -4.40167 1
gene 1 400 24 5.08167 0 1489 5.08167 1
gene 1 14 400 -1.32472 0 1499 -1.32472 1
gene 1 2 276 -2.34436 0 1744 -2.34436 1
gene 1 17 276 -7.56564 0 1907 -7.56564 1
gene 1 6 531 -3.69568 0 1921 -3.69568 1
gene 1 531 23 0.874634 0 1922 0.874634 1
gene 1 3 400 -3.31238 0 1986 -3.31238 1
gene 1 21 123 3.12564 0 2170 3.12564 1
gene 1 12 654 -0.849664 0 2385 -0.849664 1
gene 1 654 23 -4.83757 0 2386 -4.83757 1
gene 1 3 659 -6.36816 0 2401 -6.36816 1
gene 1 659 24 0.696135 0 2402 0.696135 1
gene 1 371 30 5.68351 0 2430 5.68351 1
gene 1 123 400 -6.46156 0 2456 -6.46156 1
gene 1 1 659 -5.6781 0 2529 -5.6781 1
gene 1 11 123 -2.71906 0 2557 -2.71906 1
gene 1 659 654 7.39038 0 2873 7.39038 1
gene 1 29 299 -0.658069 0 2908 -0.658069 1
gene 1 123 815 1.44214 0 2927 1.44214 1
gene 1 815 400 1.10244 0 2928 1.10244 1
gene 1 23 28 -0.924951 0 2950 -0.924951 1
gene 1 9 858 -1.70998 0 3077 -1.70998 1
gene 1 858 27 1.55559 0 3078 1.55559 1
gene 1 19 123 6.53804 0 3112 6.53804 1
gene 1 11 877 1.17308 0 3153 1.17308 1
gene 1 877 29 0.0800255 0 3154 0.0800255 1
gene 1 19 897 3.32976 0 3219 3.32976 1
gene 1 897 26 5.51529 0 3220 5.51529 1
gene 1 19 371 7.03594 0 3236 7.03594 1
gene 1 17 815 0.412369 0 3350 0.412369 1
gene 1 20 935 -0.758493 0 3364 -0.758493 1
gene 1 935 30 5.29074 0 3365 5.29074 1
gene 1 2 123 0.261364 0 3402 0.261364 1
gene 1 15 953 2.05608 0 3415 2.05608 1
gene 1 953 27 -1.00946 0 3416 -1.00946 1
gene 1 9 257 -1.48938 0 3430 -1.48938 1
gene 1 531 654 0.64088 0 3445 0.64088 1
gene 1 953 25 -1.26972 0 3453 -1.26972 1
gene 1 877 659 5.36835 0 3472 5.36835 1
gene 1 3 996 -3.76569 0 3574 -3.76569 1
gene 1 996 400 1.88952 0 3575 1.88952 1
gene 1 15 935 -6.98147 0 3683 -6.98147 1
gene 1 25 25 -0.881139 1 3749 -0.881139 1
gene 1 257 371 2.18652 0 3799 2.18652 1
gene 1 2 1062 6.7977 0 3819 6.7977 1
gene 1 1062 30 -5.7228 0 3820 -5.7228 1
gene 1 19 1069 -6.6897 0 3840 -6.6897 1
gene 1 1069 30 -1.2808 0 3841 -1.2808 1
gene 1 19 1099 7.50656 0 3949 7.50656 1
gene 1 1099 1069 3.20931 0 3950 3.20931 1
gene 1 1069 287 0.541338 0 4050 0.541338 1
gene 1 953 276 3.15318 0 4116 3.15318 1
gene 1 2 1152 0.0760065 0 4154 0.0760065 1
gene 1 1152 276 -2.94799 0 4155 -2.94799 1
gene 1 3 1157 4.59427 0 4175 4.59427 1
gene 1 1157 659 3.95007 0 4176 3.95007 1
gene 1 19 1195 -5.96026 0 4334 -5.96026 1
gene 1 1195 123 6.84077 0 4335 6.84077 1
gene 1 371 897 -2.24123 0 4369 -2.24123 1
gene 1 8 1210 -0.928556 0 4402 -0.928556 1
gene 1 1210 28 5.70596 0 4403 5.70596 1
gene 1 20 389 6.40136 0 4413 6.40136 1
gene 1 1069 299 6.52418 0 4556 6.52418 1
gene 1 12 1294 -4.42376 0 4673 -4.42376 1
gene 1 1294 30 6.59769 0 4674 6.59769 1
gene 1 8 1301 -7.66992 0 4702 -7.66992 1
gene 1 1301 25 7.27761 0 4703 7.27761 1
gene 1 8 1324 4.99987 0 4792 4.99987 1
gene 1 1324 28 -7.77239 0 4793 -7.77239 1
gene 1 953 654 5.8052 0 4799 5.8052 1
gene 1 123 1332 -5.40006 0 4822 -5.40006 1
gene 1 1332 400 -0.0660468 0 4823 -0.0660468 1
gene 1 953 104 0.393822 0 4838 0.393822 1
gene 1 12 1404 2.89306 0 5082 2.89306 1
gene 1 1404 24 7.7631 0 5083 7.7631 1
gene 1 16 1301 -2.08333 0 5131 -2.08333 1
gene 1 8 1424 7.88199 0 5147 7.88199 1
gene 1 1424 30 4.78272 0 5148 4.78272 1
gene 1 20 858 4.65807 0 5161 4.65807 1
gene 1 257 1445 0.937543 0 5226 0.937543 1
gene 1 1445 24 5.95955 0 5227 5.95955 1
gene 1 123 29 -4.07904 0 5434 -4.07904 1
gene 1 858 268 -1.86933 0 5551 -1.86933 1
gene 1 11 1549 -1.6371 0 5589 -1.6371 1
gene 1 1549 28 -1.26453 0 5590 -1.26453 1
gene 1 1301 1424 -4.41739 0 5630 -4.41739 1
gene 1 1210 123 5.24898 0 5660 5.24898 1
gene 1 815 858 4.09978 0 5689 4.09978 1
gene 1 5 1588 -0.482438 0 5760 -0.482438 1
gene 1 1588 30 -3.03648 0 5761 -3.03648 1
gene 1 1210 1195 2.42337 0 5775 2.42337 1
gene 1 14 1596 5.06105 0 5790 5.06105 1
gene 1 1596 400 -0.242258 0 5791 -0.242258 1
gene 1 14 268 1.22797 0 5933 1.22797 1
gene 1 935 123 1.02871 0 5945 1.02871 1
gene 1 1549 1195 7.51159 0 5996 7.51159 1
gene 1 1210 659 5.23984 0 6009 5.23984 1
gene 1 26 306 -3.09362 0 6024 -3.09362 1
gene 1 1210 26 1.12109 0 6100 1.12109 1
gene 1 306 389 3.39932 0 6185 3.39932 1
gene 1 659 953 -3.09501 0 6249 -3.09501 1
gene 1 654 389 2.41239 0 6383 2.41239 1
gene 1 1596 1787 3.5013 0 6486 3.5013 1
gene 1 1787 400 7.52784 0 6487 7.52784 1
gene 1 400 1799 0.697865 0 6522 0.697865 1
gene 1 1799 24 -7.3145 0 6523 -7.3145 1
gene 1 8 1803 1.91735 0 6544 1.91735 1
gene 1 1803 30 -3.07407 0 6545 -3.07407 1
gene 1 20 1806 -1.3697 0 6564 -1.3697 1
gene 1 1806 23 -5.608 0 6565 -5.608 1
gene 1 276 1588 -1.12054 0 6619 -1.12054 1
gene 1 1069 257 3.65417 0 6720 3.65417 1
gene 1 1404 1069 -0.205634 0 6735 -0.205634 1
gene 1 20 1856 -0.948752 0 6752 -0.948752 1
gene 1 1856 25 -3.26973 0 6753 -3.26973 1
gene 1 2 1882 -1.66443 0 6839 -1.66443 1
gene 1 1882 1152 1.22113 0 6840 1.22113 1
gene 1 4 1884 -2.40332 0 6859 -2.40332 1
gene 1 1884 28 0.134461 0 6860 0.134461 1
gene 1 12 1893 1.96969 0 6883 1.96969 1
gene 1 1893 1404 2.57403 0 6884 2.57403 1
gene 1 389 1884 -0.260053 0 7010 -0.260053 1
gene 1 11 1931 -1.29857 0 7021 -1.29857 1
gene 1 1931 268 0.575688 0 7022 0.575688 1
gene 1 389 1787 -7.72528 0 7197 -7.72528 1
gene 1 19 996 -1.36524 0 7261 -1.36524 1
gene 1 1588 257 -3.97676 0 7369 -3.97676 1
gene 1 306 2028 0.389086 0 7394 0.389086 1
gene 1 2028 389 -1.31859 0 7395 -1.31859 1
gene 1 1588 2069 6.15432 0 7551 6.15432 1
gene 1 2069 30 1.5006 0 7552 1.5006 1
gene 1 897 2078 -6.25922 0 7589 -6.25922 1
gene 1 2078 26 0.301908 0 7590 0.301908 1
gene 1 935 935 3.37046 1 7634 3.37046 1
gene 1 1099 1062 -0.140042 0 7652 -0.140042 1
gene 1 2078 1806 2.28129 0 7673 2.28129 1
gene 1 1157 1424 0.345069 0 7701 0.345069 1
gene 1 654 1856 -5.69601 0 7744 -5.69601 1
gene 1 1210 2152 -2.8162 0 7931 -2.8162 1
gene 1 2152 123 -2.72253 0 7932 -2.72253 1
gene 1 14 371 2.26843 0 8041 2.26843 1
gene 1 1856 1806 -2.89913 0 8176 -2.89913 1
gene 1 1549 29 -2.87128 0 8189 -2.87128 1
gene 1 1588 2248 1.90079 0 8248 1.90079 1
gene 1 2248 257 -2.40723 0 8249 -2.40723 1
gene 1 5 1062 0.522911 0 8308 0.522911 1
gene 1 28 139 2.13468 0 8415 2.13468 1
gene 1 1806 2322 -0.714833 0 8530 -0.714833 1
gene 1 2322 23 7.9802 0 8531 7.9802 1
gene 1 2 2337 0.654591 0 8587 0.654591 1
gene 1 2337 23 -1.29548 0 8588 -1.29548 1
gene 1 1588 2342 4.14044 0 8602 4.14044 1
gene 1 2342 257 -4.14733 0 8603 -4.14733 1
gene 1 10 2355 -0.897039 0 8648 -0.897039 1
gene 1 2355 24 -0.0307042 0 8649 -0.0307042 1
gene 1 13 1294 3.50447 0 8675 3.50447 1
gene 1 2248 2152 7.36158 0 8685 7.36158 1
gene 1 1210 2367 1.49183 0 8710 1.49183 1
gene 1 2367 2152 -2.90843 0 8711 -2.90843 1
gene 1 13 2337 3.53614 0 8748 3.53614 1
gene 1 27 2342 -5.33534 0 8797 -5.33534 1
gene 1 139 1803 1.7099 0 8888 1.7099 1
gene 1 654 2430 4.28898 0 8909 4.28898 1
gene 1 2430 389 -5.05961 0 8910 -5.05961 1
gene 1 1787 1856 -0.174633 0 9007 -0.174633 1
gene 1 1099 1884 -1.44266 0 9091 -1.44266 1
gene 1 23 2475 2.0711 0 9121 2.0711 1
gene 1 2475 28 1.48196 0 9122 1.48196 1
gene 1 18 2481 0.196574 0 9142 0.196574 1
gene 1 2481 104 -4.10355 0 9143 -4.10355 1
gene 1 1931 371 -0.869887 0 9160 -0.869887 1
gene 1 257 1324 -0.988144 0 9196 -0.988144 1
gene 1 15 2513 -1.80505 0 9261 -1.80505 1
gene 1 2513 29 -3.17366 0 9262 -3.17366 1
gene 1 29 25 -0.372054 0 9278 -0.372054 1
gene 1 1195 1324 -5.55269 0 9313 -5.55269 1
gene 1 2513 371 -7.64263 0 9380 -7.64263 1
gene 1 20 2579 0.11736 0 9478 0.11736 1
gene 1 2579 29 0.298444 0 9479 0.298444 1
gene 1 306 1062 0.0590548 0 9516 0.0590548 1
gene 1 20 1787 0.365129 0 9527 0.365129 1
gene 1 2342 1210 1.05459 0 9661 1.05459 1
gene 1 7 2644 0.844165 0 9708 0.844165 1
gene 1 2644 27 -1.33018 0 9709 -1.33018 1
gene 1 20 2660 -0.481578 0 9758 -0.481578 1
gene 1 2660 1856 -1.23152 0 9759 -1.23152 1
gene 1 3 2670 -1.15026 0 9788 -1.15026 1
gene 1 2670 659 -2.23706 0 9789 -2.23706 1
gene 1 27 2702 0.778767 0 9906 0.778767 1
gene 1 2702 2342 -0.993647 0 9907 -0.993647 1
gene 1 306 659 -0.332926 0 9930 -0.332926 1
gene 1 1210 2716 -0.161787 0 9952 -0.161787 1
gene 1 2716 28 1.80009 0 9953 1.80009 1
gene 1 21 1099 1.70225 0 10048 1.70225 1
gene 1 25 2430 -0.249997 0 10155 -0.249997 1
gene 1 21 1588 0.273552 0 10198 0.273552 1
gene 1 20 1332 2.89926 0 10267 2.89926 1
gene 1 27 1445 -2.43727 0 10337 -2.43727 1
gene 1 877 26 -3.61343 0 10354 -3.61343 1
gene 1 27 2880 -2.51059 0 10490 -2.51059 1
gene 1 2880 1445 1.98096 0 10491 1.98096 1
gene 1 531 2903 1.01637 0 10577 1.01637 1
gene 1 2903 654 -1.31209 0 10578 -1.31209 1
gene 1 1424 1195 1.38736 0 10615 1.38736 1
gene 1 1152 123 -1.05183 0 10652 -1.05183 1
gene 1 1787 2513 -0.429948 0 10663 -0.429948 1
gene 1 257 2918 4.84181 0 10672 4.84181 1
gene 1 2918 1445 -1.14921 0 10673 -1.14921 1
gene 1 27 1062 -1.17273 0 10730 -1.17273 1
gene 1 1787 1549 -3.37276 0 10739 -3.37276 1
gene 1 1210 1424 0.830046 0 10760 0.830046 1
gene 1 24 2670 -0.221028 0 10792 -0.221028 1
gene 1 2322 1856 4.08798 0 10860 4.08798 1
gene 1 27 1799 -2.12132 0 11025 -2.12132 1
gene 1 371 3046 2.74764 0 11126 2.74764 1
gene 1 3046 30 0.910548 0 11127 0.910548 1
gene 1 659 3074 0.885616 0 11222 0.885616 1
gene 1 3074 654 -1.5098 0 11223 -1.5098 1
gene 1 17 2880 -0.996498 0 11236 -0.996498 1
gene 1 7 3096 -2.16225 0 11308 -2.16225 1
gene 1 3096 276 0.63724 0 11309 0.63724 1
gene 1 1069 1294 -1.5728 0 11344 -1.5728 1
gene 1 21 3112 -1.75691 0 11361 -1.75691 1
gene 1 3112 1588 0.718148 0 11362 0.718148 1
gene 1 17 3118 -0.381421 0 11383 -0.381421 1
gene 1 3118 25 -0.695982 0 11384 -0.695982 1
gene 1 1893 2880 0.129161 0 11415 0.129161 1
gene 1 2475 287 0.735622 0 11433 0.735622 1
gene 1 2430 1803 0.309826 0 11454 0.309826 1
gene 1 11 1294 1.44404 0 11577 1.44404 1
gene 1 8 3183 -0.597194 0 11600 -0.597194 1
gene 1 3183 26 -0.23623 0 11601 -0.23623 1
gene 1 1324 389 -0.116664 0 11770 -0.116664 1
gene 1 4 3251 4.64576 0 11816 4.64576 1
gene 1 3251 29 1.41468 0 11817 1.41468 1
gene 1 2702 3257 0.49676 0 11836 0.49676 1
gene 1 3257 2342 0.962053 0 11837 0.962053 1
gene 1 2367 3264 -8 0 11870 -8 1
gene 1 3264 2152 0.0754475 0 11871 0.0754475 1
gene 1 2481 1062 0.308443 0 12037 0.308443 1
gene 1 16 1445 0.107315 0 12110 0.107315 1
gene 1 659 1884 0.165754 0 12129 0.165754 1
gene 1 12 3333 -2.35145 0 12149 -2.35145 1
gene 1 3333 26 0.605256 0 12150 0.605256 1
gene 1 14 3394 2.12757 0 12359 2.12757 1
gene 1 3394 30 0.0169044 0 12360 0.0169044 1
gene 1 3264 2702 -2.307 0 12412 -2.307 1
gene 1 1099 3416 0.958531 0 12444 0.958531 1
gene 1 3416 1884 2.02854 0 12445 2.02854 1
gene 1 17 3423 1.47905 0 12472 1.47905 1
gene 1 3423 30 -0.309045 0 12473 -0.309045 1
gene 1 13 3479 1.33103 0 12673 1.33103 1
gene 1 3479 27 -0.55725 0 12674 -0.55725 1
gene 1 897 1882 -0.416404 0 12715 -0.416404 1
gene 1 1332 654 0.519699 0 12728 0.519699 1
gene 1 257 531 -1.93437 0 12817 -1.93437 1
gene 1 13 3527 2.82089 0 12847 2.82089 1
gene 1 3527 24 1.69459 0 12848 1.69459 1
gene 1 953 3539 -2.17839 0 12886 -2.17839 1
gene 1 3539 104 -1.14192 0 12887 -1.14192 1
gene 1 3046 1882 -1.91435 0 12961 -1.91435 1
gene 1 17 400 -2.04132 0 13003 -2.04132 1
gene 1 6 2660 -1.53384 0 13112 -1.53384 1
gene 1 953 3645 -0.533542 0 13247 -0.533542 1
gene 1 3645 654 0.769262 0 13248 0.769262 1
gene 1 858 3074 0.423316 0 13288 0.423316 1
gene 1 3257 2670 0.939099 0 13353 0.939099 1
gene 1 4 2367 -3.61849 0 13445 -3.61849 1
gene 1 6 3714 1.02813 0 13491 1.02813 1
gene 1 3714 29 0.643375 0 13492 0.643375 1
gene 1 1210 287 -3.41022 0 13626 -3.41022 1
gene 1 6 3645 -1.18571 0 13661 -1.18571 1
gene 1 10 3789 3.12382 0 13776 2.99882 1
gene 1 3789 123 -0.73437 0 13777 -0.763236 1
gene 1 5 3852 1.85761 0 14029 1.35761 1
gene 1 3852 29 -0.866262 0 14030 -0.169988 1
gene 1 2069 2918 -0.81933 0 14105 -0.81933 1
genomeend 1


