
/* Species #244 : (Size 8) (AF 9437.19) (Age 38)  */


/* Organism #0 Fitness: 14341 Error: 0 */
genomestart 0
trait 1 0.699519 0.302752 0.131973 0.796331 0.418581 0.625515 0.521375 0.120858 
node 1 1 1 1
node 2 1 1 1
node 3 1 1 1
node 4 1 1 1
node 5 1 1 1
node 6 1 1 1
node 7 1 1 1
node 8 1 1 1
node 9 1 1 1
node 10 1 1 1
node 11 1 1 1
node 12 1 1 1
node 13 1 1 1
node 14 1 1 1
node 15 1 1 1
node 16 1 1 1
node 17 1 1 1
node 18 1 1 1
node 19 1 1 1
node 20 1 1 1
node 21 1 1 1
node 22 1 1 3
node 23 1 0 2
node 24 1 0 2
node 25 1 0 2
node 26 1 0 2
node 27 1 0 2
node 28 1 0 2
node 29 1 0 2
node 30 1 0 2
node 104 1 0 0
node 123 1 0 0
node 139 1 0 0
node 257 1 0 0
node 268 1 0 0
node 276 1 0 0
node 287 1 0 0
node 299 1 0 0
node 306 1 0 0
node 371 1 0 0
node 389 1 0 0
node 400 1 0 0
node 531 1 0 0
node 569 1 0 0
node 707 1 0 0
gene 1 1 23 -1.52011 0 1 -1.52011 1
gene 1 2 23 5.94056 0 2 5.94056 1
gene 1 3 23 -7.314 0 3 -7.314 1
gene 1 4 23 -3.32966 0 4 -3.32966 1
gene 1 5 23 -4.5607 0 5 -4.5607 1
gene 1 6 23 0.033955 0 6 0.033955 1
gene 1 7 23 1.0785 0 7 1.0785 1
gene 1 8 23 -6.00842 0 8 -6.00842 1
gene 1 9 23 1.82568 0 9 1.82568 1
gene 1 10 23 -1.48304 0 10 -1.48304 1
gene 1 11 23 3.68947 0 11 3.68947 1
gene 1 12 23 0.138648 0 12 0.138648 1
gene 1 13 23 -1.2267 0 13 -1.2267 1
gene 1 14 23 6.87829 0 14 6.87829 1
gene 1 15 23 -7.17008 0 15 -7.17008 1
gene 1 16 23 1.29294 0 16 1.29294 1
gene 1 17 23 -1.03305 0 17 -1.03305 1
gene 1 18 23 0.437606 0 18 0.437606 1
gene 1 19 23 -1.19318 0 19 -1.19318 1
gene 1 20 23 -0.414503 0 20 -0.414503 1
gene 1 21 23 -1.00899 0 21 -1.00899 1
gene 1 22 23 -3.2334 0 22 -3.2334 1
gene 1 1 24 -0.845704 0 23 -0.845704 1
gene 1 2 24 -6.36428 0 24 -6.36428 1
gene 1 3 24 0.429148 0 25 0.429148 1
gene 1 4 24 -6.59367 0 26 -6.59367 1
gene 1 5 24 -7.55769 0 27 -7.55769 1
gene 1 6 24 -6.55037 0 28 -6.55037 1
gene 1 7 24 0.53977 0 29 0.53977 1
gene 1 8 24 -0.284109 0 30 -0.284109 1
gene 1 9 24 2.25298 0 31 2.25298 1
gene 1 10 24 3.63564 0 32 3.63564 1
gene 1 11 24 -2.37712 0 33 -2.37712 1
gene 1 12 24 -2.91531 0 34 -2.91531 1
gene 1 13 24 0.110529 0 35 0.110529 1
gene 1 14 24 6.4753 0 36 6.4753 1
gene 1 15 24 -5.3609 0 37 -5.3609 1
gene 1 16 24 5.42733 0 38 5.42733 1
gene 1 17 24 -5.72551 0 39 -5.72551 1
gene 1 18 24 2.91775 0 40 2.91775 1
gene 1 19 24 7.97874 0 41 7.97874 1
gene 1 20 24 -4.21347 0 42 -4.21347 1
gene 1 21 24 1.08698 0 43 1.08698 1
gene 1 22 24 -0.612818 0 44 -0.612818 1
gene 1 1 25 4.77015 0 45 4.77015 1
gene 1 2 25 -4.4953 0 46 -4.4953 1
gene 1 3 25 -5.76488 0 47 -5.76488 1
gene 1 4 25 -4.26074 0 48 -4.26074 1
gene 1 5 25 3.83662 0 49 3.83662 1
gene 1 6 25 -6.05178 0 50 -6.05178 1
gene 1 7 25 -0.486538 0 51 -0.486538 1
gene 1 8 25 4.55067 0 52 4.55067 1
gene 1 9 25 -1.99598 0 53 -1.99598 1
gene 1 10 25 -6.01353 0 54 -6.01353 1
gene 1 11 25 0.677759 0 55 0.677759 1
gene 1 12 25 -3.2552 0 56 -3.2552 1
gene 1 13 25 -0.94896 0 57 -0.94896 1
gene 1 14 25 -7.64482 0 58 -7.64482 1
gene 1 15 25 6.1367 0 59 6.1367 1
gene 1 16 25 -1.68166 0 60 -1.68166 1
gene 1 17 25 1.67845 0 61 1.67845 1
gene 1 18 25 -0.448011 0 62 -0.448011 1
gene 1 19 25 3.22967 0 63 3.22967 1
gene 1 20 25 -4.94993 0 64 -4.94993 1
gene 1 21 25 4.96005 0 65 4.96005 1
gene 1 22 25 0.718183 0 66 0.718183 1
gene 1 1 26 -3.55878 0 67 -3.55878 1
gene 1 2 26 0.890817 0 68 0.890817 1
gene 1 3 26 -3.05856 0 69 -3.05856 1
gene 1 4 26 2.33497 0 70 2.33497 1
gene 1 5 26 -0.757525 0 71 -0.757525 1
gene 1 6 26 2.86 0 72 2.86 1
gene 1 7 26 -0.470694 0 73 -0.470694 1
gene 1 8 26 -1.56929 0 74 -1.56929 1
gene 1 9 26 7.26896 0 75 7.26896 1
gene 1 10 26 0.610565 0 76 0.610565 1
gene 1 11 26 -0.631927 0 77 -0.631927 1
gene 1 12 26 3.30889 0 78 3.30889 1
gene 1 13 26 -2.56595 0 79 -2.56595 1
gene 1 14 26 -3.01912 0 80 -3.01912 1
gene 1 15 26 7.37061 0 81 7.37061 1
gene 1 16 26 0.989177 0 82 0.989177 1
gene 1 17 26 -0.646854 0 83 -0.646854 1
gene 1 18 26 -0.692062 0 84 -0.692062 1
gene 1 19 26 -0.225374 0 85 -0.225374 1
gene 1 20 26 3.8424 0 86 3.8424 1
gene 1 21 26 -0.306658 0 87 -0.306658 1
gene 1 22 26 2.51588 0 88 2.51588 1
gene 1 1 27 5.03197 0 89 5.03197 1
gene 1 2 27 4.38892 0 90 4.38892 1
gene 1 3 27 0.704958 0 91 0.704958 1
gene 1 4 27 0.23571 0 92 0.23571 1
gene 1 5 27 -1.08862 0 93 -1.08862 1
gene 1 6 27 7.31292 0 94 7.31292 1
gene 1 7 27 -1.8948 0 95 -1.8948 1
gene 1 8 27 -1.62714 0 96 -1.62714 1
gene 1 9 27 6.1534 0 97 6.1534 1
gene 1 10 27 -1.39702 0 98 -1.39702 1
gene 1 11 27 0.215986 0 99 0.215986 1
gene 1 12 27 -2.78837 0 100 -2.78837 1
gene 1 13 27 -2.34413 0 101 -2.34413 0
gene 1 14 27 1.28484 0 102 1.28484 1
gene 1 15 27 -1.14775 0 103 -1.14775 0
gene 1 16 27 5.3011 0 104 5.3011 1
gene 1 17 27 4.66293 0 105 4.66293 1
gene 1 18 27 2.98968 0 106 2.98968 1
gene 1 19 27 1.30011 0 107 1.30011 0
gene 1 20 27 -4.5272 0 108 -4.5272 1
gene 1 21 27 6.63327 0 109 6.63327 1
gene 1 22 27 0.315384 0 110 0.315384 1
gene 1 1 28 3.33448 0 111 3.33448 1
gene 1 2 28 -0.89581 0 112 -0.89581 1
gene 1 3 28 0.416998 0 113 0.416998 1
gene 1 4 28 5.45283 0 114 5.45283 1
gene 1 5 28 -1.39388 0 115 -1.39388 1
gene 1 6 28 0.633109 0 116 0.633109 1
gene 1 7 28 -1.42122 0 117 -1.42122 1
gene 1 8 28 -2.14823 0 118 -2.14823 1
gene 1 9 28 0.0341235 0 119 0.0341235 1
gene 1 10 28 -0.64167 0 120 -0.64167 1
gene 1 11 28 5.27632 0 121 5.27632 1
gene 1 12 28 3.84175 0 122 3.84175 1
gene 1 13 28 -1.9467 0 123 -1.9467 1
gene 1 14 28 6.38456 0 124 6.38456 1
gene 1 15 28 3.10696 0 125 3.10696 1
gene 1 16 28 -0.450068 0 126 -0.450068 1
gene 1 17 28 1.09962 0 127 1.09962 1
gene 1 18 28 -0.3149 0 128 -0.3149 1
gene 1 19 28 0.691158 0 129 0.691158 1
gene 1 20 28 1.03083 0 130 1.03083 1
gene 1 21 28 1.96951 0 131 1.96951 1
gene 1 22 28 3.87266 0 132 3.87266 1
gene 1 1 29 2.23642 0 133 2.23642 1
gene 1 2 29 6.6901 0 134 6.6901 1
gene 1 3 29 4.76796 0 135 4.76796 1
gene 1 4 29 -0.257647 0 136 -0.257647 1
gene 1 5 29 4.44754 0 137 4.44754 1
gene 1 6 29 5.89581 0 138 5.89581 1
gene 1 7 29 -1.4328 0 139 -1.4328 1
gene 1 8 29 2.2664 0 140 2.2664 1
gene 1 9 29 -5.1 0 141 -5.1 1
gene 1 10 29 -0.734713 0 142 -0.734713 1
gene 1 11 29 1.62228 0 143 1.62228 1
gene 1 12 29 2.28206 0 144 2.28206 1
gene 1 13 29 4.47565 0 145 4.47565 1
gene 1 14 29 6.92979 0 146 6.92979 1
gene 1 15 29 -0.585491 0 147 -0.585491 1
gene 1 16 29 -2.61882 0 148 -2.61882 1
gene 1 17 29 4.76412 0 149 4.76412 1
gene 1 18 29 2.95102 0 150 2.95102 1
gene 1 19 29 -1.50532 0 151 -1.50532 1
gene 1 20 29 -4.99166 0 152 -4.99166 1
gene 1 21 29 -2.06862 0 153 -2.06862 1
gene 1 22 29 -4.40338 0 154 -4.40338 1
gene 1 1 30 -2.15695 0 155 -2.15695 1
gene 1 2 30 -7.88882 0 156 -7.88882 1
gene 1 3 30 -4.12016 0 157 -4.12016 1
gene 1 4 30 3.64463 0 158 3.64463 1
gene 1 5 30 1.41107 0 159 1.41107 1
gene 1 6 30 1.23502 0 160 1.23502 1
gene 1 7 30 0.804235 0 161 0.804235 1
gene 1 8 30 6.49651 0 162 6.49651 1
gene 1 9 30 -3.33436 0 163 -3.33436 1
gene 1 10 30 1.48067 0 164 1.48067 1
gene 1 11 30 4.90008 0 165 4.90008 1
gene 1 12 30 0.749735 0 166 0.749735 1
gene 1 13 30 0.887565 0 167 0.887565 1
gene 1 14 30 -2.85638 0 168 -2.85638 1
gene 1 15 30 3.06406 0 169 3.06406 1
gene 1 16 30 -2.82246 0 170 -2.82246 1
gene 1 17 30 -2.77911 0 171 -2.77911 1
gene 1 18 30 1.09388 0 172 1.09388 0
gene 1 19 30 1.43273 0 173 1.43273 1
gene 1 20 30 -4.36986 0 174 -4.36986 1
gene 1 21 30 -1.24937 0 175 -1.24937 1
gene 1 22 30 -6.51342 0 176 -6.51342 1
gene 1 18 104 0.247504 0 426 0.247504 1
gene 1 104 23 -1.30874 0 427 -1.30874 0
gene 1 10 123 0.823915 0 488 0.823915 1
gene 1 123 28 5.46496 0 489 5.46496 1
gene 1 10 139 -0.79989 0 558 -0.79989 1
gene 1 139 24 2.59419 0 559 2.59419 1
gene 1 25 24 0.224602 0 646 0.224602 1
gene 1 14 123 0.191147 0 724 0.191147 1
gene 1 24 30 1.26687 0 906 1.26687 1
gene 1 20 257 0.295718 0 962 0.295718 1
gene 1 257 24 0.562166 0 963 0.562166 1
gene 1 13 257 4.12345 0 978 4.12345 1
gene 1 11 268 0.72847 0 999 0.72847 1
gene 1 268 25 1.38806 0 1000 1.38806 1
gene 1 20 268 0.382042 0 1020 0.382042 1
gene 1 3 276 0.518313 0 1040 0.518313 1
gene 1 276 30 0.595471 0 1041 0.595471 1
gene 1 14 276 -1.09405 0 1057 -1.09405 1
gene 1 15 287 -1.09107 0 1070 -1.09107 1
gene 1 287 30 -2.80577 0 1071 -2.80577 1
gene 1 12 299 0.312586 0 1118 0.312586 1
gene 1 299 23 0.371252 0 1119 0.371252 1
gene 1 12 306 0.176721 0 1141 0.176721 1
gene 1 306 25 2.16498 0 1142 2.16498 1
gene 1 7 276 -1.81387 0 1159 -1.81387 1
gene 1 299 276 -6.12008 0 1265 -6.12008 1
gene 1 9 306 0.110086 0 1276 0.110086 1
gene 1 17 104 0.534646 0 1296 0.534646 1
gene 1 17 257 -0.144905 0 1317 -0.144905 1
gene 1 3 287 -0.180482 0 1355 -0.180482 1
gene 1 23 30 0.052417 0 1372 0.052417 1
gene 1 20 371 -1.01085 0 1397 -1.01085 1
gene 1 371 29 -0.13108 0 1398 -0.13108 1
gene 1 371 268 -0.454023 0 1442 -0.454023 1
gene 1 13 389 3.13352 0 1451 3.13352 1
gene 1 389 27 0.788145 0 1452 0.788145 1
gene 1 25 400 -0.921686 0 1488 -0.921686 1
gene 1 400 24 -0.747941 0 1489 -0.747941 1
gene 1 14 400 -3.36351 0 1499 -3.36351 1
gene 1 2 276 -3.68472 0 1744 -3.68472 1
gene 1 17 276 0.533425 0 1907 0.533425 1
gene 1 6 531 -0.283564 0 1921 -0.283564 1
gene 1 531 23 -1.03508 0 1922 -1.03508 1
gene 1 30 27 3.32153 0 2045 3.32153 1
gene 1 19 569 2.07007 0 2077 2.07007 1
gene 1 569 23 0.551235 0 2078 0.551235 1
gene 1 268 27 -0.0795913 0 2194 -0.0795913 1
gene 1 29 104 -1.2457 0 2210 -1.2457 1
gene 1 13 104 1.41469 0 2242 1.41469 1
gene 1 104 569 -0.00129131 0 2275 -0.00129131 1
gene 1 4 371 -0.585658 0 2286 -0.585658 1
gene 1 23 276 0.652516 0 2347 0.652516 1
gene 1 17 389 0.144276 0 2486 0.144276 1
gene 1 19 707 1 0 2559 0 1
gene 1 707 27 1.30011 0 2560 0 1
genomeend 0

/* Organism #1 Fitness: -1000 Error: 0 */
genomestart 1
trait 1 0.699519 0.302752 0.131973 0.796331 0.418581 0.625515 0.521375 0.120858 
node 1 1 1 1
node 2 1 1 1
node 3 1 1 1
node 4 1 1 1
node 5 1 1 1
node 6 1 1 1
node 7 1 1 1
node 8 1 1 1
node 9 1 1 1
node 10 1 1 1
node 11 1 1 1
node 12 1 1 1
node 13 1 1 1
node 14 1 1 1
node 15 1 1 1
node 16 1 1 1
node 17 1 1 1
node 18 1 1 1
node 19 1 1 1
node 20 1 1 1
node 21 1 1 1
node 22 1 1 3
node 23 1 0 2
node 24 1 0 2
node 25 1 0 2
node 26 1 0 2
node 27 1 0 2
node 28 1 0 2
node 29 1 0 2
node 30 1 0 2
node 104 1 0 0
node 123 1 0 0
node 139 1 0 0
node 257 1 0 0
node 268 1 0 0
node 276 1 0 0
node 287 1 0 0
node 299 1 0 0
node 306 1 0 0
node 371 1 0 0
node 389 1 0 0
node 400 1 0 0
node 531 1 0 0
node 569 1 0 0
node 707 1 0 0
gene 1 1 23 1.80471 0 1 1.80471 1
gene 1 2 23 5.28319 0 2 5.28319 1
gene 1 3 23 -7.58081 0 3 -7.58081 1
gene 1 4 23 -3.89883 0 4 -3.89883 1
gene 1 5 23 -3.34278 0 5 -3.34278 1
gene 1 6 23 -1.15375 0 6 -1.15375 1
gene 1 7 23 -0.649074 0 7 -0.649074 1
gene 1 8 23 -6.87835 0 8 -6.87835 1
gene 1 9 23 2.89566 0 9 2.89566 1
gene 1 10 23 -1.64189 0 10 -1.64189 1
gene 1 11 23 1.68677 0 11 1.68677 1
gene 1 12 23 -1.42459 0 12 -1.42459 1
gene 1 13 23 -0.779448 0 13 -0.779448 1
gene 1 14 23 6.65032 0 14 6.65032 1
gene 1 15 23 -4.9156 0 15 -4.9156 1
gene 1 16 23 -0.377187 0 16 -0.377187 1
gene 1 17 23 -1.05548 0 17 -1.05548 1
gene 1 18 23 -1.24023 0 18 -1.24023 1
gene 1 19 23 -1.121 0 19 -1.121 1
gene 1 20 23 1.43239 0 20 1.43239 1
gene 1 21 23 -0.0108105 0 21 -0.0108105 1
gene 1 22 23 -5.18017 0 22 -5.18017 1
gene 1 1 24 -0.845704 0 23 -0.845704 1
gene 1 2 24 -6.25799 0 24 -6.25799 1
gene 1 3 24 -1.72561 0 25 -1.72561 1
gene 1 4 24 -6.09828 0 26 -6.09828 1
gene 1 5 24 -8 0 27 -8 1
gene 1 6 24 -8 0 28 -8 1
gene 1 7 24 -0.538449 0 29 -0.538449 1
gene 1 8 24 -1.40353 0 30 -1.40353 1
gene 1 9 24 -1.29635 0 31 -1.29635 1
gene 1 10 24 3.69233 0 32 3.69233 1
gene 1 11 24 -0.291106 0 33 -0.291106 1
gene 1 12 24 -2.91531 0 34 -2.91531 1
gene 1 13 24 0.814896 0 35 0.814896 1
gene 1 14 24 7.73983 0 36 7.73983 1
gene 1 15 24 -2.89638 0 37 -2.89638 1
gene 1 16 24 3.34879 0 38 3.34879 1
gene 1 17 24 -3.99885 0 39 -3.99885 1
gene 1 18 24 0.951592 0 40 0.951592 1
gene 1 19 24 7.01856 0 41 7.01856 1
gene 1 20 24 -4.21347 0 42 -4.21347 1
gene 1 21 24 1.81645 0 43 1.81645 1
gene 1 22 24 1.10133 0 44 1.10133 1
gene 1 1 25 6.74851 0 45 6.74851 1
gene 1 2 25 -3.09587 0 46 -3.09587 1
gene 1 3 25 -0.935926 0 47 -0.935926 1
gene 1 4 25 -4.26074 0 48 -4.26074 1
gene 1 5 25 5.49858 0 49 5.49858 1
gene 1 6 25 1.67089 0 50 1.67089 1
gene 1 7 25 -1.99362 0 51 -1.99362 1
gene 1 8 25 0.0395215 0 52 0.0395215 1
gene 1 9 25 -1.22356 0 53 -1.22356 1
gene 1 10 25 -8 0 54 -8 1
gene 1 11 25 1.20115 0 55 1.20115 1
gene 1 12 25 -3.2552 0 56 -3.2552 1
gene 1 13 25 -0.94896 0 57 -0.94896 1
gene 1 14 25 0.191961 0 58 0.191961 1
gene 1 15 25 7.08392 0 59 7.08392 1
gene 1 16 25 -2.08931 0 60 -2.08931 1
gene 1 17 25 0.247969 0 61 0.247969 1
gene 1 18 25 -0.448011 0 62 -0.448011 1
gene 1 19 25 -2.14003 0 63 -2.14003 1
gene 1 20 25 -3.58255 0 64 -3.58255 1
gene 1 21 25 0.928983 0 65 0.928983 1
gene 1 22 25 -0.85352 0 66 -0.85352 1
gene 1 1 26 -1.85409 0 67 -1.85409 1
gene 1 2 26 -0.107214 0 68 -0.107214 1
gene 1 3 26 -2.6793 0 69 -2.6793 1
gene 1 4 26 -1.57407 0 70 -1.57407 1
gene 1 5 26 -1.67323 0 71 -1.67323 1
gene 1 6 26 4.29055 0 72 4.29055 1
gene 1 7 26 -0.470694 0 73 -0.470694 1
gene 1 8 26 -0.361442 0 74 -0.361442 1
gene 1 9 26 5.14068 0 75 5.14068 1
gene 1 10 26 2.84605 0 76 2.84605 1
gene 1 11 26 -1.2452 0 77 -1.2452 1
gene 1 12 26 3.30889 0 78 3.30889 1
gene 1 13 26 -4.26636 0 79 -4.26636 1
gene 1 14 26 -2.42965 0 80 -2.42965 1
gene 1 15 26 7.27074 0 81 7.27074 1
gene 1 16 26 -0.0368511 0 82 -0.0368511 1
gene 1 17 26 -0.646854 0 83 -0.646854 1
gene 1 18 26 0.892612 0 84 0.892612 1
gene 1 19 26 -0.225374 0 85 -0.225374 1
gene 1 20 26 5.90621 0 86 5.90621 1
gene 1 21 26 0.309205 0 87 0.309205 1
gene 1 22 26 2.51588 0 88 2.51588 1
gene 1 1 27 3.70472 0 89 3.70472 1
gene 1 2 27 -2.0632 0 90 -2.0632 1
gene 1 3 27 -0.148492 0 91 -0.148492 1
gene 1 4 27 2.64393 0 92 2.64393 1
gene 1 5 27 -0.300479 0 93 -0.300479 1
gene 1 6 27 8 0 94 8 1
gene 1 7 27 -3.81655 0 95 -3.81655 1
gene 1 8 27 -1.81903 0 96 -1.81903 1
gene 1 9 27 5.5109 0 97 5.5109 1
gene 1 10 27 0.950957 0 98 0.950957 1
gene 1 11 27 -0.0336554 0 99 -0.0336554 1
gene 1 12 27 -0.902554 0 100 -0.902554 1
gene 1 13 27 -1.39119 0 101 -1.39119 0
gene 1 14 27 2.33796 0 102 2.33796 1
gene 1 15 27 -0.955098 0 103 -0.955098 0
gene 1 16 27 5.94794 0 104 5.94794 1
gene 1 17 27 -2.26066 0 105 -2.26066 1
gene 1 18 27 -0.678274 0 106 -0.678274 1
gene 1 19 27 2.15684 0 107 2.15684 0
gene 1 20 27 -5.02427 0 108 -5.02427 1
gene 1 21 27 0.487228 0 109 0.487228 1
gene 1 22 27 2.15534 0 110 2.15534 1
gene 1 1 28 0.308847 0 111 0.308847 1
gene 1 2 28 0.789651 0 112 0.789651 1
gene 1 3 28 -2.05019 0 113 -2.05019 1
gene 1 4 28 5.7069 0 114 5.7069 1
gene 1 5 28 -1.39388 0 115 -1.39388 1
gene 1 6 28 0.0663798 0 116 0.0663798 1
gene 1 7 28 0.609481 0 117 0.609481 1
gene 1 8 28 -0.142521 0 118 -0.142521 1
gene 1 9 28 0.29292 0 119 0.29292 1
gene 1 10 28 1.0898 0 120 1.0898 1
gene 1 11 28 4.96465 0 121 4.96465 1
gene 1 12 28 1.34411 0 122 1.34411 1
gene 1 13 28 -1.73376 0 123 -1.73376 1
gene 1 14 28 5.01336 0 124 5.01336 1
gene 1 15 28 3.30747 0 125 3.30747 1
gene 1 16 28 0.968738 0 126 0.968738 1
gene 1 17 28 -0.654732 0 127 -0.654732 1
gene 1 18 28 -2.42815 0 128 -2.42815 1
gene 1 19 28 0.691158 0 129 0.691158 1
gene 1 20 28 1.03083 0 130 1.03083 1
gene 1 21 28 1.96951 0 131 1.96951 1
gene 1 22 28 4.68209 0 132 4.68209 1
gene 1 1 29 0.732237 0 133 0.732237 1
gene 1 2 29 7.72529 0 134 7.72529 1
gene 1 3 29 3.60955 0 135 3.60955 1
gene 1 4 29 1.75673 0 136 1.75673 1
gene 1 5 29 4.16662 0 137 4.16662 1
gene 1 6 29 4.46815 0 138 4.46815 1
gene 1 7 29 -0.407375 0 139 -0.407375 1
gene 1 8 29 3.40123 0 140 3.40123 1
gene 1 9 29 -3.0365 0 141 -3.0365 1
gene 1 10 29 -1.43725 0 142 -1.43725 1
gene 1 11 29 0.896621 0 143 0.896621 1
gene 1 12 29 -0.205958 0 144 -0.205958 1
gene 1 13 29 2.0357 0 145 2.0357 1
gene 1 14 29 6.92979 0 146 6.92979 1
gene 1 15 29 -2.48733 0 147 -2.48733 1
gene 1 16 29 -3.86894 0 148 -3.86894 1
gene 1 17 29 4.11202 0 149 4.11202 1
gene 1 18 29 1.47682 0 150 1.47682 1
gene 1 19 29 0.154653 0 151 0.154653 1
gene 1 20 29 -7.02396 0 152 -7.02396 1
gene 1 21 29 -1.18885 0 153 -1.18885 1
gene 1 22 29 -4.40338 0 154 -4.40338 1
gene 1 1 30 1.61313 0 155 1.61313 1
gene 1 2 30 -7.3237 0 156 -7.3237 1
gene 1 3 30 -6.16498 0 157 -6.16498 1
gene 1 4 30 4.45062 0 158 4.45062 1
gene 1 5 30 2.36447 0 159 2.36447 1
gene 1 6 30 1.23502 0 160 1.23502 1
gene 1 7 30 -1.50373 0 161 -1.50373 1
gene 1 8 30 -0.922269 0 162 -0.922269 1
gene 1 9 30 -3.16819 0 163 -3.16819 1
gene 1 10 30 1.48067 0 164 1.48067 1
gene 1 11 30 5.57988 0 165 5.57988 1
gene 1 12 30 1.92996 0 166 1.92996 1
gene 1 13 30 -0.229488 0 167 -0.229488 1
gene 1 14 30 1.44795 0 168 1.44795 1
gene 1 15 30 -1.91832 0 169 -1.91832 1
gene 1 16 30 -1.6805 0 170 -1.6805 1
gene 1 17 30 -1.19839 0 171 -1.19839 1
gene 1 18 30 0.0441195 0 172 0.0441195 0
gene 1 19 30 -0.700671 0 173 -0.700671 1
gene 1 20 30 -4.66001 0 174 -4.66001 1
gene 1 21 30 -1.13126 0 175 -1.13126 1
gene 1 22 30 -6.61672 0 176 -6.61672 1
gene 1 18 104 1.27247 0 426 1.27247 1
gene 1 104 23 -3.41802 0 427 -3.41802 0
gene 1 10 123 2.94808 0 488 2.94808 1
gene 1 123 28 5.63006 0 489 5.63006 1
gene 1 10 139 -3.20688 0 558 -3.20688 1
gene 1 139 24 2.8832 0 559 2.8832 1
gene 1 25 24 1.93379 0 646 1.93379 1
gene 1 14 123 2.48756 0 724 2.48756 1
gene 1 24 30 -0.225943 0 906 -0.225943 1
gene 1 20 257 -1.26759 0 962 -1.26759 1
gene 1 257 24 2.09433 0 963 2.09433 1
gene 1 13 257 0.524079 0 978 0.524079 1
gene 1 11 268 0.72847 0 999 0.72847 1
gene 1 268 25 0.288251 0 1000 0.288251 1
gene 1 20 268 2.42014 0 1020 2.42014 1
gene 1 3 276 0.673958 0 1040 0.673958 1
gene 1 276 30 -1.17277 0 1041 -1.17277 1
gene 1 14 276 -1.12762 0 1057 -1.12762 1
gene 1 15 287 -1.35811 0 1070 -1.35811 1
gene 1 287 30 1.61969 0 1071 1.61969 1
gene 1 12 299 -0.954848 0 1118 -0.954848 1
gene 1 299 23 0.0823942 0 1119 0.0823942 1
gene 1 12 306 -0.575808 0 1141 -0.575808 1
gene 1 306 25 0.878094 0 1142 0.878094 1
gene 1 7 276 -1.14086 0 1159 -1.14086 1
gene 1 299 276 -6.06828 0 1265 -6.06828 1
gene 1 9 306 0.110086 0 1276 0.110086 1
gene 1 17 104 -1.37421 0 1296 -1.37421 1
gene 1 17 257 -1.4614 0 1317 -1.4614 1
gene 1 3 287 -2.18158 0 1355 -2.18158 1
gene 1 23 30 -1.3567 0 1372 -1.3567 1
gene 1 20 371 -0.153508 0 1397 -0.153508 1
gene 1 371 29 -0.297174 0 1398 -0.297174 1
gene 1 371 268 -0.297081 0 1442 -0.297081 1
gene 1 13 389 5.34184 0 1451 5.34184 1
gene 1 389 27 -0.319371 0 1452 -0.319371 1
gene 1 25 400 -1.35589 0 1488 -1.35589 1
gene 1 400 24 -3.20605 0 1489 -3.20605 1
gene 1 14 400 -2.03101 0 1499 -2.03101 1
gene 1 2 276 -3.68472 0 1744 -3.68472 1
gene 1 17 276 -0.156674 0 1907 -0.156674 1
gene 1 6 531 2.14121 0 1921 2.14121 1
gene 1 531 23 -1.68504 0 1922 -1.68504 1
gene 1 30 27 1.77379 0 2045 1.77379 1
gene 1 19 569 3.7492 0 2077 3.7492 1
gene 1 569 23 -1.46764 0 2078 -1.46764 1
gene 1 268 27 0.650564 0 2194 0.650564 1
gene 1 29 104 -1.22495 0 2210 -1.22495 1
gene 1 13 104 3.53099 0 2242 3.53099 1
gene 1 104 569 1.55927 0 2275 1.55927 1
gene 1 4 371 -0.956611 0 2286 -0.956611 1
gene 1 23 276 -0.445235 0 2347 -0.445235 1
gene 1 17 389 -1.13239 0 2486 -1.13239 1
gene 1 19 707 2.30253 0 2559 2.30253 1
gene 1 707 27 0.555149 0 2560 0.555149 1
genomeend 1

/* Organism #2 Fitness: 8719.08 Error: 0 */
genomestart 2
trait 1 0.699519 0.302752 0.131973 0.796331 0.418581 0.625515 0.521375 0.120858 
node 1 1 1 1
node 2 1 1 1
node 3 1 1 1
node 4 1 1 1
node 5 1 1 1
node 6 1 1 1
node 7 1 1 1
node 8 1 1 1
node 9 1 1 1
node 10 1 1 1
node 11 1 1 1
node 12 1 1 1
node 13 1 1 1
node 14 1 1 1
node 15 1 1 1
node 16 1 1 1
node 17 1 1 1
node 18 1 1 1
node 19 1 1 1
node 20 1 1 1
node 21 1 1 1
node 22 1 1 3
node 23 1 0 2
node 24 1 0 2
node 25 1 0 2
node 26 1 0 2
node 27 1 0 2
node 28 1 0 2
node 29 1 0 2
node 30 1 0 2
node 104 1 0 0
node 123 1 0 0
node 139 1 0 0
node 257 1 0 0
node 268 1 0 0
node 276 1 0 0
node 287 1 0 0
node 299 1 0 0
node 306 1 0 0
node 371 1 0 0
node 389 1 0 0
node 400 1 0 0
node 531 1 0 0
node 569 1 0 0
gene 1 1 23 -3.52007 0 1 -3.52007 1
gene 1 2 23 4.19811 0 2 4.19811 1
gene 1 3 23 -7.25693 0 3 -7.25693 1
gene 1 4 23 -1.99272 0 4 -1.99272 1
gene 1 5 23 -2.51878 0 5 -2.51878 1
gene 1 6 23 -1.41346 0 6 -1.41346 1
gene 1 7 23 0.0475876 0 7 0.0475876 1
gene 1 8 23 -4.99711 0 8 -4.99711 1
gene 1 9 23 3.13302 0 9 3.13302 1
gene 1 10 23 -1.05189 0 10 -1.05189 1
gene 1 11 23 5.77068 0 11 5.77068 1
gene 1 12 23 0.590245 0 12 0.590245 1
gene 1 13 23 -2.74957 0 13 -2.74957 1
gene 1 14 23 5.52929 0 14 5.52929 1
gene 1 15 23 -6.06149 0 15 -6.06149 1
gene 1 16 23 -1.14007 0 16 -1.14007 1
gene 1 17 23 -1.31206 0 17 -1.31206 1
gene 1 18 23 2.29893 0 18 2.29893 1
gene 1 19 23 0.216242 0 19 0.216242 1
gene 1 20 23 -2.18099 0 20 -2.18099 1
gene 1 21 23 -0.915684 0 21 -0.915684 1
gene 1 22 23 -4.42904 0 22 -4.42904 1
gene 1 1 24 -0.10769 0 23 -0.10769 1
gene 1 2 24 -4.50226 0 24 -4.50226 1
gene 1 3 24 2.90176 0 25 2.90176 1
gene 1 4 24 -8 0 26 -8 1
gene 1 5 24 -7.18864 0 27 -7.18864 1
gene 1 6 24 -7.84077 0 28 -7.84077 1
gene 1 7 24 -1.43546 0 29 -1.43546 1
gene 1 8 24 0.16909 0 30 0.16909 1
gene 1 9 24 0.592545 0 31 0.592545 1
gene 1 10 24 3.28941 0 32 3.28941 1
gene 1 11 24 -2.6511 0 33 -2.6511 1
gene 1 12 24 -2.18409 0 34 -2.18409 1
gene 1 13 24 -0.00490767 0 35 -0.00490767 1
gene 1 14 24 6.36497 0 36 6.36497 1
gene 1 15 24 -5.14254 0 37 -5.14254 1
gene 1 16 24 6.59322 0 38 6.59322 1
gene 1 17 24 -7.67099 0 39 -7.67099 1
gene 1 18 24 1.40578 0 40 1.40578 1
gene 1 19 24 5.58159 0 41 5.58159 1
gene 1 20 24 -1.95426 0 42 -1.95426 1
gene 1 21 24 1.71917 0 43 1.71917 1
gene 1 22 24 -2.50436 0 44 -2.50436 1
gene 1 1 25 6.47102 0 45 6.47102 1
gene 1 2 25 -4.95102 0 46 -4.95102 1
gene 1 3 25 -6.75543 0 47 -6.75543 1
gene 1 4 25 -5.82398 0 48 -5.82398 1
gene 1 5 25 5.22086 0 49 5.22086 1
gene 1 6 25 -3.84697 0 50 -3.84697 1
gene 1 7 25 0.244304 0 51 0.244304 1
gene 1 8 25 4.17339 0 52 4.17339 1
gene 1 9 25 0.132914 0 53 0.132914 1
gene 1 10 25 -5.49037 0 54 -5.49037 1
gene 1 11 25 -1.34379 0 55 -1.34379 1
gene 1 12 25 -5.03771 0 56 -5.03771 1
gene 1 13 25 0.156497 0 57 0.156497 1
gene 1 14 25 -6.08739 0 58 -6.08739 1
gene 1 15 25 6.68794 0 59 6.68794 1
gene 1 16 25 0.207286 0 60 0.207286 1
gene 1 17 25 0.64181 0 61 0.64181 1
gene 1 18 25 -1.59459 0 62 -1.59459 1
gene 1 19 25 1.13755 0 63 1.13755 1
gene 1 20 25 -5.98016 0 64 -5.98016 1
gene 1 21 25 6.71921 0 65 6.71921 1
gene 1 22 25 2.10273 0 66 2.10273 1
gene 1 1 26 -5.12011 0 67 -5.12011 1
gene 1 2 26 1.21691 0 68 1.21691 1
gene 1 3 26 -1.27186 0 69 -1.27186 1
gene 1 4 26 4.51757 0 70 4.51757 1
gene 1 5 26 -2.84179 0 71 -2.84179 1
gene 1 6 26 3.60496 0 72 3.60496 1
gene 1 7 26 1.90128 0 73 1.90128 1
gene 1 8 26 -1.23748 0 74 -1.23748 1
gene 1 9 26 8 0 75 8 1
gene 1 10 26 2.777 0 76 2.777 1
gene 1 11 26 0.937563 0 77 0.937563 1
gene 1 12 26 4.37475 0 78 4.37475 1
gene 1 13 26 -0.857749 0 79 -0.857749 1
gene 1 14 26 -0.575575 0 80 -0.575575 1
gene 1 15 26 6.5724 0 81 6.5724 1
gene 1 16 26 3.1122 0 82 3.1122 1
gene 1 17 26 1.51553 0 83 1.51553 1
gene 1 18 26 -2.15764 0 84 -2.15764 1
gene 1 19 26 1.1784 0 85 1.1784 1
gene 1 20 26 3.53324 0 86 3.53324 1
gene 1 21 26 -2.30867 0 87 -2.30867 1
gene 1 22 26 2.29531 0 88 2.29531 1
gene 1 1 27 3.81108 0 89 3.81108 1
gene 1 2 27 4.94886 0 90 4.94886 1
gene 1 3 27 2.0348 0 91 2.0348 1
gene 1 4 27 2.59334 0 92 2.59334 1
gene 1 5 27 -2.2249 0 93 -2.2249 1
gene 1 6 27 7.31636 0 94 7.31636 1
gene 1 7 27 -1.56283 0 95 -1.56283 1
gene 1 8 27 -0.877836 0 96 -0.877836 1
gene 1 9 27 7.80422 0 97 7.80422 1
gene 1 10 27 0.625743 0 98 0.625743 1
gene 1 11 27 1.05578 0 99 1.05578 1
gene 1 12 27 -4.34291 0 100 -4.34291 1
gene 1 13 27 -0.402004 0 101 -0.402004 0
gene 1 14 27 0.966911 0 102 0.966911 1
gene 1 15 27 -1.54044 0 103 -1.54044 0
gene 1 16 27 4.52044 0 104 4.52044 1
gene 1 17 27 3.23596 0 105 3.23596 1
gene 1 18 27 3.45906 0 106 3.45906 1
gene 1 19 27 2.60081 0 107 2.60081 1
gene 1 20 27 -3.68077 0 108 -3.68077 1
gene 1 21 27 5.30923 0 109 5.30923 1
gene 1 22 27 1.81499 0 110 1.81499 1
gene 1 1 28 5.5412 0 111 5.5412 1
gene 1 2 28 1.24819 0 112 1.24819 1
gene 1 3 28 1.63331 0 113 1.63331 1
gene 1 4 28 7.88905 0 114 7.88905 1
gene 1 5 28 -3.54315 0 115 -3.54315 1
gene 1 6 28 -1.46855 0 116 -1.46855 1
gene 1 7 28 -0.807798 0 117 -0.807798 1
gene 1 8 28 -0.774287 0 118 -0.774287 1
gene 1 9 28 2.1589 0 119 2.1589 1
gene 1 10 28 1.10483 0 120 1.10483 1
gene 1 11 28 5.79064 0 121 5.79064 1
gene 1 12 28 5.87931 0 122 5.87931 1
gene 1 13 28 -3.59684 0 123 -3.59684 1
gene 1 14 28 8 0 124 8 1
gene 1 15 28 5.5766 0 125 5.5766 1
gene 1 16 28 -0.794317 0 126 -0.794317 1
gene 1 17 28 0.774144 0 127 0.774144 1
gene 1 18 28 -1.88866 0 128 -1.88866 1
gene 1 19 28 0.546958 0 129 0.546958 1
gene 1 20 28 1.99681 0 130 1.99681 1
gene 1 21 28 3.86586 0 131 3.86586 1
gene 1 22 28 3.00678 0 132 3.00678 1
gene 1 1 29 1.35649 0 133 1.35649 1
gene 1 2 29 8 0 134 8 1
gene 1 3 29 3.95189 0 135 3.95189 1
gene 1 4 29 0.931736 0 136 0.931736 1
gene 1 5 29 2.18993 0 137 2.18993 1
gene 1 6 29 6.88789 0 138 6.88789 1
gene 1 7 29 -2.74166 0 139 -2.74166 1
gene 1 8 29 2.26839 0 140 2.26839 1
gene 1 9 29 -6.25986 0 141 -6.25986 1
gene 1 10 29 -0.812077 0 142 -0.812077 1
gene 1 11 29 0.190728 0 143 0.190728 1
gene 1 12 29 2.04707 0 144 2.04707 1
gene 1 13 29 4.14178 0 145 4.14178 1
gene 1 14 29 5.46513 0 146 5.46513 1
gene 1 15 29 1.55134 0 147 1.55134 1
gene 1 16 29 -4.47473 0 148 -4.47473 1
gene 1 17 29 2.31082 0 149 2.31082 1
gene 1 18 29 4.98881 0 150 4.98881 1
gene 1 19 29 -0.170209 0 151 -0.170209 1
gene 1 20 29 -4.06107 0 152 -4.06107 1
gene 1 21 29 -3.74966 0 153 -3.74966 1
gene 1 22 29 -2.59287 0 154 -2.59287 1
gene 1 1 30 -1.69956 0 155 -1.69956 1
gene 1 2 30 -6.70249 0 156 -6.70249 1
gene 1 3 30 -4.35195 0 157 -4.35195 1
gene 1 4 30 4.13376 0 158 4.13376 1
gene 1 5 30 2.42901 0 159 2.42901 1
gene 1 6 30 1.809 0 160 1.809 1
gene 1 7 30 -1.63053 0 161 -1.63053 1
gene 1 8 30 4.96181 0 162 4.96181 1
gene 1 9 30 -4.51062 0 163 -4.51062 1
gene 1 10 30 1.81111 0 164 1.81111 1
gene 1 11 30 6.19551 0 165 6.19551 1
gene 1 12 30 -0.475964 0 166 -0.475964 1
gene 1 13 30 -1.41223 0 167 -1.41223 1
gene 1 14 30 -4.39779 0 168 -4.39779 1
gene 1 15 30 3.12311 0 169 3.12311 1
gene 1 16 30 -2.60211 0 170 -2.60211 1
gene 1 17 30 -3.30571 0 171 -3.30571 1
gene 1 18 30 2.79735 0 172 2.79735 0
gene 1 19 30 2.70504 0 173 2.70504 1
gene 1 20 30 -4.48934 0 174 -4.48934 1
gene 1 21 30 -2.07734 0 175 -2.07734 1
gene 1 22 30 -7.80038 0 176 -7.80038 1
gene 1 18 104 1.09363 0 426 1.09363 1
gene 1 104 23 -1.28005 0 427 -1.28005 0
gene 1 10 123 -0.246445 0 488 -0.246445 1
gene 1 123 28 5.16649 0 489 5.16649 1
gene 1 10 139 -2.91833 0 558 -2.91833 1
gene 1 139 24 3.21516 0 559 3.21516 1
gene 1 25 24 -0.853769 0 646 -0.853769 1
gene 1 14 123 -2.15199 0 724 -2.15199 1
gene 1 24 30 -0.852946 0 906 -0.852946 1
gene 1 20 257 2.03321 0 962 2.03321 1
gene 1 257 24 2.56273 0 963 2.56273 1
gene 1 13 257 -1.69713 0 978 -1.69713 1
gene 1 11 268 2.11753 0 999 2.11753 1
gene 1 268 25 1.38806 0 1000 1.38806 1
gene 1 20 268 -0.552511 0 1020 -0.552511 1
gene 1 3 276 -0.740194 0 1040 -0.740194 1
gene 1 276 30 1.9376 0 1041 1.9376 1
gene 1 14 276 -1.09405 0 1057 -1.09405 1
gene 1 15 287 -3.22401 0 1070 -3.22401 1
gene 1 287 30 -1.58815 0 1071 -1.58815 1
gene 1 12 299 -0.914869 0 1118 -0.914869 1
gene 1 299 23 -0.239494 0 1119 -0.239494 1
gene 1 12 306 0.176721 0 1141 0.176721 1
gene 1 306 25 4.1837 0 1142 4.1837 1
gene 1 7 276 2.49535 0 1159 2.49535 1
gene 1 299 276 -6.12008 0 1265 -6.12008 1
gene 1 9 306 1.43917 0 1276 1.43917 1
gene 1 17 104 -1.28895 0 1296 -1.28895 1
gene 1 17 257 2.00635 0 1317 2.00635 1
gene 1 3 287 -1.45082 0 1355 -1.45082 1
gene 1 23 30 0.151373 0 1372 0.151373 1
gene 1 20 371 0.463574 0 1397 0.463574 1
gene 1 371 29 -0.13108 0 1398 -0.13108 1
gene 1 371 268 -1.75588 0 1442 -1.75588 1
gene 1 13 389 3.13352 0 1451 3.13352 1
gene 1 389 27 2.64474 0 1452 2.64474 1
gene 1 25 400 -1.00828 0 1488 -1.00828 1
gene 1 400 24 -0.747941 0 1489 -0.747941 1
gene 1 14 400 -4.00066 0 1499 -4.00066 1
gene 1 2 276 -1.3145 0 1744 -1.3145 1
gene 1 17 276 0.533425 0 1907 0.533425 1
gene 1 6 531 -0.283564 0 1921 -0.283564 1
gene 1 531 23 -0.879543 0 1922 -0.879543 1
gene 1 30 27 2.92632 0 2045 2.92632 1
gene 1 19 569 1.70011 0 2077 1.70011 1
gene 1 569 23 -0.323349 0 2078 -0.323349 1
gene 1 268 27 2.32824 0 2194 2.32824 1
gene 1 29 104 -0.801807 0 2210 -0.801807 1
gene 1 13 104 1.41469 0 2242 1.41469 1
gene 1 104 569 -0.00129131 0 2275 -0.00129131 1
gene 1 4 371 -0.307711 0 2286 -0.307711 1
gene 1 23 276 0.652516 0 2347 0.652516 1
gene 1 17 389 1.46161 0 2486 1.46161 1
genomeend 2

/* Organism #3 Fitness: 12968.8 Error: 0 */
genomestart 3
trait 1 0.699519 0.302752 0.131973 0.796331 0.418581 0.625515 0.521375 0.120858 
node 1 1 1 1
node 2 1 1 1
node 3 1 1 1
node 4 1 1 1
node 5 1 1 1
node 6 1 1 1
node 7 1 1 1
node 8 1 1 1
node 9 1 1 1
node 10 1 1 1
node 11 1 1 1
node 12 1 1 1
node 13 1 1 1
node 14 1 1 1
node 15 1 1 1
node 16 1 1 1
node 17 1 1 1
node 18 1 1 1
node 19 1 1 1
node 20 1 1 1
node 21 1 1 1
node 22 1 1 3
node 23 1 0 2
node 24 1 0 2
node 25 1 0 2
node 26 1 0 2
node 27 1 0 2
node 28 1 0 2
node 29 1 0 2
node 30 1 0 2
node 104 1 0 0
node 123 1 0 0
node 139 1 0 0
node 257 1 0 0
node 268 1 0 0
node 276 1 0 0
node 287 1 0 0
node 299 1 0 0
node 306 1 0 0
node 371 1 0 0
node 389 1 0 0
node 400 1 0 0
node 531 1 0 0
node 569 1 0 0
gene 1 1 23 -1.52011 0 1 -1.52011 1
gene 1 2 23 5.94056 0 2 5.94056 1
gene 1 3 23 -7.314 0 3 -7.314 1
gene 1 4 23 -3.32966 0 4 -3.32966 1
gene 1 5 23 -4.5607 0 5 -4.5607 1
gene 1 6 23 0.033955 0 6 0.033955 1
gene 1 7 23 1.0785 0 7 1.0785 1
gene 1 8 23 -6.00842 0 8 -6.00842 1
gene 1 9 23 1.82568 0 9 1.82568 1
gene 1 10 23 -1.48304 0 10 -1.48304 1
gene 1 11 23 3.68947 0 11 3.68947 1
gene 1 12 23 0.138648 0 12 0.138648 1
gene 1 13 23 -1.2267 0 13 -1.2267 1
gene 1 14 23 6.87829 0 14 6.87829 1
gene 1 15 23 -7.17008 0 15 -7.17008 1
gene 1 16 23 1.29294 0 16 1.29294 1
gene 1 17 23 -1.03305 0 17 -1.03305 1
gene 1 18 23 0.437606 0 18 0.437606 1
gene 1 19 23 -1.19318 0 19 -1.19318 1
gene 1 20 23 -0.414503 0 20 -0.414503 1
gene 1 21 23 -1.00899 0 21 -1.00899 1
gene 1 22 23 -3.2334 0 22 -3.2334 1
gene 1 1 24 -0.845704 0 23 -0.845704 1
gene 1 2 24 -6.36428 0 24 -6.36428 1
gene 1 3 24 0.429148 0 25 0.429148 1
gene 1 4 24 -6.59367 0 26 -6.59367 1
gene 1 5 24 -7.55769 0 27 -7.55769 1
gene 1 6 24 -6.55037 0 28 -6.55037 1
gene 1 7 24 0.53977 0 29 0.53977 1
gene 1 8 24 -0.284109 0 30 -0.284109 1
gene 1 9 24 2.25298 0 31 2.25298 1
gene 1 10 24 3.63564 0 32 3.63564 1
gene 1 11 24 -2.37712 0 33 -2.37712 1
gene 1 12 24 -2.91531 0 34 -2.91531 1
gene 1 13 24 0.110529 0 35 0.110529 1
gene 1 14 24 6.4753 0 36 6.4753 1
gene 1 15 24 -5.3609 0 37 -5.3609 1
gene 1 16 24 5.42733 0 38 5.42733 1
gene 1 17 24 -5.72551 0 39 -5.72551 1
gene 1 18 24 2.91775 0 40 2.91775 1
gene 1 19 24 7.97874 0 41 7.97874 1
gene 1 20 24 -4.21347 0 42 -4.21347 1
gene 1 21 24 1.08698 0 43 1.08698 1
gene 1 22 24 -0.612818 0 44 -0.612818 1
gene 1 1 25 4.77015 0 45 4.77015 1
gene 1 2 25 -4.4953 0 46 -4.4953 1
gene 1 3 25 -5.76488 0 47 -5.76488 1
gene 1 4 25 -4.26074 0 48 -4.26074 1
gene 1 5 25 3.83662 0 49 3.83662 1
gene 1 6 25 -6.05178 0 50 -6.05178 1
gene 1 7 25 -0.486538 0 51 -0.486538 1
gene 1 8 25 4.55067 0 52 4.55067 1
gene 1 9 25 -1.99598 0 53 -1.99598 1
gene 1 10 25 -6.01353 0 54 -6.01353 1
gene 1 11 25 0.677759 0 55 0.677759 1
gene 1 12 25 -3.2552 0 56 -3.2552 1
gene 1 13 25 -0.94896 0 57 -0.94896 1
gene 1 14 25 -7.64482 0 58 -7.64482 1
gene 1 15 25 6.1367 0 59 6.1367 1
gene 1 16 25 -1.68166 0 60 -1.68166 1
gene 1 17 25 1.67845 0 61 1.67845 1
gene 1 18 25 -0.448011 0 62 -0.448011 1
gene 1 19 25 3.22967 0 63 3.22967 1
gene 1 20 25 -4.94993 0 64 -4.94993 1
gene 1 21 25 4.96005 0 65 4.96005 1
gene 1 22 25 0.718183 0 66 0.718183 1
gene 1 1 26 -3.55878 0 67 -3.55878 1
gene 1 2 26 0.890817 0 68 0.890817 1
gene 1 3 26 -3.05856 0 69 -3.05856 1
gene 1 4 26 2.33497 0 70 2.33497 1
gene 1 5 26 -0.757525 0 71 -0.757525 1
gene 1 6 26 2.86 0 72 2.86 1
gene 1 7 26 -0.470694 0 73 -0.470694 1
gene 1 8 26 -1.56929 0 74 -1.56929 1
gene 1 9 26 7.26896 0 75 7.26896 1
gene 1 10 26 0.610565 0 76 0.610565 1
gene 1 11 26 -0.631927 0 77 -0.631927 1
gene 1 12 26 3.30889 0 78 3.30889 1
gene 1 13 26 -2.56595 0 79 -2.56595 1
gene 1 14 26 -3.01912 0 80 -3.01912 1
gene 1 15 26 7.37061 0 81 7.37061 1
gene 1 16 26 0.989177 0 82 0.989177 1
gene 1 17 26 -0.646854 0 83 -0.646854 1
gene 1 18 26 -0.692062 0 84 -0.692062 1
gene 1 19 26 -0.225374 0 85 -0.225374 1
gene 1 20 26 3.8424 0 86 3.8424 1
gene 1 21 26 -0.306658 0 87 -0.306658 1
gene 1 22 26 2.51588 0 88 2.51588 1
gene 1 1 27 5.03197 0 89 5.03197 1
gene 1 2 27 4.38892 0 90 4.38892 1
gene 1 3 27 0.704958 0 91 0.704958 1
gene 1 4 27 0.23571 0 92 0.23571 1
gene 1 5 27 -1.08862 0 93 -1.08862 1
gene 1 6 27 7.31292 0 94 7.31292 1
gene 1 7 27 -1.8948 0 95 -1.8948 1
gene 1 8 27 -1.62714 0 96 -1.62714 1
gene 1 9 27 6.1534 0 97 6.1534 1
gene 1 10 27 -1.39702 0 98 -1.39702 1
gene 1 11 27 0.215986 0 99 0.215986 1
gene 1 12 27 -2.78837 0 100 -2.78837 1
gene 1 13 27 -2.34413 0 101 -2.34413 0
gene 1 14 27 1.28484 0 102 1.28484 1
gene 1 15 27 -1.14775 0 103 -1.14775 0
gene 1 16 27 5.3011 0 104 5.3011 1
gene 1 17 27 4.66293 0 105 4.66293 1
gene 1 18 27 2.98968 0 106 2.98968 1
gene 1 19 27 1.30011 0 107 1.30011 1
gene 1 20 27 -4.5272 0 108 -4.5272 1
gene 1 21 27 6.63327 0 109 6.63327 1
gene 1 22 27 0.315384 0 110 0.315384 1
gene 1 1 28 3.33448 0 111 3.33448 1
gene 1 2 28 -0.89581 0 112 -0.89581 1
gene 1 3 28 0.416998 0 113 0.416998 1
gene 1 4 28 5.45283 0 114 5.45283 1
gene 1 5 28 -1.39388 0 115 -1.39388 1
gene 1 6 28 0.633109 0 116 0.633109 1
gene 1 7 28 -1.42122 0 117 -1.42122 1
gene 1 8 28 -2.14823 0 118 -2.14823 1
gene 1 9 28 0.0341235 0 119 0.0341235 1
gene 1 10 28 -0.64167 0 120 -0.64167 1
gene 1 11 28 5.27632 0 121 5.27632 1
gene 1 12 28 3.84175 0 122 3.84175 1
gene 1 13 28 -1.9467 0 123 -1.9467 1
gene 1 14 28 6.38456 0 124 6.38456 1
gene 1 15 28 3.10696 0 125 3.10696 1
gene 1 16 28 -0.450068 0 126 -0.450068 1
gene 1 17 28 1.09962 0 127 1.09962 1
gene 1 18 28 -0.3149 0 128 -0.3149 1
gene 1 19 28 0.691158 0 129 0.691158 1
gene 1 20 28 1.03083 0 130 1.03083 1
gene 1 21 28 1.96951 0 131 1.96951 1
gene 1 22 28 3.87266 0 132 3.87266 1
gene 1 1 29 2.23642 0 133 2.23642 1
gene 1 2 29 6.6901 0 134 6.6901 1
gene 1 3 29 4.76796 0 135 4.76796 1
gene 1 4 29 -0.257647 0 136 -0.257647 1
gene 1 5 29 4.44754 0 137 4.44754 1
gene 1 6 29 5.89581 0 138 5.89581 1
gene 1 7 29 -1.4328 0 139 -1.4328 1
gene 1 8 29 2.2664 0 140 2.2664 1
gene 1 9 29 -5.1 0 141 -5.1 1
gene 1 10 29 -0.734713 0 142 -0.734713 1
gene 1 11 29 1.62228 0 143 1.62228 1
gene 1 12 29 2.28206 0 144 2.28206 1
gene 1 13 29 4.47565 0 145 4.47565 1
gene 1 14 29 6.92979 0 146 6.92979 1
gene 1 15 29 -0.585491 0 147 -0.585491 1
gene 1 16 29 -2.61882 0 148 -2.61882 1
gene 1 17 29 4.76412 0 149 4.76412 1
gene 1 18 29 2.95102 0 150 2.95102 1
gene 1 19 29 -1.50532 0 151 -1.50532 1
gene 1 20 29 -4.99166 0 152 -4.99166 1
gene 1 21 29 -2.06862 0 153 -2.06862 1
gene 1 22 29 -4.40338 0 154 -4.40338 1
gene 1 1 30 -2.15695 0 155 -2.15695 1
gene 1 2 30 -7.88882 0 156 -7.88882 1
gene 1 3 30 -4.12016 0 157 -4.12016 1
gene 1 4 30 3.64463 0 158 3.64463 1
gene 1 5 30 1.41107 0 159 1.41107 1
gene 1 6 30 1.23502 0 160 1.23502 1
gene 1 7 30 0.804235 0 161 0.804235 1
gene 1 8 30 6.49651 0 162 6.49651 1
gene 1 9 30 -3.33436 0 163 -3.33436 1
gene 1 10 30 1.48067 0 164 1.48067 1
gene 1 11 30 4.90008 0 165 4.90008 1
gene 1 12 30 0.749735 0 166 0.749735 1
gene 1 13 30 0.887565 0 167 0.887565 1
gene 1 14 30 -2.85638 0 168 -2.85638 1
gene 1 15 30 3.06406 0 169 3.06406 1
gene 1 16 30 -2.82246 0 170 -2.82246 1
gene 1 17 30 -2.77911 0 171 -2.77911 1
gene 1 18 30 1.09388 0 172 1.09388 0
gene 1 19 30 1.43273 0 173 1.43273 1
gene 1 20 30 -4.36986 0 174 -4.36986 1
gene 1 21 30 -1.24937 0 175 -1.24937 1
gene 1 22 30 -6.51342 0 176 -6.51342 1
gene 1 18 104 0.247504 0 426 0.247504 1
gene 1 104 23 -1.30874 0 427 -1.30874 0
gene 1 10 123 0.823915 0 488 0.823915 1
gene 1 123 28 5.46496 0 489 5.46496 1
gene 1 10 139 -0.79989 0 558 -0.79989 1
gene 1 139 24 2.59419 0 559 2.59419 1
gene 1 25 24 0.224602 0 646 0.224602 1
gene 1 14 123 0.191147 0 724 0.191147 1
gene 1 24 30 1.26687 0 906 1.26687 1
gene 1 20 257 0.295718 0 962 0.295718 1
gene 1 257 24 0.562166 0 963 0.562166 1
gene 1 13 257 4.12345 0 978 4.12345 1
gene 1 11 268 0.72847 0 999 0.72847 1
gene 1 268 25 1.38806 0 1000 1.38806 1
gene 1 20 268 0.382042 0 1020 0.382042 1
gene 1 3 276 0.518313 0 1040 0.518313 1
gene 1 276 30 0.595471 0 1041 0.595471 1
gene 1 14 276 -1.09405 0 1057 -1.09405 1
gene 1 15 287 -1.09107 0 1070 -1.09107 1
gene 1 287 30 -2.80577 0 1071 -2.80577 1
gene 1 12 299 0.312586 0 1118 0.312586 1
gene 1 299 23 0.371252 0 1119 0.371252 1
gene 1 12 306 0.176721 0 1141 0.176721 1
gene 1 306 25 2.16498 0 1142 2.16498 1
gene 1 7 276 -1.81387 0 1159 -1.81387 1
gene 1 299 276 -6.12008 0 1265 -6.12008 1
gene 1 9 306 0.110086 0 1276 0.110086 1
gene 1 17 104 0.534646 0 1296 0.534646 1
gene 1 17 257 -0.144905 0 1317 -0.144905 1
gene 1 3 287 -0.180482 0 1355 -0.180482 1
gene 1 23 30 0.052417 0 1372 0.052417 1
gene 1 20 371 -1.01085 0 1397 -1.01085 1
gene 1 371 29 -0.13108 0 1398 -0.13108 1
gene 1 371 268 -0.454023 0 1442 -0.454023 1
gene 1 13 389 3.13352 0 1451 3.13352 1
gene 1 389 27 0.788145 0 1452 0.788145 1
gene 1 25 400 -0.921686 0 1488 -0.921686 1
gene 1 400 24 -0.747941 0 1489 -0.747941 1
gene 1 14 400 -3.36351 0 1499 -3.36351 1
gene 1 2 276 -3.68472 0 1744 -3.68472 1
gene 1 17 276 0.533425 0 1907 0.533425 1
gene 1 6 531 -0.283564 0 1921 -0.283564 1
gene 1 531 23 -1.03508 0 1922 -1.03508 1
gene 1 30 27 3.32153 0 2045 3.32153 1
gene 1 19 569 2.07007 0 2077 2.07007 1
gene 1 569 23 0.551235 0 2078 0.551235 1
gene 1 268 27 -0.0795913 0 2194 -0.0795913 1
gene 1 29 104 -1.2457 0 2210 -1.2457 1
gene 1 13 104 1.41469 0 2242 1.41469 1
gene 1 104 569 -0.00129131 0 2275 -0.00129131 1
gene 1 4 371 -0.585658 0 2286 -0.585658 1
gene 1 23 276 0.652516 0 2347 0.652516 1
gene 1 17 389 0.144276 0 2486 0.144276 1
genomeend 3

/* Organism #4 Fitness: 14033.6 Error: 0 */
genomestart 4
trait 1 0.699519 0.302752 0.131973 0.796331 0.418581 0.625515 0.521375 0.120858 
node 1 1 1 1
node 2 1 1 1
node 3 1 1 1
node 4 1 1 1
node 5 1 1 1
node 6 1 1 1
node 7 1 1 1
node 8 1 1 1
node 9 1 1 1
node 10 1 1 1
node 11 1 1 1
node 12 1 1 1
node 13 1 1 1
node 14 1 1 1
node 15 1 1 1
node 16 1 1 1
node 17 1 1 1
node 18 1 1 1
node 19 1 1 1
node 20 1 1 1
node 21 1 1 1
node 22 1 1 3
node 23 1 0 2
node 24 1 0 2
node 25 1 0 2
node 26 1 0 2
node 27 1 0 2
node 28 1 0 2
node 29 1 0 2
node 30 1 0 2
node 104 1 0 0
node 123 1 0 0
node 139 1 0 0
node 257 1 0 0
node 268 1 0 0
node 276 1 0 0
node 287 1 0 0
node 299 1 0 0
node 306 1 0 0
node 371 1 0 0
node 389 1 0 0
node 400 1 0 0
node 531 1 0 0
node 569 1 0 0
node 707 1 0 0
gene 1 1 23 -1.52011 0 1 -1.52011 1
gene 1 2 23 5.94056 0 2 5.94056 1
gene 1 3 23 -7.314 0 3 -7.314 1
gene 1 4 23 -3.32966 0 4 -3.32966 1
gene 1 5 23 -4.5607 0 5 -4.5607 1
gene 1 6 23 0.033955 0 6 0.033955 1
gene 1 7 23 1.0785 0 7 1.0785 1
gene 1 8 23 -6.00842 0 8 -6.00842 1
gene 1 9 23 1.82568 0 9 1.82568 1
gene 1 10 23 -1.48304 0 10 -1.48304 1
gene 1 11 23 3.68947 0 11 3.68947 1
gene 1 12 23 0.138648 0 12 0.138648 1
gene 1 13 23 -1.2267 0 13 -1.2267 1
gene 1 14 23 6.87829 0 14 6.87829 1
gene 1 15 23 -7.17008 0 15 -7.17008 1
gene 1 16 23 1.29294 0 16 1.29294 1
gene 1 17 23 -1.03305 0 17 -1.03305 1
gene 1 18 23 0.437606 0 18 0.437606 1
gene 1 19 23 -1.19318 0 19 -1.19318 1
gene 1 20 23 -0.414503 0 20 -0.414503 1
gene 1 21 23 -1.00899 0 21 -1.00899 1
gene 1 22 23 -3.2334 0 22 -3.2334 1
gene 1 1 24 -0.845704 0 23 -0.845704 1
gene 1 2 24 -6.36428 0 24 -6.36428 1
gene 1 3 24 0.429148 0 25 0.429148 1
gene 1 4 24 -6.59367 0 26 -6.59367 1
gene 1 5 24 -7.55769 0 27 -7.55769 1
gene 1 6 24 -6.55037 0 28 -6.55037 1
gene 1 7 24 0.53977 0 29 0.53977 1
gene 1 8 24 -0.284109 0 30 -0.284109 1
gene 1 9 24 2.25298 0 31 2.25298 1
gene 1 10 24 3.63564 0 32 3.63564 1
gene 1 11 24 -2.37712 0 33 -2.37712 1
gene 1 12 24 -2.91531 0 34 -2.91531 1
gene 1 13 24 0.110529 0 35 0.110529 1
gene 1 14 24 6.4753 0 36 6.4753 1
gene 1 15 24 -5.3609 0 37 -5.3609 1
gene 1 16 24 5.42733 0 38 5.42733 1
gene 1 17 24 -5.72551 0 39 -5.72551 1
gene 1 18 24 2.91775 0 40 2.91775 1
gene 1 19 24 7.97874 0 41 7.97874 1
gene 1 20 24 -4.21347 0 42 -4.21347 1
gene 1 21 24 1.08698 0 43 1.08698 1
gene 1 22 24 -0.612818 0 44 -0.612818 1
gene 1 1 25 4.77015 0 45 4.77015 1
gene 1 2 25 -4.4953 0 46 -4.4953 1
gene 1 3 25 -5.76488 0 47 -5.76488 1
gene 1 4 25 -4.26074 0 48 -4.26074 1
gene 1 5 25 3.83662 0 49 3.83662 1
gene 1 6 25 -6.05178 0 50 -6.05178 1
gene 1 7 25 -0.486538 0 51 -0.486538 1
gene 1 8 25 4.55067 0 52 4.55067 1
gene 1 9 25 -1.99598 0 53 -1.99598 1
gene 1 10 25 -6.01353 0 54 -6.01353 1
gene 1 11 25 0.677759 0 55 0.677759 1
gene 1 12 25 -3.2552 0 56 -3.2552 1
gene 1 13 25 -0.94896 0 57 -0.94896 1
gene 1 14 25 -7.64482 0 58 -7.64482 1
gene 1 15 25 6.1367 0 59 6.1367 1
gene 1 16 25 -1.68166 0 60 -1.68166 1
gene 1 17 25 1.67845 0 61 1.67845 1
gene 1 18 25 -0.448011 0 62 -0.448011 1
gene 1 19 25 3.22967 0 63 3.22967 1
gene 1 20 25 -4.94993 0 64 -4.94993 1
gene 1 21 25 4.96005 0 65 4.96005 1
gene 1 22 25 0.718183 0 66 0.718183 1
gene 1 1 26 -3.55878 0 67 -3.55878 1
gene 1 2 26 0.890817 0 68 0.890817 1
gene 1 3 26 -3.05856 0 69 -3.05856 1
gene 1 4 26 2.33497 0 70 2.33497 1
gene 1 5 26 -0.757525 0 71 -0.757525 1
gene 1 6 26 2.86 0 72 2.86 1
gene 1 7 26 -0.470694 0 73 -0.470694 1
gene 1 8 26 -1.56929 0 74 -1.56929 1
gene 1 9 26 7.26896 0 75 7.26896 1
gene 1 10 26 0.610565 0 76 0.610565 1
gene 1 11 26 -0.631927 0 77 -0.631927 1
gene 1 12 26 3.30889 0 78 3.30889 1
gene 1 13 26 -2.56595 0 79 -2.56595 1
gene 1 14 26 -3.01912 0 80 -3.01912 1
gene 1 15 26 7.37061 0 81 7.37061 1
gene 1 16 26 0.989177 0 82 0.989177 1
gene 1 17 26 -0.646854 0 83 -0.646854 1
gene 1 18 26 -0.692062 0 84 -0.692062 1
gene 1 19 26 -0.225374 0 85 -0.225374 1
gene 1 20 26 3.8424 0 86 3.8424 1
gene 1 21 26 -0.306658 0 87 -0.306658 1
gene 1 22 26 2.51588 0 88 2.51588 1
gene 1 1 27 5.03197 0 89 5.03197 1
gene 1 2 27 4.38892 0 90 4.38892 1
gene 1 3 27 0.704958 0 91 0.704958 1
gene 1 4 27 0.23571 0 92 0.23571 1
gene 1 5 27 -1.08862 0 93 -1.08862 1
gene 1 6 27 7.31292 0 94 7.31292 1
gene 1 7 27 -1.8948 0 95 -1.8948 1
gene 1 8 27 -1.62714 0 96 -1.62714 1
gene 1 9 27 6.1534 0 97 6.1534 1
gene 1 10 27 -1.39702 0 98 -1.39702 1
gene 1 11 27 0.215986 0 99 0.215986 1
gene 1 12 27 -2.78837 0 100 -2.78837 1
gene 1 13 27 -2.34413 0 101 -2.34413 0
gene 1 14 27 1.28484 0 102 1.28484 1
gene 1 15 27 -1.14775 0 103 -1.14775 1
gene 1 16 27 5.3011 0 104 5.3011 1
gene 1 17 27 4.66293 0 105 4.66293 1
gene 1 18 27 2.98968 0 106 2.98968 1
gene 1 19 27 1.30011 0 107 1.30011 0
gene 1 20 27 -4.5272 0 108 -4.5272 1
gene 1 21 27 6.63327 0 109 6.63327 1
gene 1 22 27 0.315384 0 110 0.315384 1
gene 1 1 28 3.33448 0 111 3.33448 1
gene 1 2 28 -0.89581 0 112 -0.89581 1
gene 1 3 28 0.416998 0 113 0.416998 1
gene 1 4 28 5.45283 0 114 5.45283 1
gene 1 5 28 -1.39388 0 115 -1.39388 1
gene 1 6 28 0.633109 0 116 0.633109 1
gene 1 7 28 -1.42122 0 117 -1.42122 1
gene 1 8 28 -2.14823 0 118 -2.14823 1
gene 1 9 28 0.0341235 0 119 0.0341235 1
gene 1 10 28 -0.64167 0 120 -0.64167 1
gene 1 11 28 5.27632 0 121 5.27632 1
gene 1 12 28 3.84175 0 122 3.84175 1
gene 1 13 28 -1.9467 0 123 -1.9467 1
gene 1 14 28 6.38456 0 124 6.38456 1
gene 1 15 28 3.10696 0 125 3.10696 1
gene 1 16 28 -0.450068 0 126 -0.450068 1
gene 1 17 28 1.09962 0 127 1.09962 1
gene 1 18 28 -0.3149 0 128 -0.3149 1
gene 1 19 28 0.691158 0 129 0.691158 1
gene 1 20 28 1.03083 0 130 1.03083 1
gene 1 21 28 1.96951 0 131 1.96951 1
gene 1 22 28 3.87266 0 132 3.87266 1
gene 1 1 29 2.23642 0 133 2.23642 1
gene 1 2 29 6.6901 0 134 6.6901 1
gene 1 3 29 4.76796 0 135 4.76796 1
gene 1 4 29 -0.257647 0 136 -0.257647 1
gene 1 5 29 4.44754 0 137 4.44754 1
gene 1 6 29 5.89581 0 138 5.89581 1
gene 1 7 29 -1.4328 0 139 -1.4328 1
gene 1 8 29 2.2664 0 140 2.2664 1
gene 1 9 29 -5.1 0 141 -5.1 1
gene 1 10 29 -0.734713 0 142 -0.734713 1
gene 1 11 29 1.62228 0 143 1.62228 1
gene 1 12 29 2.28206 0 144 2.28206 1
gene 1 13 29 4.47565 0 145 4.47565 1
gene 1 14 29 6.92979 0 146 6.92979 1
gene 1 15 29 -0.585491 0 147 -0.585491 1
gene 1 16 29 -2.61882 0 148 -2.61882 1
gene 1 17 29 4.76412 0 149 4.76412 1
gene 1 18 29 2.95102 0 150 2.95102 1
gene 1 19 29 -1.50532 0 151 -1.50532 1
gene 1 20 29 -4.99166 0 152 -4.99166 1
gene 1 21 29 -2.06862 0 153 -2.06862 1
gene 1 22 29 -4.40338 0 154 -4.40338 1
gene 1 1 30 -2.15695 0 155 -2.15695 1
gene 1 2 30 -7.88882 0 156 -7.88882 1
gene 1 3 30 -4.12016 0 157 -4.12016 1
gene 1 4 30 3.64463 0 158 3.64463 1
gene 1 5 30 1.41107 0 159 1.41107 1
gene 1 6 30 1.23502 0 160 1.23502 1
gene 1 7 30 0.804235 0 161 0.804235 1
gene 1 8 30 6.49651 0 162 6.49651 1
gene 1 9 30 -3.33436 0 163 -3.33436 1
gene 1 10 30 1.48067 0 164 1.48067 1
gene 1 11 30 4.90008 0 165 4.90008 1
gene 1 12 30 0.749735 0 166 0.749735 1
gene 1 13 30 0.887565 0 167 0.887565 1
gene 1 14 30 -2.85638 0 168 -2.85638 1
gene 1 15 30 3.06406 0 169 3.06406 1
gene 1 16 30 -2.82246 0 170 -2.82246 1
gene 1 17 30 -2.77911 0 171 -2.77911 1
gene 1 18 30 1.09388 0 172 1.09388 1
gene 1 19 30 1.43273 0 173 1.43273 1
gene 1 20 30 -4.36986 0 174 -4.36986 1
gene 1 21 30 -1.24937 0 175 -1.24937 1
gene 1 22 30 -6.51342 0 176 -6.51342 1
gene 1 18 104 0.247504 0 426 0.247504 1
gene 1 104 23 -1.30874 0 427 -1.30874 0
gene 1 10 123 0.823915 0 488 0.823915 1
gene 1 123 28 5.46496 0 489 5.46496 1
gene 1 10 139 -0.79989 0 558 -0.79989 1
gene 1 139 24 2.59419 0 559 2.59419 1
gene 1 25 24 0.224602 0 646 0.224602 1
gene 1 14 123 0.191147 0 724 0.191147 1
gene 1 24 30 1.26687 0 906 1.26687 1
gene 1 20 257 0.295718 0 962 0.295718 1
gene 1 257 24 0.562166 0 963 0.562166 1
gene 1 13 257 4.12345 0 978 4.12345 1
gene 1 11 268 0.72847 0 999 0.72847 1
gene 1 268 25 1.38806 0 1000 1.38806 1
gene 1 20 268 0.382042 0 1020 0.382042 1
gene 1 3 276 0.518313 0 1040 0.518313 1
gene 1 276 30 0.595471 0 1041 0.595471 1
gene 1 14 276 -1.09405 0 1057 -1.09405 1
gene 1 15 287 -1.09107 0 1070 -1.09107 1
gene 1 287 30 -2.80577 0 1071 -2.80577 1
gene 1 12 299 0.312586 0 1118 0.312586 1
gene 1 299 23 0.371252 0 1119 0.371252 1
gene 1 12 306 0.176721 0 1141 0.176721 1
gene 1 306 25 2.16498 0 1142 2.16498 1
gene 1 7 276 -1.81387 0 1159 -1.81387 1
gene 1 299 276 -6.12008 0 1265 -6.12008 1
gene 1 9 306 0.110086 0 1276 0.110086 1
gene 1 17 104 0.534646 0 1296 0.534646 1
gene 1 17 257 -0.144905 0 1317 -0.144905 1
gene 1 3 287 -0.180482 0 1355 -0.180482 1
gene 1 23 30 0.052417 0 1372 0.052417 1
gene 1 20 371 -1.01085 0 1397 -1.01085 1
gene 1 371 29 -0.13108 0 1398 -0.13108 1
gene 1 371 268 -0.454023 0 1442 -0.454023 1
gene 1 13 389 3.13352 0 1451 3.13352 1
gene 1 389 27 0.788145 0 1452 0.788145 1
gene 1 25 400 -0.921686 0 1488 -0.921686 1
gene 1 400 24 -0.747941 0 1489 -0.747941 1
gene 1 14 400 -3.36351 0 1499 -3.36351 1
gene 1 2 276 -3.68472 0 1744 -3.68472 1
gene 1 17 276 0.533425 0 1907 0.533425 1
gene 1 6 531 -0.283564 0 1921 -0.283564 1
gene 1 531 23 -1.03508 0 1922 -1.03508 1
gene 1 30 27 3.32153 0 2045 3.32153 1
gene 1 19 569 2.07007 0 2077 2.07007 1
gene 1 569 23 0.551235 0 2078 0.551235 1
gene 1 268 27 -0.0795913 0 2194 -0.0795913 1
gene 1 29 104 -1.2457 0 2210 -1.2457 1
gene 1 13 104 1.41469 0 2242 1.41469 1
gene 1 104 569 -0.00129131 0 2275 -0.00129131 1
gene 1 4 371 -0.585658 0 2286 -0.585658 1
gene 1 23 276 0.652516 0 2347 0.652516 1
gene 1 17 389 0.144276 0 2486 0.144276 1
gene 1 19 707 1 0 2559 0 1
gene 1 707 27 1.30011 0 2560 0 1
genomeend 4

/* Organism #5 Fitness: 14111.4 Error: 0 */
genomestart 5
trait 1 0.699519 0.302752 0.131973 0.796331 0.418581 0.625515 0.521375 0.120858 
node 1 1 1 1
node 2 1 1 1
node 3 1 1 1
node 4 1 1 1
node 5 1 1 1
node 6 1 1 1
node 7 1 1 1
node 8 1 1 1
node 9 1 1 1
node 10 1 1 1
node 11 1 1 1
node 12 1 1 1
node 13 1 1 1
node 14 1 1 1
node 15 1 1 1
node 16 1 1 1
node 17 1 1 1
node 18 1 1 1
node 19 1 1 1
node 20 1 1 1
node 21 1 1 1
node 22 1 1 3
node 23 1 0 2
node 24 1 0 2
node 25 1 0 2
node 26 1 0 2
node 27 1 0 2
node 28 1 0 2
node 29 1 0 2
node 30 1 0 2
node 104 1 0 0
node 123 1 0 0
node 139 1 0 0
node 257 1 0 0
node 268 1 0 0
node 276 1 0 0
node 287 1 0 0
node 299 1 0 0
node 306 1 0 0
node 371 1 0 0
node 389 1 0 0
node 400 1 0 0
node 531 1 0 0
node 569 1 0 0
node 707 1 0 0
gene 1 1 23 -1.52011 0 1 -1.52011 1
gene 1 2 23 5.94056 0 2 5.94056 1
gene 1 3 23 -7.314 0 3 -7.314 1
gene 1 4 23 -3.32966 0 4 -3.32966 1
gene 1 5 23 -4.5607 0 5 -4.5607 1
gene 1 6 23 0.033955 0 6 0.033955 1
gene 1 7 23 1.0785 0 7 1.0785 1
gene 1 8 23 -6.00842 0 8 -6.00842 1
gene 1 9 23 1.82568 0 9 1.82568 1
gene 1 10 23 -1.48304 0 10 -1.48304 1
gene 1 11 23 3.68947 0 11 3.68947 1
gene 1 12 23 0.138648 0 12 0.138648 1
gene 1 13 23 -1.2267 0 13 -1.2267 1
gene 1 14 23 6.87829 0 14 6.87829 1
gene 1 15 23 -7.17008 0 15 -7.17008 1
gene 1 16 23 1.29294 0 16 1.29294 1
gene 1 17 23 -1.03305 0 17 -1.03305 1
gene 1 18 23 0.437606 0 18 0.437606 1
gene 1 19 23 -1.19318 0 19 -1.19318 1
gene 1 20 23 -0.414503 0 20 -0.414503 1
gene 1 21 23 -1.00899 0 21 -1.00899 1
gene 1 22 23 -3.2334 0 22 -3.2334 1
gene 1 1 24 -0.845704 0 23 -0.845704 1
gene 1 2 24 -6.36428 0 24 -6.36428 1
gene 1 3 24 0.429148 0 25 0.429148 1
gene 1 4 24 -6.59367 0 26 -6.59367 1
gene 1 5 24 -7.55769 0 27 -7.55769 1
gene 1 6 24 -6.55037 0 28 -6.55037 1
gene 1 7 24 0.53977 0 29 0.53977 1
gene 1 8 24 -0.284109 0 30 -0.284109 1
gene 1 9 24 2.25298 0 31 2.25298 1
gene 1 10 24 3.63564 0 32 3.63564 1
gene 1 11 24 -2.37712 0 33 -2.37712 1
gene 1 12 24 -2.91531 0 34 -2.91531 1
gene 1 13 24 0.110529 0 35 0.110529 1
gene 1 14 24 6.4753 0 36 6.4753 1
gene 1 15 24 -5.3609 0 37 -5.3609 1
gene 1 16 24 5.42733 0 38 5.42733 1
gene 1 17 24 -5.72551 0 39 -5.72551 1
gene 1 18 24 2.91775 0 40 2.91775 1
gene 1 19 24 7.97874 0 41 7.97874 1
gene 1 20 24 -4.21347 0 42 -4.21347 1
gene 1 21 24 1.08698 0 43 1.08698 1
gene 1 22 24 -0.612818 0 44 -0.612818 1
gene 1 1 25 4.77015 0 45 4.77015 1
gene 1 2 25 -4.4953 0 46 -4.4953 1
gene 1 3 25 -5.76488 0 47 -5.76488 1
gene 1 4 25 -4.26074 0 48 -4.26074 1
gene 1 5 25 3.83662 0 49 3.83662 1
gene 1 6 25 -6.05178 0 50 -6.05178 1
gene 1 7 25 -0.486538 0 51 -0.486538 1
gene 1 8 25 4.55067 0 52 4.55067 1
gene 1 9 25 -1.99598 0 53 -1.99598 1
gene 1 10 25 -6.01353 0 54 -6.01353 1
gene 1 11 25 0.677759 0 55 0.677759 1
gene 1 12 25 -3.2552 0 56 -3.2552 1
gene 1 13 25 -0.94896 0 57 -0.94896 1
gene 1 14 25 -7.64482 0 58 -7.64482 1
gene 1 15 25 6.1367 0 59 6.1367 1
gene 1 16 25 -1.68166 0 60 -1.68166 1
gene 1 17 25 1.67845 0 61 1.67845 1
gene 1 18 25 -0.448011 0 62 -0.448011 1
gene 1 19 25 3.22967 0 63 3.22967 1
gene 1 20 25 -4.94993 0 64 -4.94993 1
gene 1 21 25 4.96005 0 65 4.96005 1
gene 1 22 25 0.718183 0 66 0.718183 1
gene 1 1 26 -3.55878 0 67 -3.55878 1
gene 1 2 26 0.890817 0 68 0.890817 1
gene 1 3 26 -3.05856 0 69 -3.05856 1
gene 1 4 26 2.33497 0 70 2.33497 1
gene 1 5 26 -0.757525 0 71 -0.757525 1
gene 1 6 26 2.86 0 72 2.86 1
gene 1 7 26 -0.470694 0 73 -0.470694 1
gene 1 8 26 -1.56929 0 74 -1.56929 1
gene 1 9 26 7.26896 0 75 7.26896 1
gene 1 10 26 0.610565 0 76 0.610565 1
gene 1 11 26 -0.631927 0 77 -0.631927 1
gene 1 12 26 3.30889 0 78 3.30889 1
gene 1 13 26 -2.56595 0 79 -2.56595 1
gene 1 14 26 -3.01912 0 80 -3.01912 1
gene 1 15 26 7.37061 0 81 7.37061 1
gene 1 16 26 0.989177 0 82 0.989177 1
gene 1 17 26 -0.646854 0 83 -0.646854 1
gene 1 18 26 -0.692062 0 84 -0.692062 1
gene 1 19 26 -0.225374 0 85 -0.225374 1
gene 1 20 26 3.8424 0 86 3.8424 1
gene 1 21 26 -0.306658 0 87 -0.306658 1
gene 1 22 26 2.51588 0 88 2.51588 1
gene 1 1 27 5.03197 0 89 5.03197 1
gene 1 2 27 4.38892 0 90 4.38892 1
gene 1 3 27 0.704958 0 91 0.704958 1
gene 1 4 27 0.23571 0 92 0.23571 1
gene 1 5 27 -1.08862 0 93 -1.08862 1
gene 1 6 27 7.31292 0 94 7.31292 1
gene 1 7 27 -1.8948 0 95 -1.8948 1
gene 1 8 27 -1.62714 0 96 -1.62714 1
gene 1 9 27 6.1534 0 97 6.1534 1
gene 1 10 27 -1.39702 0 98 -1.39702 1
gene 1 11 27 0.215986 0 99 0.215986 1
gene 1 12 27 -2.78837 0 100 -2.78837 1
gene 1 13 27 -2.34413 0 101 -2.34413 0
gene 1 14 27 1.28484 0 102 1.28484 1
gene 1 15 27 -1.14775 0 103 -1.14775 0
gene 1 16 27 5.3011 0 104 5.3011 1
gene 1 17 27 4.66293 0 105 4.66293 1
gene 1 18 27 2.98968 0 106 2.98968 1
gene 1 19 27 1.30011 0 107 1.30011 0
gene 1 20 27 -4.5272 0 108 -4.5272 1
gene 1 21 27 6.63327 0 109 6.63327 1
gene 1 22 27 0.315384 0 110 0.315384 1
gene 1 1 28 3.33448 0 111 3.33448 1
gene 1 2 28 -0.89581 0 112 -0.89581 1
gene 1 3 28 0.416998 0 113 0.416998 1
gene 1 4 28 5.45283 0 114 5.45283 1
gene 1 5 28 -1.39388 0 115 -1.39388 1
gene 1 6 28 0.633109 0 116 0.633109 1
gene 1 7 28 -1.42122 0 117 -1.42122 1
gene 1 8 28 -2.14823 0 118 -2.14823 1
gene 1 9 28 0.0341235 0 119 0.0341235 1
gene 1 10 28 -0.64167 0 120 -0.64167 1
gene 1 11 28 5.27632 0 121 5.27632 1
gene 1 12 28 3.84175 0 122 3.84175 1
gene 1 13 28 -1.9467 0 123 -1.9467 1
gene 1 14 28 6.38456 0 124 6.38456 1
gene 1 15 28 3.10696 0 125 3.10696 1
gene 1 16 28 -0.450068 0 126 -0.450068 1
gene 1 17 28 1.09962 0 127 1.09962 1
gene 1 18 28 -0.3149 0 128 -0.3149 1
gene 1 19 28 0.691158 0 129 0.691158 1
gene 1 20 28 1.03083 0 130 1.03083 1
gene 1 21 28 1.96951 0 131 1.96951 1
gene 1 22 28 3.87266 0 132 3.87266 1
gene 1 1 29 2.23642 0 133 2.23642 1
gene 1 2 29 6.6901 0 134 6.6901 1
gene 1 3 29 4.76796 0 135 4.76796 1
gene 1 4 29 -0.257647 0 136 -0.257647 1
gene 1 5 29 4.44754 0 137 4.44754 1
gene 1 6 29 5.89581 0 138 5.89581 1
gene 1 7 29 -1.4328 0 139 -1.4328 1
gene 1 8 29 2.2664 0 140 2.2664 1
gene 1 9 29 -5.1 0 141 -5.1 1
gene 1 10 29 -0.734713 0 142 -0.734713 1
gene 1 11 29 1.62228 0 143 1.62228 1
gene 1 12 29 2.28206 0 144 2.28206 1
gene 1 13 29 4.47565 0 145 4.47565 1
gene 1 14 29 6.92979 0 146 6.92979 1
gene 1 15 29 -0.585491 0 147 -0.585491 1
gene 1 16 29 -2.61882 0 148 -2.61882 1
gene 1 17 29 4.76412 0 149 4.76412 1
gene 1 18 29 2.95102 0 150 2.95102 1
gene 1 19 29 -1.50532 0 151 -1.50532 1
gene 1 20 29 -4.99166 0 152 -4.99166 1
gene 1 21 29 -2.06862 0 153 -2.06862 1
gene 1 22 29 -4.40338 0 154 -4.40338 1
gene 1 1 30 -2.15695 0 155 -2.15695 1
gene 1 2 30 -7.88882 0 156 -7.88882 1
gene 1 3 30 -4.12016 0 157 -4.12016 1
gene 1 4 30 3.64463 0 158 3.64463 1
gene 1 5 30 1.41107 0 159 1.41107 1
gene 1 6 30 1.23502 0 160 1.23502 1
gene 1 7 30 0.804235 0 161 0.804235 1
gene 1 8 30 6.49651 0 162 6.49651 1
gene 1 9 30 -3.33436 0 163 -3.33436 1
gene 1 10 30 1.48067 0 164 1.48067 1
gene 1 11 30 4.90008 0 165 4.90008 1
gene 1 12 30 0.749735 0 166 0.749735 1
gene 1 13 30 0.887565 0 167 0.887565 1
gene 1 14 30 -2.85638 0 168 -2.85638 1
gene 1 15 30 3.06406 0 169 3.06406 1
gene 1 16 30 -2.82246 0 170 -2.82246 1
gene 1 17 30 -2.77911 0 171 -2.77911 1
gene 1 18 30 1.09388 0 172 1.09388 0
gene 1 19 30 1.43273 0 173 1.43273 1
gene 1 20 30 -4.36986 0 174 -4.36986 1
gene 1 21 30 -1.24937 0 175 -1.24937 1
gene 1 22 30 -6.51342 0 176 -6.51342 1
gene 1 18 104 0.247504 0 426 0.247504 1
gene 1 104 23 -1.30874 0 427 -1.30874 0
gene 1 10 123 0.823915 0 488 0.823915 1
gene 1 123 28 5.46496 0 489 5.46496 1
gene 1 10 139 -0.79989 0 558 -0.79989 1
gene 1 139 24 2.59419 0 559 2.59419 1
gene 1 25 24 0.224602 0 646 0.224602 1
gene 1 14 123 0.191147 0 724 0.191147 1
gene 1 24 30 1.26687 0 906 1.26687 1
gene 1 20 257 0.295718 0 962 0.295718 1
gene 1 257 24 0.562166 0 963 0.562166 1
gene 1 13 257 4.12345 0 978 4.12345 1
gene 1 11 268 0.72847 0 999 0.72847 1
gene 1 268 25 1.38806 0 1000 1.38806 1
gene 1 20 268 0.382042 0 1020 0.382042 1
gene 1 3 276 0.518313 0 1040 0.518313 1
gene 1 276 30 0.595471 0 1041 0.595471 1
gene 1 14 276 -1.09405 0 1057 -1.09405 1
gene 1 15 287 -1.09107 0 1070 -1.09107 1
gene 1 287 30 -2.80577 0 1071 -2.80577 1
gene 1 12 299 0.312586 0 1118 0.312586 1
gene 1 299 23 0.371252 0 1119 0.371252 1
gene 1 12 306 0.176721 0 1141 0.176721 1
gene 1 306 25 2.16498 0 1142 2.16498 1
gene 1 7 276 -1.81387 0 1159 -1.81387 1
gene 1 299 276 -6.12008 0 1265 -6.12008 1
gene 1 9 306 0.110086 0 1276 0.110086 1
gene 1 17 104 0.534646 0 1296 0.534646 1
gene 1 17 257 -0.144905 0 1317 -0.144905 1
gene 1 3 287 -0.180482 0 1355 -0.180482 1
gene 1 23 30 0.052417 0 1372 0.052417 1
gene 1 20 371 -1.01085 0 1397 -1.01085 1
gene 1 371 29 -0.13108 0 1398 -0.13108 1
gene 1 371 268 -0.454023 0 1442 -0.454023 1
gene 1 13 389 3.13352 0 1451 3.13352 1
gene 1 389 27 0.788145 0 1452 0.788145 1
gene 1 25 400 -0.921686 0 1488 -0.921686 1
gene 1 400 24 -0.747941 0 1489 -0.747941 1
gene 1 14 400 -3.36351 0 1499 -3.36351 1
gene 1 2 276 -3.68472 0 1744 -3.68472 1
gene 1 17 276 0.533425 0 1907 0.533425 1
gene 1 6 531 -0.283564 0 1921 -0.283564 1
gene 1 531 23 -1.03508 0 1922 -1.03508 1
gene 1 30 27 3.32153 0 2045 3.32153 1
gene 1 19 569 2.07007 0 2077 2.07007 1
gene 1 569 23 0.551235 0 2078 0.551235 1
gene 1 268 27 -0.0795913 0 2194 -0.0795913 1
gene 1 29 104 -1.2457 0 2210 -1.2457 1
gene 1 13 104 1.41469 0 2242 1.41469 1
gene 1 104 569 -0.00129131 0 2275 -0.00129131 1
gene 1 4 371 -0.585658 0 2286 -0.585658 1
gene 1 23 276 0.652516 0 2347 0.652516 1
gene 1 17 389 0.144276 0 2486 0.144276 1
gene 1 19 707 1 0 2559 0 1
gene 1 707 27 1.30011 0 2560 0 1
genomeend 5

/* Organism #6 Fitness: -1000 Error: 0 */
genomestart 6
trait 1 0.699519 0.302752 0.131973 0.796331 0.418581 0.625515 0.521375 0.120858 
node 1 1 1 1
node 2 1 1 1
node 3 1 1 1
node 4 1 1 1
node 5 1 1 1
node 6 1 1 1
node 7 1 1 1
node 8 1 1 1
node 9 1 1 1
node 10 1 1 1
node 11 1 1 1
node 12 1 1 1
node 13 1 1 1
node 14 1 1 1
node 15 1 1 1
node 16 1 1 1
node 17 1 1 1
node 18 1 1 1
node 19 1 1 1
node 20 1 1 1
node 21 1 1 1
node 22 1 1 3
node 23 1 0 2
node 24 1 0 2
node 25 1 0 2
node 26 1 0 2
node 27 1 0 2
node 28 1 0 2
node 29 1 0 2
node 30 1 0 2
node 104 1 0 0
node 123 1 0 0
node 139 1 0 0
node 257 1 0 0
node 268 1 0 0
node 276 1 0 0
node 287 1 0 0
node 299 1 0 0
node 306 1 0 0
node 371 1 0 0
node 389 1 0 0
node 400 1 0 0
node 531 1 0 0
node 569 1 0 0
gene 1 1 23 -3.93321 0 1 -3.93321 1
gene 1 2 23 4.93101 0 2 4.93101 1
gene 1 3 23 -6.55813 0 3 -6.55813 1
gene 1 4 23 -2.94627 0 4 -2.94627 1
gene 1 5 23 -4.82148 0 5 -4.82148 1
gene 1 6 23 1.30154 0 6 1.30154 1
gene 1 7 23 -1.22687 0 7 -1.22687 1
gene 1 8 23 -3.54573 0 8 -3.54573 1
gene 1 9 23 1.72749 0 9 1.72749 1
gene 1 10 23 -3.84258 0 10 -3.84258 1
gene 1 11 23 1.28896 0 11 1.28896 1
gene 1 12 23 -0.177448 0 12 -0.177448 1
gene 1 13 23 -1.28468 0 13 -1.28468 1
gene 1 14 23 7.72525 0 14 7.72525 1
gene 1 15 23 -7.51822 0 15 -7.51822 1
gene 1 16 23 1.91803 0 16 1.91803 1
gene 1 17 23 -2.67021 0 17 -2.67021 1
gene 1 18 23 1.23414 0 18 1.23414 1
gene 1 19 23 -0.342094 0 19 -0.342094 1
gene 1 20 23 -2.52165 0 20 -2.52165 1
gene 1 21 23 -2.26826 0 21 -2.26826 1
gene 1 22 23 -3.57544 0 22 -3.57544 1
gene 1 1 24 -1.41533 0 23 -1.41533 1
gene 1 2 24 -8 0 24 -8 1
gene 1 3 24 -1.40822 0 25 -1.40822 1
gene 1 4 24 -5.8462 0 26 -5.8462 1
gene 1 5 24 -5.37264 0 27 -5.37264 1
gene 1 6 24 -7.06568 0 28 -7.06568 1
gene 1 7 24 -1.29653 0 29 -1.29653 1
gene 1 8 24 -0.753026 0 30 -0.753026 1
gene 1 9 24 3.21416 0 31 3.21416 1
gene 1 10 24 2.01603 0 32 2.01603 1
gene 1 11 24 -4.21205 0 33 -4.21205 1
gene 1 12 24 -1.19788 0 34 -1.19788 1
gene 1 13 24 -1.19719 0 35 -1.19719 1
gene 1 14 24 6.09748 0 36 6.09748 1
gene 1 15 24 -6.44988 0 37 -6.44988 1
gene 1 16 24 7.4488 0 38 7.4488 1
gene 1 17 24 -6.56775 0 39 -6.56775 1
gene 1 18 24 4.54347 0 40 4.54347 1
gene 1 19 24 6.38507 0 41 6.38507 1
gene 1 20 24 -5.00291 0 42 -5.00291 1
gene 1 21 24 -0.86575 0 43 -0.86575 1
gene 1 22 24 -2.22267 0 44 -2.22267 1
gene 1 1 25 6.91568 0 45 6.91568 1
gene 1 2 25 -3.62331 0 46 -3.62331 1
gene 1 3 25 -6.62519 0 47 -6.62519 1
gene 1 4 25 -2.21013 0 48 -2.21013 1
gene 1 5 25 6.24239 0 49 6.24239 1
gene 1 6 25 -5.92703 0 50 -5.92703 1
gene 1 7 25 -2.16811 0 51 -2.16811 1
gene 1 8 25 6.25521 0 52 6.25521 1
gene 1 9 25 -3.95802 0 53 -3.95802 1
gene 1 10 25 -6.4842 0 54 -6.4842 1
gene 1 11 25 1.16888 0 55 1.16888 1
gene 1 12 25 -2.82855 0 56 -2.82855 1
gene 1 13 25 -2.84042 0 57 -2.84042 1
gene 1 14 25 -5.68203 0 58 -5.68203 1
gene 1 15 25 4.25256 0 59 4.25256 1
gene 1 16 25 -0.948298 0 60 -0.948298 1
gene 1 17 25 3.0012 0 61 3.0012 1
gene 1 18 25 1.39821 0 62 1.39821 1
gene 1 19 25 3.76832 0 63 3.76832 1
gene 1 20 25 -3.08548 0 64 -3.08548 1
gene 1 21 25 6.45911 0 65 6.45911 1
gene 1 22 25 1.8392 0 66 1.8392 1
gene 1 1 26 -3.83703 0 67 -3.83703 1
gene 1 2 26 -0.455049 0 68 -0.455049 1
gene 1 3 26 -5.3988 0 69 -5.3988 1
gene 1 4 26 3.43989 0 70 3.43989 1
gene 1 5 26 -1.39216 0 71 -1.39216 1
gene 1 6 26 4.4124 0 72 4.4124 1
gene 1 7 26 -1.97594 0 73 -1.97594 1
gene 1 8 26 -4.06448 0 74 -4.06448 1
gene 1 9 26 8 0 75 8 1
gene 1 10 26 1.88029 0 76 1.88029 1
gene 1 11 26 0.322997 0 77 0.322997 1
gene 1 12 26 1.3773 0 78 1.3773 1
gene 1 13 26 -4.30535 0 79 -4.30535 1
gene 1 14 26 -5.27649 0 80 -5.27649 1
gene 1 15 26 6.35625 0 81 6.35625 1
gene 1 16 26 2.04802 0 82 2.04802 1
gene 1 17 26 -2.30027 0 83 -2.30027 1
gene 1 18 26 -1.50271 0 84 -1.50271 1
gene 1 19 26 1.71019 0 85 1.71019 1
gene 1 20 26 3.25339 0 86 3.25339 1
gene 1 21 26 0.8342 0 87 0.8342 1
gene 1 22 26 0.69179 0 88 0.69179 1
gene 1 1 27 5.49127 0 89 5.49127 1
gene 1 2 27 6.25299 0 90 6.25299 1
gene 1 3 27 -1.00591 0 91 -1.00591 1
gene 1 4 27 0.588352 0 92 0.588352 1
gene 1 5 27 -2.46745 0 93 -2.46745 1
gene 1 6 27 8 0 94 8 1
gene 1 7 27 0.560873 0 95 0.560873 1
gene 1 8 27 -2.30274 0 96 -2.30274 1
gene 1 9 27 7.7544 0 97 7.7544 1
gene 1 10 27 -1.43777 0 98 -1.43777 1
gene 1 11 27 1.82874 0 99 1.82874 1
gene 1 12 27 -2.43062 0 100 -2.43062 1
gene 1 13 27 -4.05393 0 101 -4.05393 0
gene 1 14 27 -0.553369 0 102 -0.553369 1
gene 1 15 27 -1.77574 0 103 -1.77574 0
gene 1 16 27 3.48807 0 104 3.48807 1
gene 1 17 27 4.69123 0 105 4.69123 1
gene 1 18 27 2.19262 0 106 2.19262 1
gene 1 19 27 2.0176 0 107 2.0176 1
gene 1 20 27 -5.89329 0 108 -5.89329 1
gene 1 21 27 4.95178 0 109 4.95178 1
gene 1 22 27 -2.0308 0 110 -2.0308 1
gene 1 1 28 1.40388 0 111 1.40388 1
gene 1 2 28 -1.71134 0 112 -1.71134 1
gene 1 3 28 0.575389 0 113 0.575389 1
gene 1 4 28 7.37206 0 114 7.37206 1
gene 1 5 28 -3.60579 0 115 -3.60579 1
gene 1 6 28 2.12905 0 116 2.12905 1
gene 1 7 28 -2.79623 0 117 -2.79623 1
gene 1 8 28 -0.63085 0 118 -0.63085 1
gene 1 9 28 -1.43 0 119 -1.43 1
gene 1 10 28 0.19881 0 120 0.19881 1
gene 1 11 28 5.51277 0 121 5.51277 1
gene 1 12 28 2.57012 0 122 2.57012 1
gene 1 13 28 -2.5573 0 123 -2.5573 1
gene 1 14 28 4.94088 0 124 4.94088 1
gene 1 15 28 5.30674 0 125 5.30674 1
gene 1 16 28 0.555288 0 126 0.555288 1
gene 1 17 28 1.75707 0 127 1.75707 1
gene 1 18 28 -0.191529 0 128 -0.191529 1
gene 1 19 28 -1.64481 0 129 -1.64481 1
gene 1 20 28 2.82768 0 130 2.82768 1
gene 1 21 28 0.212943 0 131 0.212943 1
gene 1 22 28 5.85659 0 132 5.85659 1
gene 1 1 29 4.12948 0 133 4.12948 1
gene 1 2 29 6.64844 0 134 6.64844 1
gene 1 3 29 2.50043 0 135 2.50043 1
gene 1 4 29 1.72026 0 136 1.72026 1
gene 1 5 29 6.80586 0 137 6.80586 1
gene 1 6 29 4.38041 0 138 4.38041 1
gene 1 7 29 -1.75347 0 139 -1.75347 1
gene 1 8 29 3.73564 0 140 3.73564 1
gene 1 9 29 -7.12056 0 141 -7.12056 1
gene 1 10 29 -0.298756 0 142 -0.298756 1
gene 1 11 29 2.00162 0 143 2.00162 1
gene 1 12 29 4.57767 0 144 4.57767 1
gene 1 13 29 4.50869 0 145 4.50869 1
gene 1 14 29 5.90368 0 146 5.90368 1
gene 1 15 29 -2.88781 0 147 -2.88781 1
gene 1 16 29 -3.44931 0 148 -3.44931 1
gene 1 17 29 5.23991 0 149 5.23991 1
gene 1 18 29 1.37496 0 150 1.37496 1
gene 1 19 29 -1.91152 0 151 -1.91152 1
gene 1 20 29 -2.94524 0 152 -2.94524 1
gene 1 21 29 -3.48674 0 153 -3.48674 1
gene 1 22 29 -5.40919 0 154 -5.40919 1
gene 1 1 30 -2.18549 0 155 -2.18549 1
gene 1 2 30 -6.81221 0 156 -6.81221 1
gene 1 3 30 -5.60092 0 157 -5.60092 1
gene 1 4 30 4.0725 0 158 4.0725 1
gene 1 5 30 -0.178412 0 159 -0.178412 1
gene 1 6 30 -1.04326 0 160 -1.04326 1
gene 1 7 30 -0.594963 0 161 -0.594963 1
gene 1 8 30 4.28689 0 162 4.28689 1
gene 1 9 30 -1.17945 0 163 -1.17945 1
gene 1 10 30 0.686123 0 164 0.686123 1
gene 1 11 30 4.31481 0 165 4.31481 1
gene 1 12 30 2.28535 0 166 2.28535 1
gene 1 13 30 -1.11102 0 167 -1.11102 1
gene 1 14 30 -4.47371 0 168 -4.47371 1
gene 1 15 30 4.25443 0 169 4.25443 1
gene 1 16 30 -3.29298 0 170 -3.29298 1
gene 1 17 30 -1.61429 0 171 -1.61429 1
gene 1 18 30 2.24336 0 172 2.24336 0
gene 1 19 30 3.60015 0 173 3.60015 1
gene 1 20 30 -2.34854 0 174 -2.34854 1
gene 1 21 30 -0.218377 0 175 -0.218377 1
gene 1 22 30 -5.24568 0 176 -5.24568 1
gene 1 18 104 1.08119 0 426 1.08119 1
gene 1 104 23 0.391145 0 427 0.391145 0
gene 1 10 123 -0.0460147 0 488 -0.0460147 1
gene 1 123 28 6.34976 0 489 6.34976 1
gene 1 10 139 1.13346 0 558 1.13346 1
gene 1 139 24 4.17955 0 559 4.17955 1
gene 1 25 24 2.13712 0 646 2.13712 1
gene 1 14 123 0.179244 0 724 0.179244 1
gene 1 24 30 0.420057 0 906 0.420057 1
gene 1 20 257 0.818424 0 962 0.818424 1
gene 1 257 24 1.7562 0 963 1.7562 1
gene 1 13 257 4.12345 0 978 4.12345 1
gene 1 11 268 -0.480063 0 999 -0.480063 1
gene 1 268 25 1.38806 0 1000 1.38806 1
gene 1 20 268 0.382042 0 1020 0.382042 1
gene 1 3 276 0.518313 0 1040 0.518313 1
gene 1 276 30 -0.0516736 0 1041 -0.0516736 1
gene 1 14 276 0.503861 0 1057 0.503861 1
gene 1 15 287 -1.6192 0 1070 -1.6192 1
gene 1 287 30 -2.80577 0 1071 -2.80577 1
gene 1 12 299 2.52777 0 1118 2.52777 1
gene 1 299 23 -1.43476 0 1119 -1.43476 1
gene 1 12 306 0.176721 0 1141 0.176721 1
gene 1 306 25 2.16498 0 1142 2.16498 1
gene 1 7 276 -1.81387 0 1159 -1.81387 1
gene 1 299 276 -4.46117 0 1265 -4.46117 1
gene 1 9 306 -0.213105 0 1276 -0.213105 1
gene 1 17 104 -0.731719 0 1296 -0.731719 1
gene 1 17 257 -0.144905 0 1317 -0.144905 1
gene 1 3 287 -2.2649 0 1355 -2.2649 1
gene 1 23 30 1.9599 0 1372 1.9599 1
gene 1 20 371 -1.99355 0 1397 -1.99355 1
gene 1 371 29 -0.302289 0 1398 -0.302289 1
gene 1 371 268 0.222861 0 1442 0.222861 1
gene 1 13 389 3.53636 0 1451 3.53636 1
gene 1 389 27 3.10557 0 1452 3.10557 1
gene 1 25 400 -0.921686 0 1488 -0.921686 1
gene 1 400 24 -0.0346473 0 1489 -0.0346473 1
gene 1 14 400 -3.36351 0 1499 -3.36351 1
gene 1 2 276 2.30247 0 1744 2.30247 1
gene 1 17 276 0.533425 0 1907 0.533425 1
gene 1 6 531 -0.283564 0 1921 -0.283564 1
gene 1 531 23 -0.184637 0 1922 -0.184637 1
gene 1 30 27 -1.86018 0 2045 -1.86018 1
gene 1 19 569 -0.986816 0 2077 -0.986816 1
gene 1 569 23 0.797977 0 2078 0.797977 1
gene 1 268 27 -0.0795913 0 2194 -0.0795913 1
gene 1 29 104 -1.2457 0 2210 -1.2457 1
gene 1 13 104 2.80839 0 2242 2.80839 1
gene 1 104 569 -0.754412 0 2275 -0.754412 1
gene 1 4 371 -2.6542 0 2286 -2.6542 1
gene 1 23 276 -0.623539 0 2347 -0.623539 1
gene 1 17 389 0.286111 0 2486 0.286111 1
genomeend 6

/* Organism #7 Fitness: 13323.8 Error: 0 */
genomestart 7
trait 1 0.699519 0.302752 0.131973 0.796331 0.418581 0.625515 0.521375 0.120858 
node 1 1 1 1
node 2 1 1 1
node 3 1 1 1
node 4 1 1 1
node 5 1 1 1
node 6 1 1 1
node 7 1 1 1
node 8 1 1 1
node 9 1 1 1
node 10 1 1 1
node 11 1 1 1
node 12 1 1 1
node 13 1 1 1
node 14 1 1 1
node 15 1 1 1
node 16 1 1 1
node 17 1 1 1
node 18 1 1 1
node 19 1 1 1
node 20 1 1 1
node 21 1 1 1
node 22 1 1 3
node 23 1 0 2
node 24 1 0 2
node 25 1 0 2
node 26 1 0 2
node 27 1 0 2
node 28 1 0 2
node 29 1 0 2
node 30 1 0 2
node 104 1 0 0
node 123 1 0 0
node 139 1 0 0
node 257 1 0 0
node 268 1 0 0
node 276 1 0 0
node 287 1 0 0
node 299 1 0 0
node 306 1 0 0
node 371 1 0 0
node 389 1 0 0
node 400 1 0 0
node 531 1 0 0
node 569 1 0 0
node 707 1 0 0
gene 1 1 23 -1.52011 0 1 -1.52011 1
gene 1 2 23 5.94056 0 2 5.94056 1
gene 1 3 23 -7.314 0 3 -7.314 1
gene 1 4 23 -3.32966 0 4 -3.32966 1
gene 1 5 23 -4.5607 0 5 -4.5607 1
gene 1 6 23 0.033955 0 6 0.033955 1
gene 1 7 23 1.0785 0 7 1.0785 1
gene 1 8 23 -6.00842 0 8 -6.00842 1
gene 1 9 23 1.82568 0 9 1.82568 1
gene 1 10 23 -1.48304 0 10 -1.48304 1
gene 1 11 23 3.68947 0 11 3.68947 1
gene 1 12 23 0.138648 0 12 0.138648 1
gene 1 13 23 -1.2267 0 13 -1.2267 1
gene 1 14 23 6.87829 0 14 6.87829 1
gene 1 15 23 -7.17008 0 15 -7.17008 1
gene 1 16 23 1.29294 0 16 1.29294 1
gene 1 17 23 -1.03305 0 17 -1.03305 1
gene 1 18 23 0.437606 0 18 0.437606 1
gene 1 19 23 -1.19318 0 19 -1.19318 1
gene 1 20 23 -0.414503 0 20 -0.414503 1
gene 1 21 23 -1.00899 0 21 -1.00899 1
gene 1 22 23 -3.2334 0 22 -3.2334 1
gene 1 1 24 -0.845704 0 23 -0.845704 1
gene 1 2 24 -6.36428 0 24 -6.36428 1
gene 1 3 24 0.429148 0 25 0.429148 1
gene 1 4 24 -6.59367 0 26 -6.59367 1
gene 1 5 24 -7.55769 0 27 -7.55769 1
gene 1 6 24 -6.55037 0 28 -6.55037 1
gene 1 7 24 0.53977 0 29 0.53977 1
gene 1 8 24 -0.284109 0 30 -0.284109 1
gene 1 9 24 2.25298 0 31 2.25298 1
gene 1 10 24 3.63564 0 32 3.63564 1
gene 1 11 24 -2.37712 0 33 -2.37712 1
gene 1 12 24 -2.91531 0 34 -2.91531 1
gene 1 13 24 0.110529 0 35 0.110529 1
gene 1 14 24 6.4753 0 36 6.4753 1
gene 1 15 24 -5.3609 0 37 -5.3609 1
gene 1 16 24 5.42733 0 38 5.42733 1
gene 1 17 24 -5.72551 0 39 -5.72551 1
gene 1 18 24 2.91775 0 40 2.91775 1
gene 1 19 24 7.97874 0 41 7.97874 1
gene 1 20 24 -4.21347 0 42 -4.21347 1
gene 1 21 24 1.08698 0 43 1.08698 1
gene 1 22 24 -0.612818 0 44 -0.612818 1
gene 1 1 25 4.77015 0 45 4.77015 1
gene 1 2 25 -4.4953 0 46 -4.4953 1
gene 1 3 25 -5.76488 0 47 -5.76488 1
gene 1 4 25 -4.26074 0 48 -4.26074 1
gene 1 5 25 3.83662 0 49 3.83662 1
gene 1 6 25 -6.05178 0 50 -6.05178 1
gene 1 7 25 -0.486538 0 51 -0.486538 1
gene 1 8 25 4.55067 0 52 4.55067 1
gene 1 9 25 -1.99598 0 53 -1.99598 1
gene 1 10 25 -6.01353 0 54 -6.01353 1
gene 1 11 25 0.677759 0 55 0.677759 1
gene 1 12 25 -3.2552 0 56 -3.2552 1
gene 1 13 25 -0.94896 0 57 -0.94896 1
gene 1 14 25 -7.64482 0 58 -7.64482 1
gene 1 15 25 6.1367 0 59 6.1367 1
gene 1 16 25 -1.68166 0 60 -1.68166 1
gene 1 17 25 1.67845 0 61 1.67845 1
gene 1 18 25 -0.448011 0 62 -0.448011 1
gene 1 19 25 3.22967 0 63 3.22967 1
gene 1 20 25 -4.94993 0 64 -4.94993 1
gene 1 21 25 4.96005 0 65 4.96005 1
gene 1 22 25 0.718183 0 66 0.718183 1
gene 1 1 26 -3.55878 0 67 -3.55878 1
gene 1 2 26 0.890817 0 68 0.890817 1
gene 1 3 26 -3.05856 0 69 -3.05856 1
gene 1 4 26 2.33497 0 70 2.33497 1
gene 1 5 26 -0.757525 0 71 -0.757525 1
gene 1 6 26 2.86 0 72 2.86 1
gene 1 7 26 -0.470694 0 73 -0.470694 1
gene 1 8 26 -1.56929 0 74 -1.56929 1
gene 1 9 26 7.26896 0 75 7.26896 1
gene 1 10 26 0.610565 0 76 0.610565 1
gene 1 11 26 -0.631927 0 77 -0.631927 1
gene 1 12 26 3.30889 0 78 3.30889 1
gene 1 13 26 -2.56595 0 79 -2.56595 1
gene 1 14 26 -3.01912 0 80 -3.01912 1
gene 1 15 26 7.37061 0 81 7.37061 1
gene 1 16 26 0.989177 0 82 0.989177 1
gene 1 17 26 -0.646854 0 83 -0.646854 1
gene 1 18 26 -0.692062 0 84 -0.692062 1
gene 1 19 26 -0.225374 0 85 -0.225374 1
gene 1 20 26 3.8424 0 86 3.8424 1
gene 1 21 26 -0.306658 0 87 -0.306658 1
gene 1 22 26 2.51588 0 88 2.51588 1
gene 1 1 27 5.03197 0 89 5.03197 1
gene 1 2 27 4.38892 0 90 4.38892 1
gene 1 3 27 0.704958 0 91 0.704958 1
gene 1 4 27 0.23571 0 92 0.23571 1
gene 1 5 27 -1.08862 0 93 -1.08862 1
gene 1 6 27 7.31292 0 94 7.31292 1
gene 1 7 27 -1.8948 0 95 -1.8948 1
gene 1 8 27 -1.62714 0 96 -1.62714 1
gene 1 9 27 6.1534 0 97 6.1534 1
gene 1 10 27 -1.39702 0 98 -1.39702 1
gene 1 11 27 0.215986 0 99 0.215986 1
gene 1 12 27 -2.78837 0 100 -2.78837 1
gene 1 13 27 -2.34413 0 101 -2.34413 0
gene 1 14 27 1.28484 0 102 1.28484 1
gene 1 15 27 -1.14775 0 103 -1.14775 0
gene 1 16 27 5.3011 0 104 5.3011 1
gene 1 17 27 4.66293 0 105 4.66293 1
gene 1 18 27 2.98968 0 106 2.98968 1
gene 1 19 27 1.30011 0 107 1.30011 0
gene 1 20 27 -4.5272 0 108 -4.5272 1
gene 1 21 27 6.63327 0 109 6.63327 1
gene 1 22 27 0.315384 0 110 0.315384 1
gene 1 1 28 3.33448 0 111 3.33448 1
gene 1 2 28 -0.89581 0 112 -0.89581 1
gene 1 3 28 0.416998 0 113 0.416998 1
gene 1 4 28 5.45283 0 114 5.45283 1
gene 1 5 28 -1.39388 0 115 -1.39388 1
gene 1 6 28 0.633109 0 116 0.633109 1
gene 1 7 28 -1.42122 0 117 -1.42122 1
gene 1 8 28 -2.14823 0 118 -2.14823 1
gene 1 9 28 0.0341235 0 119 0.0341235 1
gene 1 10 28 -0.64167 0 120 -0.64167 1
gene 1 11 28 5.27632 0 121 5.27632 1
gene 1 12 28 3.84175 0 122 3.84175 1
gene 1 13 28 -1.9467 0 123 -1.9467 1
gene 1 14 28 6.38456 0 124 6.38456 1
gene 1 15 28 3.10696 0 125 3.10696 1
gene 1 16 28 -0.450068 0 126 -0.450068 1
gene 1 17 28 1.09962 0 127 1.09962 1
gene 1 18 28 -0.3149 0 128 -0.3149 1
gene 1 19 28 0.691158 0 129 0.691158 1
gene 1 20 28 1.03083 0 130 1.03083 1
gene 1 21 28 1.96951 0 131 1.96951 1
gene 1 22 28 3.87266 0 132 3.87266 1
gene 1 1 29 2.23642 0 133 2.23642 1
gene 1 2 29 6.6901 0 134 6.6901 1
gene 1 3 29 4.76796 0 135 4.76796 1
gene 1 4 29 -0.257647 0 136 -0.257647 1
gene 1 5 29 4.44754 0 137 4.44754 1
gene 1 6 29 5.89581 0 138 5.89581 1
gene 1 7 29 -1.4328 0 139 -1.4328 1
gene 1 8 29 2.2664 0 140 2.2664 1
gene 1 9 29 -5.1 0 141 -5.1 1
gene 1 10 29 -0.734713 0 142 -0.734713 1
gene 1 11 29 1.62228 0 143 1.62228 1
gene 1 12 29 2.28206 0 144 2.28206 1
gene 1 13 29 4.47565 0 145 4.47565 1
gene 1 14 29 6.92979 0 146 6.92979 1
gene 1 15 29 -0.585491 0 147 -0.585491 1
gene 1 16 29 -2.61882 0 148 -2.61882 1
gene 1 17 29 4.76412 0 149 4.76412 1
gene 1 18 29 2.95102 0 150 2.95102 1
gene 1 19 29 -1.50532 0 151 -1.50532 1
gene 1 20 29 -4.99166 0 152 -4.99166 1
gene 1 21 29 -2.06862 0 153 -2.06862 1
gene 1 22 29 -4.40338 0 154 -4.40338 1
gene 1 1 30 -2.15695 0 155 -2.15695 1
gene 1 2 30 -7.88882 0 156 -7.88882 1
gene 1 3 30 -4.12016 0 157 -4.12016 1
gene 1 4 30 3.64463 0 158 3.64463 1
gene 1 5 30 1.41107 0 159 1.41107 1
gene 1 6 30 1.23502 0 160 1.23502 1
gene 1 7 30 0.804235 0 161 0.804235 1
gene 1 8 30 6.49651 0 162 6.49651 1
gene 1 9 30 -3.33436 0 163 -3.33436 1
gene 1 10 30 1.48067 0 164 1.48067 1
gene 1 11 30 4.90008 0 165 4.90008 1
gene 1 12 30 0.749735 0 166 0.749735 1
gene 1 13 30 0.887565 0 167 0.887565 1
gene 1 14 30 -2.85638 0 168 -2.85638 1
gene 1 15 30 3.06406 0 169 3.06406 1
gene 1 16 30 -2.82246 0 170 -2.82246 1
gene 1 17 30 -2.77911 0 171 -2.77911 1
gene 1 18 30 1.09388 0 172 1.09388 0
gene 1 19 30 1.43273 0 173 1.43273 1
gene 1 20 30 -4.36986 0 174 -4.36986 1
gene 1 21 30 -1.24937 0 175 -1.24937 1
gene 1 22 30 -6.51342 0 176 -6.51342 1
gene 1 18 104 0.247504 0 426 0.247504 1
gene 1 104 23 -1.30874 0 427 -1.30874 0
gene 1 10 123 0.823915 0 488 0.823915 1
gene 1 123 28 5.46496 0 489 5.46496 1
gene 1 10 139 -0.79989 0 558 -0.79989 1
gene 1 139 24 2.59419 0 559 2.59419 1
gene 1 25 24 0.224602 0 646 0.224602 1
gene 1 14 123 0.191147 0 724 0.191147 1
gene 1 24 30 1.26687 0 906 1.26687 1
gene 1 20 257 0.295718 0 962 0.295718 1
gene 1 257 24 0.562166 0 963 0.562166 1
gene 1 13 257 4.12345 0 978 4.12345 1
gene 1 11 268 0.72847 0 999 0.72847 1
gene 1 268 25 1.38806 0 1000 1.38806 1
gene 1 20 268 0.382042 0 1020 0.382042 1
gene 1 3 276 0.518313 0 1040 0.518313 1
gene 1 276 30 0.595471 0 1041 0.595471 1
gene 1 14 276 -1.09405 0 1057 -1.09405 1
gene 1 15 287 -1.09107 0 1070 -1.09107 1
gene 1 287 30 -2.80577 0 1071 -2.80577 1
gene 1 12 299 0.312586 0 1118 0.312586 1
gene 1 299 23 0.371252 0 1119 0.371252 1
gene 1 12 306 0.176721 0 1141 0.176721 1
gene 1 306 25 2.16498 0 1142 2.16498 1
gene 1 7 276 -1.81387 0 1159 -1.81387 1
gene 1 299 276 -6.12008 0 1265 -6.12008 1
gene 1 9 306 0.110086 0 1276 0.110086 1
gene 1 17 104 0.534646 0 1296 0.534646 1
gene 1 17 257 -0.144905 0 1317 -0.144905 1
gene 1 3 287 -0.180482 0 1355 -0.180482 1
gene 1 23 30 0.052417 0 1372 0.052417 1
gene 1 20 371 -1.01085 0 1397 -1.01085 1
gene 1 371 29 -0.13108 0 1398 -0.13108 1
gene 1 371 268 -0.454023 0 1442 -0.454023 1
gene 1 13 389 3.13352 0 1451 3.13352 1
gene 1 389 27 0.788145 0 1452 0.788145 1
gene 1 25 400 -0.921686 0 1488 -0.921686 1
gene 1 400 24 -0.747941 0 1489 -0.747941 1
gene 1 14 400 -3.36351 0 1499 -3.36351 1
gene 1 2 276 -3.68472 0 1744 -3.68472 1
gene 1 17 276 0.533425 0 1907 0.533425 1
gene 1 6 531 -0.283564 0 1921 -0.283564 1
gene 1 531 23 -1.03508 0 1922 -1.03508 1
gene 1 30 27 3.32153 0 2045 3.32153 1
gene 1 19 569 2.07007 0 2077 2.07007 1
gene 1 569 23 0.551235 0 2078 0.551235 1
gene 1 268 27 -0.0795913 0 2194 -0.0795913 1
gene 1 29 104 -1.2457 0 2210 -1.2457 1
gene 1 13 104 1.41469 0 2242 1.41469 1
gene 1 104 569 -0.00129131 0 2275 -0.00129131 1
gene 1 4 371 -0.585658 0 2286 -0.585658 1
gene 1 23 276 0.652516 0 2347 0.652516 1
gene 1 17 389 0.144276 0 2486 0.144276 1
gene 1 19 707 1 0 2559 0 1
gene 1 707 27 1.30011 0 2560 0 1
genomeend 7

/* Species #269 : (Size 2) (AF 3492.58) (Age 25)  */


/* Organism #8 Fitness: 7985.17 Error: 0 */
genomestart 8
trait 1 0.61319 0.640929 0.410425 1 0.49446 1 0.92802 0.485831 
node 1 1 1 1
node 2 1 1 1
node 3 1 1 1
node 4 1 1 1
node 5 1 1 1
node 6 1 1 1
node 7 1 1 1
node 8 1 1 1
node 9 1 1 1
node 10 1 1 1
node 11 1 1 1
node 12 1 1 1
node 13 1 1 1
node 14 1 1 1
node 15 1 1 1
node 16 1 1 1
node 17 1 1 1
node 18 1 1 1
node 19 1 1 1
node 20 1 1 1
node 21 1 1 1
node 22 1 1 3
node 23 1 0 2
node 24 1 0 2
node 25 1 0 2
node 26 1 0 2
node 27 1 0 2
node 28 1 0 2
node 29 1 0 2
node 30 1 0 2
node 104 1 0 0
node 123 1 0 0
node 139 1 0 0
node 257 1 0 0
node 268 1 0 0
node 276 1 0 0
node 287 1 0 0
node 299 1 0 0
node 306 1 0 0
node 371 1 0 0
node 389 1 0 0
node 400 1 0 0
node 531 1 0 0
node 569 1 0 0
node 617 1 0 0
gene 1 1 23 -3.50776 0 1 -3.50776 1
gene 1 2 23 1.43128 0 2 1.43128 1
gene 1 3 23 -8 0 3 -8 1
gene 1 4 23 3.94093 0 4 3.94093 1
gene 1 5 23 1.03295 0 5 1.03295 1
gene 1 6 23 -0.0716422 0 6 -0.0716422 1
gene 1 7 23 -0.176638 0 7 -0.176638 1
gene 1 8 23 -6.97979 0 8 -6.97979 1
gene 1 9 23 0.107396 0 9 0.107396 1
gene 1 10 23 1.23797 0 10 1.23797 1
gene 1 11 23 6.21139 0 11 6.21139 1
gene 1 12 23 3.22421 0 12 3.22421 1
gene 1 13 23 1.86623 0 13 1.86623 1
gene 1 14 23 -1.75375 0 14 -1.75375 1
gene 1 15 23 -5.38592 0 15 -5.38592 1
gene 1 16 23 -3.40024 0 16 -3.40024 1
gene 1 17 23 -3.03421 0 17 -3.03421 1
gene 1 18 23 3.48754 0 18 3.48754 1
gene 1 19 23 0.605928 0 19 0.605928 1
gene 1 20 23 -1.27712 0 20 -1.27712 1
gene 1 21 23 -2.33787 0 21 -2.33787 1
gene 1 22 23 -5.84289 0 22 -5.84289 1
gene 1 1 24 0.839881 0 23 0.839881 1
gene 1 2 24 -3.27986 0 24 -3.27986 1
gene 1 3 24 -4.02524 0 25 -4.02524 1
gene 1 4 24 -1.36301 0 26 -1.36301 1
gene 1 5 24 -5.79504 0 27 -5.79504 1
gene 1 6 24 -4.58611 0 28 -4.58611 1
gene 1 7 24 -6.9027 0 29 -6.9027 1
gene 1 8 24 4.88073 0 30 4.88073 1
gene 1 9 24 3.00523 0 31 3.00523 1
gene 1 10 24 1.16092 0 32 1.16092 1
gene 1 11 24 0.483642 0 33 0.483642 1
gene 1 12 24 -2.68831 0 34 -2.68831 1
gene 1 13 24 7.66908 0 35 7.66908 1
gene 1 14 24 8 0 36 8 1
gene 1 15 24 2.5264 0 37 2.5264 1
gene 1 16 24 -2.10364 0 38 -2.10364 1
gene 1 17 24 -5.72846 0 39 -5.72846 1
gene 1 18 24 0.437178 0 40 0.437178 1
gene 1 19 24 1.67367 0 41 1.67367 1
gene 1 20 24 -4.07436 0 42 -4.07436 1
gene 1 21 24 2.67492 0 43 2.67492 1
gene 1 22 24 -4.15709 0 44 -4.15709 1
gene 1 1 25 5.43428 0 45 5.43428 1
gene 1 2 25 -6.94322 0 46 -6.94322 1
gene 1 3 25 -1.24006 0 47 -1.24006 1
gene 1 4 25 -2.7546 0 48 -2.7546 1
gene 1 5 25 2.7533 0 49 2.7533 1
gene 1 6 25 -3.97603 0 50 -3.97603 1
gene 1 7 25 -0.792009 0 51 -0.792009 1
gene 1 8 25 3.51689 0 52 3.51689 1
gene 1 9 25 2.3394 0 53 2.3394 1
gene 1 10 25 -6.63006 0 54 -6.63006 1
gene 1 11 25 1.24717 0 55 1.24717 1
gene 1 12 25 -7.32419 0 56 -7.32419 1
gene 1 13 25 3.081 0 57 3.081 1
gene 1 14 25 -5.6029 0 58 -5.6029 1
gene 1 15 25 6.08763 0 59 6.08763 1
gene 1 16 25 1.82966 0 60 1.82966 1
gene 1 17 25 -1.72217 0 61 -1.72217 1
gene 1 18 25 4.84129 0 62 4.84129 1
gene 1 19 25 0.260704 0 63 0.260704 1
gene 1 20 25 -0.530488 0 64 -0.530488 1
gene 1 21 25 1.54462 0 65 1.54462 1
gene 1 22 25 3.80879 0 66 3.80879 1
gene 1 1 26 3.96508 0 67 3.96508 1
gene 1 2 26 -0.202477 0 68 -0.202477 1
gene 1 3 26 3.66964 0 69 3.66964 1
gene 1 4 26 -1.42617 0 70 -1.42617 1
gene 1 5 26 1.23661 0 71 1.23661 1
gene 1 6 26 0.0597295 0 72 0.0597295 1
gene 1 7 26 -8 0 73 -8 1
gene 1 8 26 -1.85727 0 74 -1.85727 1
gene 1 9 26 7.79949 0 75 7.79949 1
gene 1 10 26 3.51281 0 76 3.51281 1
gene 1 11 26 1.07677 0 77 1.07677 1
gene 1 12 26 -1.58673 0 78 -1.58673 1
gene 1 13 26 1.8376 0 79 1.8376 1
gene 1 14 26 -4.30081 0 80 -4.30081 1
gene 1 15 26 6.47188 0 81 6.47188 1
gene 1 16 26 4.93903 0 82 4.93903 1
gene 1 17 26 -1.42567 0 83 -1.42567 1
gene 1 18 26 0.621738 0 84 0.621738 1
gene 1 19 26 -2.19107 0 85 -2.19107 1
gene 1 20 26 -2.6265 0 86 -2.6265 1
gene 1 21 26 -3.92914 0 87 -3.92914 1
gene 1 22 26 0.499963 0 88 0.499963 1
gene 1 1 27 1.34083 0 89 1.34083 1
gene 1 2 27 7.96309 0 90 7.96309 1
gene 1 3 27 2.65893 0 91 2.65893 1
gene 1 4 27 5.58975 0 92 5.58975 1
gene 1 5 27 0.0906803 0 93 0.0906803 1
gene 1 6 27 3.71448 0 94 3.71448 1
gene 1 7 27 -8 0 95 -8 1
gene 1 8 27 3.00028 0 96 3.00028 1
gene 1 9 27 5.80328 0 97 5.80328 1
gene 1 10 27 0.407849 0 98 0.407849 1
gene 1 11 27 -4.76776 0 99 -4.76776 1
gene 1 12 27 2.24998 0 100 2.24998 1
gene 1 13 27 -2.47215 0 101 -2.47215 0
gene 1 14 27 8 0 102 8 1
gene 1 15 27 -4.70707 0 103 -4.70707 1
gene 1 16 27 6.39079 0 104 6.39079 1
gene 1 17 27 -4.03209 0 105 -4.03209 1
gene 1 18 27 4.2531 0 106 4.2531 1
gene 1 19 27 -0.888775 0 107 -0.888775 1
gene 1 20 27 -8 0 108 -8 1
gene 1 21 27 2.15602 0 109 2.15602 1
gene 1 22 27 1.17022 0 110 1.17022 1
gene 1 1 28 0.639542 0 111 0.639542 1
gene 1 2 28 -2.36629 0 112 -2.36629 1
gene 1 3 28 2.38575 0 113 2.38575 1
gene 1 4 28 8 0 114 8 1
gene 1 5 28 -0.212129 0 115 -0.212129 1
gene 1 6 28 1.42066 0 116 1.42066 1
gene 1 7 28 -0.701188 0 117 -0.701188 1
gene 1 8 28 -0.489016 0 118 -0.489016 1
gene 1 9 28 -2.08864 0 119 -2.08864 1
gene 1 10 28 -0.900226 0 120 -0.900226 1
gene 1 11 28 2.07282 0 121 2.07282 1
gene 1 12 28 8 0 122 8 1
gene 1 13 28 -4.76516 0 123 -4.76516 1
gene 1 14 28 5.97205 0 124 5.97205 1
gene 1 15 28 -4.22431 0 125 -4.22431 1
gene 1 16 28 1.55145 0 126 1.55145 1
gene 1 17 28 0.92204 0 127 0.92204 1
gene 1 18 28 1.01405 0 128 1.01405 1
gene 1 19 28 -1.74757 0 129 -1.74757 1
gene 1 20 28 -0.662433 0 130 -0.662433 1
gene 1 21 28 -1.68958 0 131 -1.68958 1
gene 1 22 28 5.4881 0 132 5.4881 1
gene 1 1 29 3.23548 0 133 3.23548 1
gene 1 2 29 5.54013 0 134 5.54013 1
gene 1 3 29 6.74218 0 135 6.74218 1
gene 1 4 29 -2.78247 0 136 -2.78247 1
gene 1 5 29 3.62126 0 137 3.62126 1
gene 1 6 29 -1.7346 0 138 -1.7346 1
gene 1 7 29 -3.12609 0 139 -3.12609 1
gene 1 8 29 -2.14538 0 140 -2.14538 1
gene 1 9 29 -0.370266 0 141 -0.370266 1
gene 1 10 29 -1.17504 0 142 -1.17504 1
gene 1 11 29 -1.33694 0 143 -1.33694 1
gene 1 12 29 5.49813 0 144 5.49813 1
gene 1 13 29 5.30754 0 145 5.30754 1
gene 1 14 29 6.97183 0 146 6.97183 1
gene 1 15 29 0.532378 0 147 0.532378 1
gene 1 16 29 -4.15938 0 148 -4.15938 1
gene 1 17 29 5.62144 0 149 5.62144 1
gene 1 18 29 -0.496689 0 150 -0.496689 1
gene 1 19 29 -1.73094 0 151 -1.73094 1
gene 1 20 29 -5.76548 0 152 -5.76548 1
gene 1 21 29 -1.07471 0 153 -1.07471 1
gene 1 22 29 -5.82453 0 154 -5.82453 1
gene 1 1 30 6.24153 0 155 6.24153 0
gene 1 2 30 -6.13021 0 156 -6.13021 1
gene 1 3 30 -5.33478 0 157 -5.33478 1
gene 1 4 30 0.00946074 0 158 0.00946074 1
gene 1 5 30 3.3713 0 159 3.3713 1
gene 1 6 30 -1.42567 0 160 -1.42567 1
gene 1 7 30 1.77928 0 161 1.77928 1
gene 1 8 30 6.63274 0 162 6.63274 1
gene 1 9 30 -3.34425 0 163 -3.34425 1
gene 1 10 30 -1.9087 0 164 -1.9087 1
gene 1 11 30 0.145726 0 165 0.145726 1
gene 1 12 30 -2.78607 0 166 -2.78607 1
gene 1 13 30 0.345651 0 167 0.345651 1
gene 1 14 30 -3.32493 0 168 -3.32493 1
gene 1 15 30 5.84874 0 169 5.84874 1
gene 1 16 30 -0.188445 0 170 -0.188445 1
gene 1 17 30 -7.11867 0 171 -7.11867 1
gene 1 18 30 0.6481 0 172 0.6481 0
gene 1 19 30 -0.18479 0 173 -0.18479 1
gene 1 20 30 -6.76293 0 174 -6.76293 1
gene 1 21 30 -0.548807 0 175 -0.548807 1
gene 1 22 30 -8 0 176 -8 1
gene 1 18 104 -1.20447 0 426 -1.20447 1
gene 1 104 23 0.11269 0 427 0.11269 1
gene 1 10 123 -2.44085 0 488 -2.44085 1
gene 1 123 28 -3.08954 0 489 -3.08954 1
gene 1 10 139 3.35829 0 558 3.35829 1
gene 1 139 24 1.42907 0 559 1.42907 1
gene 1 25 24 4.11693 0 646 4.11693 1
gene 1 14 123 5.40799 0 724 5.40799 1
gene 1 24 30 -1.98256 0 906 -1.98256 1
gene 1 20 257 2.07644 0 962 2.07644 1
gene 1 257 24 -1.98698 0 963 -1.98698 1
gene 1 13 257 -4.54213 0 978 -4.54213 1
gene 1 11 268 1.55332 0 999 1.55332 1
gene 1 268 25 -1.94475 0 1000 -1.94475 1
gene 1 20 268 -2.08312 0 1020 -2.08312 1
gene 1 3 276 -0.640679 0 1040 -0.640679 1
gene 1 276 30 2.49123 0 1041 2.49123 1
gene 1 14 276 -0.940046 0 1057 -0.940046 1
gene 1 15 287 0.165487 0 1070 0.165487 1
gene 1 287 30 -1.04724 0 1071 -1.04724 1
gene 1 12 299 1.62183 0 1118 1.62183 1
gene 1 299 23 7.48871 0 1119 7.48871 1
gene 1 12 306 -1.95036 0 1141 -1.95036 1
gene 1 306 25 -1.99126 0 1142 -1.99126 1
gene 1 7 276 -1.06937 0 1159 -1.06937 1
gene 1 299 276 0.387509 0 1265 0.387509 1
gene 1 9 306 -3.02151 0 1276 -3.02151 1
gene 1 17 104 2.8399 0 1296 2.8399 1
gene 1 17 257 -1.88737 0 1317 -1.88737 1
gene 1 3 287 0.699618 0 1355 0.699618 1
gene 1 23 30 0.836055 0 1372 0.836055 1
gene 1 20 371 -2.03982 0 1397 -2.03982 0
gene 1 371 29 0.419684 0 1398 0.419684 1
gene 1 371 268 1.30253 0 1442 1.30253 1
gene 1 13 389 0.120297 0 1451 0.120297 1
gene 1 389 27 3.66806 0 1452 3.66806 1
gene 1 25 400 -2.14059 0 1488 -2.14059 1
gene 1 400 24 -0.515866 0 1489 -0.515866 1
gene 1 14 400 1.79136 0 1499 1.79136 1
gene 1 2 276 -7.23524 0 1744 -7.23524 1
gene 1 17 276 -1.01291 0 1907 -1.01291 1
gene 1 6 531 0.0757622 0 1921 0.0757622 1
gene 1 531 23 -0.0336152 0 1922 -0.0336152 1
gene 1 30 27 7.94551 0 2045 7.94551 1
gene 1 19 569 2.79155 0 2077 2.79155 1
gene 1 569 23 1.43422 0 2078 1.43422 1
gene 1 268 27 3.1287 0 2194 3.1287 1
gene 1 29 104 1.66478 0 2210 1.66478 1
gene 1 1 617 1.02618 0 2257 1.02618 1
gene 1 617 30 -0.631948 0 2258 -0.631948 1
gene 1 23 104 1.54187 1 2280 1.54187 1
gene 1 569 30 4.46396 0 2329 4.46396 1
gene 1 6 617 2.6062 0 2380 2.6062 1
gene 1 299 400 -0.37434 0 2508 -0.37434 1
genomeend 8

/* Organism #9 Fitness: -1000 Error: 0 */
genomestart 9
trait 1 0.61319 0.640929 0.410425 1 0.49446 1 0.92802 0.485831 
node 1 1 1 1
node 2 1 1 1
node 3 1 1 1
node 4 1 1 1
node 5 1 1 1
node 6 1 1 1
node 7 1 1 1
node 8 1 1 1
node 9 1 1 1
node 10 1 1 1
node 11 1 1 1
node 12 1 1 1
node 13 1 1 1
node 14 1 1 1
node 15 1 1 1
node 16 1 1 1
node 17 1 1 1
node 18 1 1 1
node 19 1 1 1
node 20 1 1 1
node 21 1 1 1
node 22 1 1 3
node 23 1 0 2
node 24 1 0 2
node 25 1 0 2
node 26 1 0 2
node 27 1 0 2
node 28 1 0 2
node 29 1 0 2
node 30 1 0 2
node 104 1 0 0
node 123 1 0 0
node 139 1 0 0
node 257 1 0 0
node 268 1 0 0
node 276 1 0 0
node 287 1 0 0
node 299 1 0 0
node 306 1 0 0
node 371 1 0 0
node 389 1 0 0
node 400 1 0 0
node 531 1 0 0
node 569 1 0 0
node 617 1 0 0
gene 1 1 23 -1.40175 0 1 -1.40175 1
gene 1 2 23 2.78913 0 2 2.78913 1
gene 1 3 23 -4.15752 0 3 -4.15752 1
gene 1 4 23 -0.00587481 0 4 -0.00587481 1
gene 1 5 23 -1.61934 0 5 -1.61934 1
gene 1 6 23 -0.675832 0 6 -0.675832 1
gene 1 7 23 -0.249195 0 7 -0.249195 1
gene 1 8 23 -2.9956 0 8 -2.9956 1
gene 1 9 23 -1.04697 0 9 -1.04697 1
gene 1 10 23 0.931027 0 10 0.931027 1
gene 1 11 23 6.49734 0 11 6.49734 1
gene 1 12 23 0.95981 0 12 0.95981 1
gene 1 13 23 4.65577 0 13 4.65577 1
gene 1 14 23 -1.80883 0 14 -1.80883 1
gene 1 15 23 -5.7558 0 15 -5.7558 1
gene 1 16 23 -2.86952 0 16 -2.86952 1
gene 1 17 23 -2.72025 0 17 -2.72025 1
gene 1 18 23 0.682128 0 18 0.682128 1
gene 1 19 23 2.3654 0 19 2.3654 1
gene 1 20 23 -1.04579 0 20 -1.04579 1
gene 1 21 23 0.959807 0 21 0.959807 1
gene 1 22 23 -3.97699 0 22 -3.97699 1
gene 1 1 24 3.07735 0 23 3.07735 1
gene 1 2 24 -4.4607 0 24 -4.4607 1
gene 1 3 24 -2.07244 0 25 -2.07244 1
gene 1 4 24 -1.19836 0 26 -1.19836 1
gene 1 5 24 -8 0 27 -8 1
gene 1 6 24 -2.34536 0 28 -2.34536 1
gene 1 7 24 -8 0 29 -8 1
gene 1 8 24 2.37531 0 30 2.37531 1
gene 1 9 24 0.468917 0 31 0.468917 1
gene 1 10 24 2.37602 0 32 2.37602 1
gene 1 11 24 -0.404447 0 33 -0.404447 1
gene 1 12 24 -0.726273 0 34 -0.726273 1
gene 1 13 24 3.64575 0 35 3.64575 1
gene 1 14 24 6.49058 0 36 6.49058 1
gene 1 15 24 2.86363 0 37 2.86363 1
gene 1 16 24 -0.571154 0 38 -0.571154 1
gene 1 17 24 -5.51941 0 39 -5.51941 1
gene 1 18 24 2.96014 0 40 2.96014 1
gene 1 19 24 -0.935815 0 41 -0.935815 1
gene 1 20 24 -3.37609 0 42 -3.37609 1
gene 1 21 24 3.0535 0 43 3.0535 1
gene 1 22 24 -0.862615 0 44 -0.862615 1
gene 1 1 25 8 0 45 8 1
gene 1 2 25 -6.43959 0 46 -6.43959 1
gene 1 3 25 2.1079 0 47 2.1079 1
gene 1 4 25 1.68943 0 48 1.68943 1
gene 1 5 25 4.89082 0 49 4.89082 1
gene 1 6 25 -3.93834 0 50 -3.93834 1
gene 1 7 25 -0.725021 0 51 -0.725021 1
gene 1 8 25 7.21802 0 52 7.21802 1
gene 1 9 25 -1.02031 0 53 -1.02031 1
gene 1 10 25 -4.99374 0 54 -4.99374 1
gene 1 11 25 0.471311 0 55 0.471311 1
gene 1 12 25 -7.96538 0 56 -7.96538 1
gene 1 13 25 2.54082 0 57 2.54082 1
gene 1 14 25 -8 0 58 -8 1
gene 1 15 25 8 0 59 8 1
gene 1 16 25 1.32748 0 60 1.32748 1
gene 1 17 25 -4.70856 0 61 -4.70856 1
gene 1 18 25 3.35649 0 62 3.35649 1
gene 1 19 25 -1.9264 0 63 -1.9264 1
gene 1 20 25 -4.38101 0 64 -4.38101 1
gene 1 21 25 -0.517288 0 65 -0.517288 1
gene 1 22 25 0.789899 0 66 0.789899 1
gene 1 1 26 4.50877 0 67 4.50877 1
gene 1 2 26 -0.11466 0 68 -0.11466 1
gene 1 3 26 0.561176 0 69 0.561176 1
gene 1 4 26 -1.9842 0 70 -1.9842 1
gene 1 5 26 -1.40102 0 71 -1.40102 1
gene 1 6 26 3.89819 0 72 3.89819 1
gene 1 7 26 -4.95386 0 73 -4.95386 1
gene 1 8 26 -0.264663 0 74 -0.264663 1
gene 1 9 26 7.13938 0 75 7.13938 1
gene 1 10 26 2.45619 0 76 2.45619 1
gene 1 11 26 0.220878 0 77 0.220878 1
gene 1 12 26 -0.495312 0 78 -0.495312 1
gene 1 13 26 1.40538 0 79 1.40538 1
gene 1 14 26 -1.89756 0 80 -1.89756 1
gene 1 15 26 8 0 81 8 1
gene 1 16 26 6.08973 0 82 6.08973 1
gene 1 17 26 0.428332 0 83 0.428332 1
gene 1 18 26 -1.90146 0 84 -1.90146 1
gene 1 19 26 -1.05631 0 85 -1.05631 1
gene 1 20 26 0.944624 0 86 0.944624 1
gene 1 21 26 -3.7606 0 87 -3.7606 1
gene 1 22 26 3.87424 0 88 3.87424 1
gene 1 1 27 -0.951949 0 89 -0.951949 1
gene 1 2 27 4.43263 0 90 4.43263 1
gene 1 3 27 1.95647 0 91 1.95647 1
gene 1 4 27 5.14754 0 92 5.14754 1
gene 1 5 27 2.99482 0 93 2.99482 1
gene 1 6 27 4.89966 0 94 4.89966 1
gene 1 7 27 -8 0 95 -8 1
gene 1 8 27 4.76959 0 96 4.76959 1
gene 1 9 27 8 0 97 8 1
gene 1 10 27 -0.736061 0 98 -0.736061 1
gene 1 11 27 -3.99145 0 99 -3.99145 1
gene 1 12 27 -2.28446 0 100 -2.28446 1
gene 1 13 27 -3.22687 0 101 -3.22687 0
gene 1 14 27 6.07281 0 102 6.07281 1
gene 1 15 27 -5.05849 0 103 -5.05849 1
gene 1 16 27 5.51689 0 104 5.51689 1
gene 1 17 27 -4.47515 0 105 -4.47515 1
gene 1 18 27 4.05595 0 106 4.05595 1
gene 1 19 27 -0.508744 0 107 -0.508744 1
gene 1 20 27 -8 0 108 -8 1
gene 1 21 27 0.359093 0 109 0.359093 1
gene 1 22 27 2.96913 0 110 2.96913 1
gene 1 1 28 2.29441 0 111 2.29441 1
gene 1 2 28 -0.37946 0 112 -0.37946 1
gene 1 3 28 0.562571 0 113 0.562571 1
gene 1 4 28 8 0 114 8 1
gene 1 5 28 -3.13 0 115 -3.13 1
gene 1 6 28 -1.87122 0 116 -1.87122 1
gene 1 7 28 0.882951 0 117 0.882951 1
gene 1 8 28 0.315604 0 118 0.315604 1
gene 1 9 28 -1.28058 0 119 -1.28058 1
gene 1 10 28 -2.40136 0 120 -2.40136 1
gene 1 11 28 1.77107 0 121 1.77107 1
gene 1 12 28 8 0 122 8 1
gene 1 13 28 -5.81668 0 123 -5.81668 1
gene 1 14 28 8 0 124 8 1
gene 1 15 28 -3.57564 0 125 -3.57564 1
gene 1 16 28 3.23607 0 126 3.23607 1
gene 1 17 28 1.4317 0 127 1.4317 1
gene 1 18 28 4.05125 0 128 4.05125 1
gene 1 19 28 -2.29575 0 129 -2.29575 1
gene 1 20 28 -4.9026 0 130 -4.9026 1
gene 1 21 28 -1.7777 0 131 -1.7777 1
gene 1 22 28 4.95372 0 132 4.95372 1
gene 1 1 29 2.28117 0 133 2.28117 1
gene 1 2 29 7.17119 0 134 7.17119 1
gene 1 3 29 7.31074 0 135 7.31074 1
gene 1 4 29 -4.4954 0 136 -4.4954 1
gene 1 5 29 3.39405 0 137 3.39405 1
gene 1 6 29 -0.855281 0 138 -0.855281 1
gene 1 7 29 -2.00797 0 139 -2.00797 1
gene 1 8 29 -0.167326 0 140 -0.167326 1
gene 1 9 29 0.410474 0 141 0.410474 1
gene 1 10 29 3.1148 0 142 3.1148 1
gene 1 11 29 -0.552232 0 143 -0.552232 1
gene 1 12 29 2.22525 0 144 2.22525 1
gene 1 13 29 8 0 145 8 1
gene 1 14 29 6.45286 0 146 6.45286 1
gene 1 15 29 0.211628 0 147 0.211628 1
gene 1 16 29 -0.573993 0 148 -0.573993 1
gene 1 17 29 5.41567 0 149 5.41567 1
gene 1 18 29 -0.481278 0 150 -0.481278 1
gene 1 19 29 -0.0566229 0 151 -0.0566229 1
gene 1 20 29 -5.34203 0 152 -5.34203 1
gene 1 21 29 -3.8081 0 153 -3.8081 1
gene 1 22 29 -8 0 154 -8 1
gene 1 1 30 3.9061 0 155 3.9061 0
gene 1 2 30 -5.70981 0 156 -5.70981 1
gene 1 3 30 -4.13106 0 157 -4.13106 1
gene 1 4 30 -1.3493 0 158 -1.3493 1
gene 1 5 30 2.92016 0 159 2.92016 1
gene 1 6 30 0.83346 0 160 0.83346 1
gene 1 7 30 0.544496 0 161 0.544496 1
gene 1 8 30 6.47237 0 162 6.47237 1
gene 1 9 30 -3.66874 0 163 -3.66874 1
gene 1 10 30 -1.40614 0 164 -1.40614 1
gene 1 11 30 2.00308 0 165 2.00308 1
gene 1 12 30 -0.874996 0 166 -0.874996 1
gene 1 13 30 2.51437 0 167 2.51437 1
gene 1 14 30 -0.599098 0 168 -0.599098 1
gene 1 15 30 7.45303 0 169 7.45303 1
gene 1 16 30 -0.372701 0 170 -0.372701 1
gene 1 17 30 -3.16782 0 171 -3.16782 1
gene 1 18 30 2.33303 0 172 2.33303 0
gene 1 19 30 -0.357982 0 173 -0.357982 1
gene 1 20 30 -2.81605 0 174 -2.81605 1
gene 1 21 30 -2.07618 0 175 -2.07618 1
gene 1 22 30 -7.16318 0 176 -7.16318 1
gene 1 18 104 -5.06719 0 426 -5.06719 1
gene 1 104 23 -2.0249 0 427 -2.0249 1
gene 1 10 123 -2.33137 0 488 -2.33137 1
gene 1 123 28 0.39201 0 489 0.39201 1
gene 1 10 139 2.05004 0 558 2.05004 1
gene 1 139 24 0.544948 0 559 0.544948 1
gene 1 25 24 3.4282 0 646 3.4282 1
gene 1 14 123 5.7865 0 724 5.7865 1
gene 1 24 30 -2.29781 0 906 -2.29781 1
gene 1 20 257 2.07644 0 962 2.07644 1
gene 1 257 24 -4.17173 0 963 -4.17173 1
gene 1 13 257 -4.25656 0 978 -4.25656 1
gene 1 11 268 3.8036 0 999 3.8036 1
gene 1 268 25 -2.96377 0 1000 -2.96377 1
gene 1 20 268 -3.58791 0 1020 -3.58791 1
gene 1 3 276 -0.924577 0 1040 -0.924577 1
gene 1 276 30 3.39151 0 1041 3.39151 1
gene 1 14 276 -1.35994 0 1057 -1.35994 1
gene 1 15 287 1.61405 0 1070 1.61405 1
gene 1 287 30 -2.0114 0 1071 -2.0114 1
gene 1 12 299 0.940348 0 1118 0.940348 1
gene 1 299 23 6.60398 0 1119 6.60398 1
gene 1 12 306 -0.675604 0 1141 -0.675604 1
gene 1 306 25 3.86223 0 1142 3.86223 1
gene 1 7 276 -0.16747 0 1159 -0.16747 1
gene 1 299 276 3.23321 0 1265 3.23321 1
gene 1 9 306 -3.44244 0 1276 -3.44244 1
gene 1 17 104 4.41298 0 1296 4.41298 1
gene 1 17 257 -1.70007 0 1317 -1.70007 1
gene 1 3 287 -1.76017 0 1355 -1.76017 1
gene 1 23 30 1.71194 0 1372 1.71194 1
gene 1 20 371 -2.04958 0 1397 -2.04958 0
gene 1 371 29 -0.827531 0 1398 -0.827531 1
gene 1 371 268 -1.02748 0 1442 -1.02748 1
gene 1 13 389 1.00778 0 1451 1.00778 1
gene 1 389 27 -1.80395 0 1452 -1.80395 1
gene 1 25 400 -2.14059 0 1488 -2.14059 1
gene 1 400 24 -0.614948 0 1489 -0.614948 1
gene 1 14 400 1.79136 0 1499 1.79136 1
gene 1 2 276 -0.165105 0 1744 -0.165105 1
gene 1 17 276 2.60931 0 1907 2.60931 1
gene 1 6 531 1.28355 0 1921 1.28355 1
gene 1 531 23 -0.456602 0 1922 -0.456602 1
gene 1 30 27 6.07343 0 2045 6.07343 1
gene 1 19 569 1.75675 0 2077 1.75675 1
gene 1 569 23 2.78901 0 2078 2.78901 1
gene 1 268 27 4.97286 0 2194 4.97286 1
gene 1 29 104 2.99471 0 2210 2.99471 1
gene 1 1 617 1.67547 0 2257 1.67547 1
gene 1 617 30 -2.67631 0 2258 -2.67631 1
gene 1 23 104 3.69175 1 2280 3.69175 1
gene 1 569 30 1.79571 0 2329 1.79571 1
gene 1 6 617 3.37008 0 2380 3.37008 1
gene 1 299 400 -2.2143 0 2508 -2.2143 1
genomeend 9

/* Species #280 : (Size 10) (AF 7841.07) (Age 15)  */


/* Organism #10 Fitness: 15216.1 Error: 0 */
genomestart 10
trait 1 0.0327208 0.0687531 0.48149 0.890876 0.433964 0.770566 0.835907 0.206379 
node 1 1 1 1
node 2 1 1 1
node 3 1 1 1
node 4 1 1 1
node 5 1 1 1
node 6 1 1 1
node 7 1 1 1
node 8 1 1 1
node 9 1 1 1
node 10 1 1 1
node 11 1 1 1
node 12 1 1 1
node 13 1 1 1
node 14 1 1 1
node 15 1 1 1
node 16 1 1 1
node 17 1 1 1
node 18 1 1 1
node 19 1 1 1
node 20 1 1 1
node 21 1 1 1
node 22 1 1 3
node 23 1 0 2
node 24 1 0 2
node 25 1 0 2
node 26 1 0 2
node 27 1 0 2
node 28 1 0 2
node 29 1 0 2
node 30 1 0 2
node 104 1 0 0
node 123 1 0 0
node 139 1 0 0
node 257 1 0 0
node 268 1 0 0
node 276 1 0 0
node 287 1 0 0
node 299 1 0 0
node 306 1 0 0
node 371 1 0 0
node 389 1 0 0
node 400 1 0 0
node 531 1 0 0
node 641 1 0 0
node 645 1 0 0
node 656 1 0 0
node 694 1 0 0
node 708 1 0 0
gene 1 1 23 -1.9496 0 1 -1.9496 1
gene 1 2 23 3.02429 0 2 3.02429 1
gene 1 3 23 -4.47119 0 3 -4.47119 1
gene 1 4 23 0.874143 0 4 0.874143 1
gene 1 5 23 -7.28179 0 5 -7.28179 1
gene 1 6 23 0.726872 0 6 0.726872 0
gene 1 7 23 -2.42283 0 7 -2.42283 1
gene 1 8 23 -4.88138 0 8 -4.88138 1
gene 1 9 23 -2.55819 0 9 -2.55819 1
gene 1 10 23 -0.100285 0 10 -0.100285 1
gene 1 11 23 3.23052 0 11 3.23052 1
gene 1 12 23 3.93364 0 12 3.93364 1
gene 1 13 23 -5.65542 0 13 -5.65542 1
gene 1 14 23 0.654552 0 14 0.654552 1
gene 1 15 23 0.196834 0 15 0.196834 1
gene 1 16 23 0.618217 0 16 0.618217 1
gene 1 17 23 -1.19925 0 17 -1.19925 1
gene 1 18 23 3.81454 0 18 3.81454 1
gene 1 19 23 1.39516 0 19 1.39516 1
gene 1 20 23 -5.36849 0 20 -5.36849 1
gene 1 21 23 -2.19912 0 21 -2.19912 1
gene 1 22 23 -2.88189 0 22 -2.88189 1
gene 1 1 24 -1.60676 0 23 -1.60676 1
gene 1 2 24 -6.49584 0 24 -6.49584 1
gene 1 3 24 -4.89486 0 25 -4.89486 1
gene 1 4 24 -3.2576 0 26 -3.2576 1
gene 1 5 24 -5.21506 0 27 -5.21506 1
gene 1 6 24 -2.01176 0 28 -2.01176 0
gene 1 7 24 -1.0852 0 29 -1.0852 1
gene 1 8 24 0.785251 0 30 0.785251 1
gene 1 9 24 6.36408 0 31 6.36408 1
gene 1 10 24 0.766678 0 32 0.766678 1
gene 1 11 24 -0.390585 0 33 -0.390585 1
gene 1 12 24 -1.07419 0 34 -1.07419 1
gene 1 13 24 0.740448 0 35 0.740448 1
gene 1 14 24 5.09587 0 36 5.09587 1
gene 1 15 24 -7.58216 0 37 -7.58216 1
gene 1 16 24 5.61572 0 38 5.61572 1
gene 1 17 24 -5.50258 0 39 -5.50258 0
gene 1 18 24 8 0 40 8 1
gene 1 19 24 -1.10154 0 41 -1.10154 1
gene 1 20 24 -7.82691 0 42 -7.82691 1
gene 1 21 24 -0.958617 0 43 -0.958617 1
gene 1 22 24 3.34893 0 44 3.34893 1
gene 1 1 25 5.03821 0 45 5.03821 1
gene 1 2 25 -2.04769 0 46 -2.04769 1
gene 1 3 25 -2.29536 0 47 -2.29536 1
gene 1 4 25 -3.08422 0 48 -3.08422 1
gene 1 5 25 -1.69615 0 49 -1.69615 1
gene 1 6 25 -8 0 50 -8 1
gene 1 7 25 -6.94076 0 51 -6.94076 1
gene 1 8 25 -1.30888 0 52 -1.30888 1
gene 1 9 25 -6.75538 0 53 -6.75538 1
gene 1 10 25 -2.49047 0 54 -2.49047 1
gene 1 11 25 0.735833 0 55 0.735833 1
gene 1 12 25 -8 0 56 -8 1
gene 1 13 25 -7.24576 0 57 -7.24576 1
gene 1 14 25 -7.73499 0 58 -7.73499 1
gene 1 15 25 -1.51072 0 59 -1.51072 1
gene 1 16 25 6.36264 0 60 6.36264 1
gene 1 17 25 3.08412 0 61 3.08412 1
gene 1 18 25 -2.06122 0 62 -2.06122 1
gene 1 19 25 -4.39054 0 63 -4.39054 1
gene 1 20 25 1.52693 0 64 1.52693 1
gene 1 21 25 2.83665 0 65 2.83665 1
gene 1 22 25 4.99919 0 66 4.99919 1
gene 1 1 26 -3.06909 0 67 -3.06909 1
gene 1 2 26 3.53485 0 68 3.53485 1
gene 1 3 26 -0.526579 0 69 -0.526579 1
gene 1 4 26 -3.06097 0 70 -3.06097 1
gene 1 5 26 3.1379 0 71 3.1379 1
gene 1 6 26 3.808 0 72 3.808 1
gene 1 7 26 -4.48386 0 73 -4.48386 1
gene 1 8 26 1.84659 0 74 1.84659 1
gene 1 9 26 6.8737 0 75 6.8737 1
gene 1 10 26 5.03867 0 76 5.03867 1
gene 1 11 26 0.916776 0 77 0.916776 1
gene 1 12 26 -0.535864 0 78 -0.535864 1
gene 1 13 26 -0.667966 0 79 -0.667966 1
gene 1 14 26 2.51419 0 80 2.51419 1
gene 1 15 26 3.30126 0 81 3.30126 1
gene 1 16 26 6.04617 0 82 6.04617 1
gene 1 17 26 -3.24538 0 83 -3.24538 1
gene 1 18 26 -0.564329 0 84 -0.564329 1
gene 1 19 26 2.631 0 85 2.631 1
gene 1 20 26 6.7289 0 86 6.7289 1
gene 1 21 26 0.513189 0 87 0.513189 1
gene 1 22 26 4.34884 0 88 4.34884 1
gene 1 1 27 1.09914 0 89 1.09914 1
gene 1 2 27 5.37204 0 90 5.37204 1
gene 1 3 27 1.8515 0 91 1.8515 1
gene 1 4 27 0.544068 0 92 0.544068 1
gene 1 5 27 -5.43099 0 93 -5.43099 1
gene 1 6 27 0.943431 0 94 0.943431 1
gene 1 7 27 -2.92189 0 95 -2.92189 1
gene 1 8 27 -3.41698 0 96 -3.41698 1
gene 1 9 27 4.82767 0 97 4.82767 1
gene 1 10 27 -6.10733 0 98 -6.10733 1
gene 1 11 27 -2.61336 0 99 -2.61336 1
gene 1 12 27 -2.01747 0 100 -2.01747 1
gene 1 13 27 -6.01107 0 101 -6.01107 1
gene 1 14 27 5.46767 0 102 5.46767 1
gene 1 15 27 -6.37401 0 103 -6.37401 1
gene 1 16 27 4.52557 0 104 4.52557 1
gene 1 17 27 1.42314 0 105 1.42314 0
gene 1 18 27 4.64666 0 106 4.64666 1
gene 1 19 27 3.97763 0 107 3.97763 1
gene 1 20 27 -1.70559 0 108 -1.70559 1
gene 1 21 27 3.73035 0 109 3.73035 1
gene 1 22 27 2.26011 0 110 2.26011 1
gene 1 1 28 2.03835 0 111 2.03835 1
gene 1 2 28 -2.98818 0 112 -2.98818 0
gene 1 3 28 -0.519266 0 113 -0.519266 1
gene 1 4 28 5.83777 0 114 5.83777 1
gene 1 5 28 -2.66631 0 115 -2.66631 1
gene 1 6 28 0.921525 0 116 0.921525 1
gene 1 7 28 -1.22025 0 117 -1.22025 1
gene 1 8 28 -2.8498 0 118 -2.8498 1
gene 1 9 28 0.48551 0 119 0.48551 1
gene 1 10 28 -2.72386 0 120 -2.72386 1
gene 1 11 28 6.99789 0 121 6.99789 1
